#ifndef MNIST_H
#define MNIST_H

#include "eif_model.h"

// Layer 0 Weights (36 elements)
static const float32_t layer_0_weights[] = {
-0.527581f, 0.363036f, 0.540145f, -0.188472f, -0.033256f, 0.573411f, -0.107647f, -0.141512f, 0.189124f, 0.482598f, 
0.101093f, -0.366115f, 0.161797f, 0.146202f, 0.103315f, 0.293806f, 0.644715f, 0.508249f, 0.067520f, 0.589734f, 
0.590136f, 0.609906f, 0.480467f, 0.440558f, 0.017949f, -0.100805f, -0.182730f, -0.654248f, -0.188014f, 0.071694f, 
0.238111f, 0.471217f, 0.387076f, 0.004709f, -0.018060f, 0.368295f, };

// Layer 0 Biases (4 elements)
static const float32_t layer_0_biases[] = {
-0.022770f, 0.035704f, 0.002404f, 0.155496f, };

// Layer 3 Weights (6760 elements)
static const float32_t layer_3_weights[] = {
0.072485f, 0.004164f, -0.094344f, 0.018929f, -0.100548f, -0.078582f, 0.058150f, -0.137451f, 0.034541f, -0.139774f, 
0.022973f, -0.135314f, 0.005896f, -0.087340f, -0.089206f, -0.158013f, -0.121689f, -0.008316f, -0.074079f, 0.003652f, 
-0.200546f, -0.014540f, -0.121652f, -0.138832f, -0.166380f, -0.095364f, -0.153984f, -0.025784f, -0.191068f, -0.085392f, 
-0.168324f, -0.033025f, -0.266989f, -0.186147f, -0.186298f, -0.180895f, -0.279430f, -0.217170f, -0.244051f, -0.031047f, 
-0.144674f, -0.100399f, -0.095922f, -0.029461f, -0.119960f, -0.158148f, -0.097630f, -0.082181f, -0.074839f, -0.007809f, 
-0.000072f, -0.127153f, 0.014936f, -0.058757f, -0.009975f, 0.010439f, -0.041664f, -0.012803f, -0.077880f, -0.022949f, 
-0.125477f, -0.123768f, -0.015908f, -0.019906f, -0.053634f, -0.141588f, -0.149980f, 0.027067f, -0.132593f, 0.040299f, 
-0.002629f, 0.020706f, -0.027965f, -0.040592f, -0.033525f, -0.073056f, -0.098059f, 0.049962f, -0.099571f, 0.044938f, 
-0.075734f, 0.065941f, -0.116444f, 0.049219f, -0.165289f, -0.019261f, -0.142147f, 0.009350f, -0.120191f, 0.010059f, 
-0.148745f, 0.022854f, -0.105708f, -0.056558f, -0.130565f, -0.084851f, -0.053095f, -0.064155f, -0.110805f, -0.048429f, 
-0.051629f, -0.229741f, -0.061389f, 0.022830f, -0.131070f, -0.142621f, -0.083283f, -0.109338f, -0.007436f, -0.169146f, 
-0.111617f, 0.007807f, -0.185946f, -0.142254f, -0.067818f, -0.007883f, 0.024317f, -0.073309f, -0.166863f, -0.000130f, 
0.017168f, -0.037572f, -0.100783f, -0.004713f, -0.024055f, 0.057219f, -0.040179f, -0.013164f, 0.019418f, 0.047018f, 
0.064718f, -0.001269f, 0.015452f, 0.121939f, 0.016835f, -0.016607f, 0.003306f, 0.056950f, 0.057038f, -0.099428f, 
-0.074816f, 0.122468f, 0.050002f, 0.002753f, 0.040635f, -0.001951f, 0.054710f, -0.088587f, -0.088874f, 0.005009f, 
-0.092413f, -0.155041f, -0.044445f, -0.151164f, -0.236140f, -0.044431f, -0.067103f, -0.128651f, -0.000203f, -0.107125f, 
-0.093304f, -0.033207f, -0.058765f, -0.127079f, -0.075239f, -0.082062f, -0.064955f, -0.077363f, -0.118828f, -0.022758f, 
-0.041474f, -0.143356f, 0.017570f, 0.016426f, -0.103989f, -0.005547f, -0.043734f, -0.043184f, -0.044540f, -0.004051f, 
0.019682f, 0.160444f, -0.064312f, -0.021796f, 0.109444f, 0.042661f, 0.117972f, -0.022113f, 0.195878f, 0.177337f, 
0.130643f, -0.034745f, 0.020157f, 0.162423f, 0.071233f, -0.013954f, 0.155606f, -0.024220f, -0.054991f, -0.106413f, 
-0.092254f, 0.027861f, 0.048990f, -0.137558f, -0.109171f, -0.158074f, -0.061561f, -0.059732f, -0.108542f, -0.097676f, 
-0.076202f, -0.066990f, -0.081283f, -0.133502f, -0.076067f, -0.145951f, 0.007487f, 0.035564f, -0.012759f, -0.109377f, 
-0.047896f, -0.005517f, -0.027115f, 0.049594f, -0.100265f, -0.018288f, 0.006062f, -0.035614f, -0.020123f, -0.018335f, 
0.028618f, 0.000105f, 0.124594f, -0.110660f, 0.001097f, -0.122151f, 0.120370f, -0.040398f, 0.078259f, -0.157104f, 
0.241747f, -0.033421f, 0.094668f, -0.037261f, 0.063025f, 0.070884f, 0.036467f, -0.035640f, 0.107921f, 0.108586f, 
0.004551f, 0.014535f, 0.049001f, 0.051351f, 0.096009f, -0.114219f, -0.178218f, 0.070264f, -0.124876f, -0.218403f, 
0.006949f, -0.048960f, -0.134543f, 0.013614f, 0.018621f, -0.049051f, -0.122737f, 0.040784f, -0.065547f, 0.055141f, 
0.020206f, 0.040011f, -0.038812f, -0.057507f, -0.018681f, 0.022990f, -0.041904f, 0.070853f, -0.020528f, 0.051037f, 
0.100396f, -0.126670f, 0.065822f, -0.183691f, -0.194312f, -0.105205f, -0.007206f, -0.292099f, -0.038092f, -0.295061f, 
-0.120407f, -0.231913f, 0.128146f, -0.108249f, -0.057771f, -0.039010f, 0.027346f, -0.003385f, 0.083629f, -0.100615f, 
0.172602f, 0.096877f, 0.072216f, -0.073775f, 0.089438f, 0.089926f, 0.062244f, 0.041516f, -0.145375f, 0.181364f, 
0.042707f, -0.159766f, -0.041433f, -0.148596f, -0.157224f, -0.153581f, 0.112540f, -0.098501f, -0.105386f, 0.068489f, 
0.117415f, 0.024049f, -0.026886f, 0.163983f, 0.070934f, -0.028765f, 0.084819f, 0.055996f, 0.096789f, 0.017923f, 
-0.026001f, 0.005655f, -0.147007f, 0.010394f, 0.057350f, -0.245134f, -0.449787f, -0.186164f, -0.218130f, -0.542828f, 
-0.149410f, -0.360777f, -0.223166f, -0.224030f, 0.106351f, -0.144667f, -0.127039f, 0.058132f, 0.003975f, -0.107984f, 
0.004664f, 0.047402f, 0.185475f, 0.070798f, 0.031144f, 0.037989f, 0.045808f, 0.149853f, 0.198943f, -0.007308f, 
-0.178397f, 0.187963f, 0.124604f, -0.007970f, -0.195461f, -0.080093f, -0.098382f, -0.070535f, 0.119419f, -0.123911f, 
0.032304f, 0.081173f, 0.068678f, 0.040393f, -0.000181f, 0.059344f, 0.117454f, 0.018730f, 0.134159f, 0.015551f, 
0.081054f, 0.171215f, -0.002107f, -0.051770f, -0.112421f, 0.005018f, 0.024052f, -0.325289f, -0.291300f, -0.210345f, 
-0.237192f, -0.383211f, -0.132924f, -0.222872f, -0.250476f, -0.007262f, 0.035011f, -0.005139f, -0.070367f, 0.183412f, 
-0.061219f, 0.006205f, -0.042044f, -0.059688f, 0.084010f, -0.000139f, 0.051958f, 0.011419f, 0.006835f, 0.080017f, 
0.035467f, 0.011434f, -0.028712f, -0.013607f, 0.062915f, -0.174197f, -0.247320f, -0.208587f, -0.146913f, -0.088416f, 
-0.036417f, -0.154396f, 0.055399f, 0.080895f, -0.047083f, -0.099542f, 0.111206f, -0.088649f, 0.144024f, 0.123578f, 
0.107807f, 0.110083f, 0.015840f, 0.076974f, 0.072097f, -0.075811f, -0.275402f, 0.041688f, -0.184254f, -0.221931f, 
-0.245032f, -0.161198f, -0.179565f, -0.099428f, -0.012088f, -0.041618f, -0.113341f, 0.145406f, 0.047690f, 0.002635f, 
-0.038585f, 0.081451f, -0.034021f, -0.048516f, 0.007960f, -0.094641f, -0.049015f, 0.005399f, 0.013664f, -0.015178f, 
-0.062091f, 0.071622f, 0.097228f, -0.046836f, -0.162035f, -0.098114f, -0.073668f, -0.057240f, -0.169929f, -0.168442f, 
-0.072508f, -0.032837f, -0.072628f, -0.058184f, -0.035724f, -0.068050f, 0.036208f, 0.028284f, -0.016110f, 0.045206f, 
0.082028f, 0.068844f, -0.020075f, -0.045333f, 0.132958f, 0.042883f, 0.165542f, 0.008814f, -0.075339f, 0.083187f, 
0.064502f, -0.040425f, 0.015172f, 0.004087f, -0.149348f, 0.014823f, -0.011379f, -0.016512f, 0.016798f, 0.006946f, 
0.049098f, -0.065380f, 0.064228f, -0.159036f, 0.049856f, -0.052547f, -0.000233f, -0.162664f, 0.032435f, 0.020800f, 
-0.011171f, -0.014121f, -0.019715f, -0.103600f, -0.050513f, -0.078619f, -0.078759f, -0.001703f, -0.160400f, -0.135877f, 
-0.047095f, 0.017933f, -0.181164f, -0.096602f, -0.073475f, -0.152858f, 0.016059f, -0.010968f, 0.015667f, -0.018444f, 
-0.031315f, -0.071094f, 0.020369f, -0.045143f, 0.058232f, 0.033635f, 0.206331f, 0.006080f, 0.071730f, -0.040423f, 
0.113225f, 0.234223f, 0.092906f, -0.046853f, -0.060182f, 0.008771f, 0.009695f, -0.034712f, -0.090493f, 0.062833f, 
-0.047001f, -0.087594f, -0.071651f, -0.004868f, 0.023882f, -0.098258f, -0.037498f, -0.142993f, 0.022395f, -0.127297f, 
0.011759f, -0.009565f, 0.036226f, -0.078223f, -0.062739f, -0.043033f, -0.042291f, -0.069024f, -0.057317f, -0.038017f, 
-0.071690f, -0.128124f, -0.011665f, -0.046203f, -0.117642f, -0.035257f, -0.103985f, -0.115005f, -0.011213f, -0.090900f, 
-0.005924f, -0.031756f, 0.046032f, -0.106386f, -0.007297f, -0.081215f, 0.098841f, -0.031328f, 0.133410f, -0.010437f, 
0.030888f, -0.015845f, 0.120164f, 0.052104f, 0.088508f, -0.006302f, 0.105852f, 0.072499f, 0.131169f, -0.070146f, 
-0.118805f, 0.053602f, 0.026629f, 0.037130f, -0.071367f, 0.003170f, -0.056014f, -0.126890f, -0.088706f, -0.087841f, 
-0.119308f, -0.136100f, -0.034775f, -0.041507f, -0.147007f, -0.057058f, -0.034830f, -0.107051f, 0.007008f, 0.033503f, 
-0.036156f, -0.091297f, -0.055943f, -0.133980f, -0.053834f, -0.041822f, 0.024648f, -0.120559f, -0.161972f, -0.012521f, 
-0.122775f, -0.034871f, -0.044605f, -0.175765f, -0.120421f, -0.038862f, -0.105240f, -0.194312f, -0.172531f, -0.176761f, 
-0.118855f, -0.210101f, -0.058601f, -0.132599f, -0.110260f, -0.175174f, -0.066758f, -0.285289f, -0.080010f, -0.141616f, 
-0.058404f, -0.220765f, -0.133961f, -0.171271f, -0.068163f, -0.183781f, -0.211696f, -0.157075f, -0.141965f, -0.089829f, 
-0.145493f, -0.168238f, -0.206598f, -0.104877f, -0.138087f, -0.111512f, -0.241784f, -0.101855f, 0.027444f, -0.038707f, 
-0.207887f, -0.084217f, -0.055338f, -0.118132f, -0.024264f, -0.044932f, 0.009124f, 0.152181f, 0.196447f, 0.145588f, 
0.056533f, 0.179041f, 0.180324f, 0.065141f, 0.008439f, 0.159460f, 0.218364f, 0.168763f, -0.047442f, -0.094754f, 
0.065655f, 0.008469f, -0.193682f, -0.049271f, -0.129861f, 0.102387f, 0.083258f, -0.142418f, -0.058608f, 0.019568f, 
0.138172f, 0.071767f, -0.013432f, 0.093847f, -0.087529f, -0.076119f, 0.006540f, 0.021906f, -0.151656f, -0.141025f, 
0.091061f, 0.101947f, -0.252389f, -0.208626f, -0.151115f, 0.006651f, -0.058847f, -0.113921f, -0.003506f, 0.016773f, 
0.044890f, -0.053120f, -0.052803f, 0.087197f, 0.052004f, 0.155127f, 0.043439f, 0.218353f, 0.168128f, 0.060380f, 
0.141519f, 0.161124f, 0.140336f, 0.119019f, 0.090356f, 0.072563f, -0.006165f, -0.057934f, -0.034583f, 0.046116f, 
-0.027672f, -0.011051f, -0.018248f, -0.089641f, 0.026945f, -0.027140f, -0.079828f, 0.109421f, 0.154181f, 0.027251f, 
-0.067730f, 0.076558f, 0.125106f, 0.103265f, 0.057062f, 0.114743f, -0.022211f, 0.054772f, -0.055583f, 0.036170f, 
-0.074733f, -0.071996f, -0.105125f, 0.078609f, -0.045112f, 0.062076f, -0.023338f, 0.119325f, 0.041483f, 0.129614f, 
-0.008933f, 0.087966f, -0.111827f, 0.073051f, 0.028287f, 0.007662f, 0.016526f, 0.042864f, -0.126103f, 0.016229f, 
-0.012090f, 0.121790f, -0.017316f, 0.159324f, -0.049986f, 0.053354f, -0.000020f, 0.130417f, -0.130436f, -0.055247f, 
-0.048824f, -0.004296f, -0.073595f, -0.081541f, -0.198273f, -0.194590f, 0.024540f, -0.082911f, -0.055254f, -0.089615f, 
0.080469f, 0.020254f, -0.091997f, -0.030903f, 0.064650f, -0.014921f, -0.023782f, -0.140605f, -0.031171f, -0.080545f, 
-0.120712f, -0.202813f, 0.007986f, -0.028522f, 0.011214f, -0.091381f, 0.184498f, -0.045488f, 0.000562f, -0.037802f, 
-0.040090f, -0.007357f, 0.045362f, 0.082939f, -0.143849f, 0.050224f, -0.073296f, 0.039521f, -0.127208f, -0.015748f, 
-0.077495f, 0.049427f, 0.059109f, 0.038652f, -0.022845f, 0.147777f, -0.063226f, -0.096460f, -0.156610f, 0.023377f, 
-0.077066f, -0.078650f, -0.041831f, -0.093860f, -0.215497f, 0.002751f, -0.067413f, -0.039744f, 0.032080f, -0.022028f, 
-0.146862f, 0.015557f, 0.029011f, -0.152817f, -0.170244f, -0.072504f, -0.135511f, 0.095190f, -0.211166f, -0.007363f, 
-0.075292f, 0.082048f, -0.122895f, -0.052984f, -0.027943f, -0.147370f, -0.095619f, -0.057405f, 0.054597f, -0.096066f, 
0.055153f, -0.137474f, -0.076560f, -0.155526f, -0.118547f, -0.111953f, -0.261172f, -0.074411f, -0.180259f, -0.042516f, 
-0.269305f, -0.175508f, -0.332824f, 0.035219f, -0.005309f, 0.068499f, 0.002190f, 0.118770f, -0.275979f, -0.033222f, 
-0.087638f, 0.049519f, -0.136859f, -0.059901f, -0.110409f, -0.067801f, -0.134987f, -0.095122f, -0.011623f, -0.052456f, 
-0.126748f, -0.062991f, -0.050083f, -0.080127f, 0.021104f, -0.022656f, -0.101820f, 0.015496f, 0.177589f, 0.089235f, 
0.061557f, 0.156678f, -0.056156f, 0.208058f, 0.040820f, 0.072411f, -0.153513f, 0.094837f, -0.082694f, -0.083063f, 
-0.152556f, -0.039950f, -0.059651f, -0.164107f, -0.147637f, -0.191807f, -0.196386f, -0.189368f, -0.290686f, -0.220306f, 
-0.258948f, 0.026938f, -0.159786f, -0.207493f, -0.342589f, 0.020464f, -0.048415f, 0.062287f, 0.046907f, 0.172769f, 
-0.183809f, 0.026654f, -0.105674f, 0.018943f, -0.163514f, -0.070061f, -0.030461f, 0.038143f, 0.072458f, -0.013807f, 
-0.071172f, 0.022156f, -0.061647f, -0.192102f, -0.049647f, -0.094815f, -0.001488f, -0.147672f, -0.162143f, -0.042997f, 
0.299217f, 0.148889f, 0.113408f, 0.160575f, 0.041163f, 0.249908f, 0.117334f, -0.077486f, -0.124605f, -0.006630f, 
-0.049681f, -0.270424f, -0.135835f, -0.134218f, -0.168522f, -0.179334f, -0.299233f, -0.046337f, -0.146125f, 0.043114f, 
-0.251515f, -0.098176f, -0.236877f, 0.003310f, -0.022706f, -0.047600f, -0.107543f, 0.052470f, 0.076878f, 0.214287f, 
0.115331f, 0.069725f, 0.035420f, 0.073753f, -0.067363f, 0.075797f, -0.011935f, -0.098858f, -0.087151f, -0.025407f, 
-0.041173f, -0.114640f, -0.031008f, -0.120173f, -0.330214f, -0.225356f, -0.116602f, -0.242610f, 0.072621f, -0.184754f, 
-0.041088f, 0.034221f, 0.278348f, 0.130346f, 0.115117f, 0.278918f, -0.069533f, 0.160739f, 0.245097f, -0.161588f, 
-0.157417f, -0.126708f, -0.029828f, -0.248031f, -0.274088f, -0.102228f, -0.156717f, -0.099555f, -0.185444f, -0.108070f, 
-0.053024f, -0.023632f, -0.143084f, -0.068578f, -0.196336f, 0.146013f, -0.034182f, 0.035187f, -0.138720f, 0.162060f, 
0.124040f, 0.055184f, 0.053062f, 0.035080f, -0.099612f, -0.137302f, -0.151956f, 0.067415f, -0.148592f, -0.311586f, 
-0.158973f, -0.030092f, -0.109763f, -0.131309f, -0.066708f, -0.037918f, -0.176194f, -0.157689f, -0.100862f, -0.052376f, 
0.162840f, -0.133716f, 0.019104f, 0.181174f, 0.132994f, 0.169836f, 0.140853f, 0.070791f, -0.068888f, 0.120012f, 
0.190178f, -0.210348f, -0.331524f, -0.093882f, -0.126552f, -0.274547f, -0.251404f, -0.158155f, -0.255099f, 0.005206f, 
-0.106908f, -0.090215f, -0.134822f, 0.093735f, -0.058949f, -0.090612f, -0.218609f, 0.100430f, -0.044924f, -0.008186f, 
-0.106607f, 0.078580f, -0.020190f, 0.104246f, -0.054983f, 0.074013f, -0.198448f, -0.266067f, -0.156949f, -0.032125f, 
-0.284936f, -0.265043f, -0.190002f, -0.197039f, -0.086386f, -0.053463f, -0.082004f, 0.031142f, -0.014578f, -0.068805f, 
-0.108572f, 0.061917f, 0.123693f, -0.100356f, -0.033184f, 0.138110f, 0.198074f, 0.241797f, 0.099833f, -0.001670f, 
-0.238013f, 0.085550f, -0.034304f, -0.291662f, -0.314960f, -0.050086f, -0.274109f, -0.083909f, -0.089793f, -0.017077f, 
-0.190049f, 0.006618f, 0.001266f, -0.020033f, -0.076995f, 0.192710f, -0.022822f, 0.009961f, -0.085799f, 0.057204f, 
-0.151191f, -0.043895f, -0.119147f, 0.035962f, -0.128896f, 0.125298f, -0.056507f, 0.124167f, -0.210143f, 0.018892f, 
-0.262078f, -0.061620f, -0.073378f, 0.001346f, -0.084100f, -0.053788f, 0.054332f, 0.004932f, -0.039015f, 0.115960f, 
0.070962f, -0.032889f, -0.018576f, -0.024484f, -0.013264f, -0.033231f, 0.162001f, -0.001009f, 0.060646f, 0.134227f, 
0.153216f, -0.202494f, -0.223670f, -0.024019f, -0.150905f, -0.139314f, 0.026014f, 0.099777f, -0.012382f, 0.057011f, 
-0.018928f, 0.063925f, 0.123374f, 0.150533f, -0.083129f, -0.066184f, -0.014786f, 0.047761f, 0.028267f, 0.021397f, 
-0.007235f, 0.144737f, 0.116694f, 0.043831f, -0.069170f, 0.178710f, -0.019270f, 0.093774f, -0.034953f, 0.178581f, 
0.012633f, 0.105159f, -0.019427f, 0.070443f, 0.092137f, 0.096675f, 0.014628f, 0.098229f, -0.004870f, 0.000982f, 
0.034617f, 0.087423f, -0.106382f, -0.131867f, -0.026290f, 0.040633f, -0.092878f, -0.125993f, -0.095172f, -0.154565f, 
-0.064717f, -0.053627f, -0.087978f, -0.098770f, 0.005413f, 0.049800f, -0.101096f, -0.038907f, -0.036110f, 0.123527f, 
0.041604f, 0.026239f, 0.023261f, 0.009420f, 0.033939f, 0.090142f, -0.122073f, -0.051925f, 0.021753f, 0.023168f, 
-0.037080f, 0.016713f, -0.029486f, 0.036900f, 0.173940f, 0.048852f, 0.031924f, 0.227409f, -0.135299f, 0.128656f, 
0.047310f, 0.174803f, 0.170726f, -0.034627f, -0.008069f, 0.179401f, 0.077316f, 0.117783f, 0.014207f, 0.014859f, 
-0.007366f, -0.026746f, 0.131899f, 0.053183f, -0.056740f, -0.113202f, 0.006484f, 0.012793f, -0.060139f, -0.141519f, 
-0.171695f, -0.124250f, 0.058344f, -0.042204f, -0.082155f, 0.025336f, 0.082490f, 0.034166f, 0.075259f, 0.042540f, 
0.000463f, 0.181226f, 0.168021f, 0.140051f, -0.046399f, 0.120270f, -0.052473f, 0.019699f, -0.154103f, 0.094415f, 
-0.047645f, 0.056077f, 0.025545f, 0.044387f, -0.189101f, 0.058853f, 0.043041f, 0.163779f, 0.041643f, 0.112342f, 
0.033520f, 0.110012f, 0.034976f, 0.145617f, -0.125092f, 0.069432f, -0.068883f, 0.103768f, -0.181873f, 0.086833f, 
-0.164144f, 0.106032f, -0.061789f, 0.068696f, -0.216896f, -0.071576f, -0.215923f, -0.149136f, -0.173644f, -0.199649f, 
-0.100677f, -0.057049f, -0.159299f, -0.111137f, -0.167826f, -0.085779f, -0.142653f, -0.043639f, -0.094820f, -0.022103f, 
-0.208879f, 0.063139f, -0.121221f, 0.042994f, -0.052394f, 0.171436f, -0.129599f, 0.060208f, -0.070010f, 0.172204f, 
-0.027825f, -0.038646f, -0.161042f, 0.173521f, -0.054167f, 0.114736f, -0.007369f, 0.202101f, 0.046119f, 0.141493f, 
0.068940f, 0.214030f, 0.056947f, -0.045875f, 0.008636f, -0.004950f, 0.015894f, 0.040145f, -0.105111f, 0.027452f, 
-0.073146f, 0.058044f, 0.023124f, 0.048702f, -0.054155f, 0.106161f, 0.049278f, 0.018180f, 0.012498f, 0.094404f, 
-0.023297f, -0.031857f, -0.045382f, 0.199953f, -0.047901f, 0.055222f, -0.101433f, 0.108809f, -0.030887f, -0.026562f, 
-0.068569f, -0.016585f, 0.048090f, -0.000874f, -0.167209f, -0.049212f, -0.048147f, -0.081822f, -0.073546f, 0.004949f, 
-0.051384f, -0.075218f, -0.194826f, -0.005204f, -0.089266f, -0.086466f, 0.065136f, -0.091973f, -0.171667f, -0.061488f, 
-0.018869f, -0.075129f, -0.014591f, -0.052077f, -0.074091f, 0.084837f, 0.028042f, 0.014195f, -0.026814f, -0.100530f, 
-0.067601f, -0.013338f, -0.054005f, 0.072808f, -0.003581f, 0.081315f, 0.027308f, -0.040399f, 0.010776f, 0.047823f, 
-0.026474f, 0.130873f, 0.131365f, 0.091490f, 0.005770f, 0.118222f, 0.065037f, 0.052807f, 0.098760f, 0.083596f, 
-0.005535f, 0.150024f, -0.027393f, 0.157636f, -0.022593f, -0.017299f, -0.062048f, 0.125430f, 0.033309f, -0.030297f, 
-0.024338f, 0.032250f, -0.146435f, -0.203652f, -0.056211f, 0.008222f, -0.117717f, -0.197476f, -0.118124f, -0.231207f, 
-0.183159f, -0.071702f, -0.173180f, -0.049785f, -0.099270f, 0.016116f, 0.093855f, -0.012915f, -0.007986f, 0.027011f, 
0.029481f, 0.019953f, -0.015591f, 0.035972f, 0.018545f, -0.010545f, 0.111096f, 0.058637f, -0.036345f, -0.028026f, 
0.069071f, -0.000510f, 0.057865f, -0.040091f, 0.016820f, 0.044410f, 0.031488f, -0.065750f, 0.104842f, -0.038611f, 
0.000329f, 0.034593f, 0.039019f, -0.081583f, 0.026937f, 0.065760f, 0.064486f, -0.082525f, 0.007704f, 0.001341f, 
0.025923f, -0.118978f, -0.084098f, 0.089635f, 0.005765f, -0.040326f, -0.123064f, 0.003205f, -0.054553f, -0.088906f, 
-0.202053f, -0.110392f, -0.206867f, -0.075413f, -0.147509f, -0.287314f, -0.146586f, -0.045354f, 0.028324f, -0.013139f, 
0.040413f, -0.054152f, 0.115045f, 0.157374f, 0.054437f, 0.035051f, 0.028165f, -0.045812f, 0.043731f, -0.019399f, 
0.025737f, -0.001127f, 0.086737f, 0.011294f, 0.042270f, 0.050336f, 0.099540f, 0.007331f, -0.019956f, 0.035272f, 
0.091770f, -0.046623f, 0.126241f, 0.026121f, 0.064979f, 0.002724f, -0.030097f, 0.028273f, -0.036504f, -0.023488f, 
0.043952f, 0.014844f, -0.050004f, -0.131725f, 0.024302f, 0.035134f, 0.014654f, -0.061541f, -0.002309f, -0.009523f, 
-0.138722f, -0.084753f, -0.273634f, -0.118936f, -0.166490f, -0.177206f, -0.114632f, -0.219602f, -0.280433f, 0.038880f, 
-0.069533f, -0.059381f, 0.041610f, 0.056083f, 0.143131f, 0.085871f, 0.043739f, 0.121793f, 0.034513f, -0.090772f, 
0.040785f, -0.060929f, -0.013947f, -0.201538f, 0.053611f, -0.093018f, -0.074413f, -0.059294f, -0.029184f, -0.112956f, 
-0.031330f, -0.162592f, 0.003164f, -0.144574f, -0.039946f, -0.052647f, -0.058886f, -0.077742f, 0.111438f, -0.108988f, 
-0.023661f, 0.051160f, -0.023618f, -0.031712f, 0.001397f, 0.072983f, -0.012759f, -0.069704f, 0.072628f, -0.028244f, 
0.042157f, 0.026589f, -0.101846f, -0.021582f, -0.280897f, 0.001568f, -0.208368f, -0.189414f, -0.009494f, -0.153981f, 
-0.266412f, -0.006568f, -0.131160f, -0.014317f, -0.116349f, -0.101859f, -0.022589f, -0.089250f, 0.057407f, -0.237518f, 
-0.131359f, -0.291001f, -0.027685f, -0.237430f, -0.114306f, -0.307531f, -0.150201f, -0.245750f, -0.190004f, -0.268804f, 
-0.137270f, -0.125876f, -0.270630f, -0.112938f, -0.252974f, -0.229342f, -0.085697f, -0.226655f, -0.268032f, -0.113507f, 
-0.018751f, -0.259996f, -0.143339f, -0.101596f, 0.107128f, -0.106092f, -0.091721f, -0.107259f, 0.001238f, -0.097808f, 
-0.037489f, -0.016549f, -0.017983f, -0.077964f, -0.069328f, -0.104895f, -0.116116f, -0.067954f, -0.115052f, 0.062268f, 
0.102161f, 0.113555f, 0.076345f, 0.046000f, -0.033605f, 0.066655f, -0.051606f, -0.059679f, -0.244788f, -0.016669f, 
-0.126624f, -0.111065f, -0.300122f, 0.037707f, -0.280894f, -0.174810f, -0.222903f, -0.149092f, -0.086370f, 0.061016f, 
-0.264152f, -0.001294f, -0.155523f, 0.005384f, -0.256604f, 0.067763f, -0.190994f, 0.057636f, -0.075721f, -0.023034f, 
-0.055735f, -0.013211f, -0.093467f, -0.062066f, -0.020342f, -0.044875f, 0.038351f, -0.057081f, -0.093519f, 0.023522f, 
0.020865f, -0.122769f, -0.009248f, -0.146716f, -0.219556f, 0.002790f, -0.082712f, 0.011733f, -0.070626f, -0.086246f, 
-0.092671f, 0.100848f, 0.245324f, 0.112790f, 0.083348f, 0.171580f, 0.101119f, 0.125301f, -0.108673f, -0.019355f, 
-0.056900f, 0.228558f, -0.135827f, 0.059875f, -0.031181f, 0.065783f, -0.028984f, 0.020503f, -0.177283f, -0.072650f, 
0.015280f, 0.151839f, 0.012537f, 0.063239f, -0.044666f, 0.108830f, 0.036902f, 0.090273f, 0.150104f, 0.168346f, 
0.096875f, 0.122272f, 0.027653f, 0.113334f, -0.021552f, 0.010482f, 0.029125f, -0.001888f, -0.107921f, -0.025946f, 
0.009846f, 0.031779f, -0.108210f, -0.103425f, -0.026432f, 0.078360f, -0.186840f, -0.046196f, -0.100491f, 0.046987f, 
0.055219f, 0.054282f, 0.013985f, 0.162164f, 0.169913f, 0.127878f, 0.259976f, 0.185276f, 0.046999f, 0.086271f, 
0.118797f, -0.026616f, 0.052216f, 0.043720f, 0.063983f, 0.135282f, -0.026054f, 0.058906f, 0.019068f, 0.148145f, 
-0.055629f, 0.098223f, -0.070587f, 0.002360f, -0.051787f, 0.043146f, 0.054439f, 0.060222f, 0.083452f, 0.094530f, 
0.041196f, 0.170987f, 0.093938f, 0.042986f, 0.030937f, -0.081258f, -0.113355f, -0.019133f, -0.001917f, 0.037857f, 
-0.190717f, 0.096123f, -0.009199f, -0.127204f, -0.149026f, 0.029194f, 0.069267f, 0.130720f, -0.075789f, 0.002800f, 
0.057317f, 0.064434f, 0.056303f, 0.012127f, 0.125232f, 0.183799f, 0.277529f, 0.127385f, 0.172742f, 0.136936f, 
0.026358f, -0.033861f, 0.006324f, 0.005410f, 0.051739f, -0.005868f, 0.101696f, 0.102095f, 0.115020f, 0.104283f, 
0.002278f, 0.031571f, 0.104861f, 0.010219f, 0.076772f, 0.069187f, 0.072314f, 0.134874f, 0.059874f, 0.044201f, 
0.136716f, -0.043271f, 0.182631f, 0.018795f, 0.003229f, 0.041448f, 0.146792f, -0.100003f, 0.041708f, 0.034495f, 
0.088300f, 0.005092f, 0.041810f, 0.065046f, 0.053673f, -0.048271f, -0.052983f, 0.143855f, -0.029056f, 0.106798f, 
0.116725f, 0.142356f, 0.091730f, 0.053809f, 0.198257f, 0.049703f, 0.112421f, 0.140424f, 0.074140f, 0.057637f, 
0.191628f, 0.107976f, -0.020882f, -0.052579f, 0.075714f, -0.016590f, 0.046418f, -0.012729f, 0.075935f, 0.073858f, 
0.041233f, 0.054481f, -0.040348f, 0.100485f, 0.091608f, 0.130979f, 0.066061f, -0.033721f, 0.122749f, -0.000099f, 
0.132074f, -0.029562f, -0.008942f, -0.072573f, 0.021797f, -0.029192f, -0.142975f, -0.106761f, 0.072808f, -0.040791f, 
0.090873f, -0.085639f, -0.031353f, 0.047041f, 0.074723f, -0.056650f, 0.001868f, 0.066969f, -0.033594f, 0.120154f, 
0.118714f, 0.017385f, 0.018121f, 0.052872f, 0.126067f, 0.072388f, 0.080947f, 0.036728f, 0.101172f, 0.149728f, 
0.017385f, 0.052245f, 0.066536f, -0.004792f, -0.029342f, -0.038588f, 0.042319f, -0.091642f, -0.026194f, -0.041756f, 
0.100508f, -0.026410f, 0.102298f, -0.070707f, -0.035372f, 0.019022f, 0.029418f, -0.149091f, -0.043543f, -0.026608f, 
0.045044f, -0.041045f, -0.024463f, -0.020962f, -0.023614f, -0.009641f, -0.057986f, -0.083624f, -0.131820f, -0.005613f, 
-0.002999f, -0.135177f, -0.061707f, -0.001608f, 0.005443f, -0.072692f, 0.091115f, -0.014075f, 0.136469f, 0.008660f, 
0.036200f, 0.008675f, 0.118601f, 0.025014f, -0.067355f, 0.012444f, 0.051275f, 0.111658f, 0.146091f, 0.091268f, 
0.018844f, -0.003750f, -0.073018f, 0.065648f, 0.026730f, 0.068937f, -0.143347f, -0.017091f, -0.099385f, -0.016775f, 
-0.247504f, -0.001890f, -0.156484f, 0.060423f, -0.271185f, -0.109278f, -0.266143f, 0.006787f, -0.186394f, -0.089737f, 
-0.090727f, -0.179137f, -0.122910f, -0.244079f, -0.243560f, -0.053896f, 0.021367f, -0.092578f, -0.138227f, -0.115576f, 
-0.097617f, -0.137828f, -0.017273f, -0.101353f, -0.030951f, -0.020190f, -0.046932f, -0.169591f, -0.110451f, -0.052467f, 
-0.094398f, -0.002641f, -0.200273f, -0.093034f, -0.172268f, -0.100837f, -0.187200f, -0.030975f, -0.117811f, 0.051274f, 
-0.007600f, -0.017730f, 0.043563f, 0.000903f, 0.084545f, -0.015017f, 0.030831f, 0.071998f, -0.086105f, -0.012836f, 
-0.081247f, 0.011418f, -0.007683f, -0.069528f, -0.085950f, -0.060544f, -0.036673f, -0.046421f, -0.080582f, -0.092834f, 
0.020173f, -0.064235f, -0.077148f, -0.126188f, 0.046013f, 0.113522f, -0.170239f, -0.046926f, 0.059401f, 0.091171f, 
-0.048025f, -0.039365f, 0.101435f, 0.040922f, -0.136958f, -0.087336f, -0.075274f, 0.018905f, -0.161034f, 0.022306f, 
0.030870f, 0.020352f, -0.107732f, -0.088140f, 0.022612f, 0.001111f, -0.113699f, -0.030662f, -0.120076f, -0.102594f, 
-0.073267f, -0.067634f, 0.009137f, -0.104843f, -0.089813f, -0.104354f, -0.097508f, -0.104182f, -0.028759f, -0.073515f, 
0.069920f, 0.055627f, -0.137392f, -0.110495f, 0.184783f, 0.146198f, 0.015829f, 0.093950f, 0.135861f, 0.079652f, 
0.082052f, -0.011580f, 0.078110f, 0.036217f, 0.067311f, 0.042419f, 0.113770f, 0.023494f, 0.062379f, 0.025611f, 
0.075097f, -0.049076f, 0.115112f, 0.026077f, 0.053552f, 0.041468f, 0.140480f, 0.091867f, 0.083060f, 0.081369f, 
-0.025107f, -0.065513f, 0.042725f, 0.025232f, 0.013069f, 0.005327f, -0.030368f, -0.000088f, -0.089219f, -0.047106f, 
-0.176550f, -0.173921f, -0.142880f, -0.241034f, -0.189418f, -0.109556f, -0.171388f, -0.105687f, -0.035735f, -0.115029f, 
-0.252209f, -0.068229f, 0.121181f, -0.076696f, 0.048276f, -0.008526f, 0.042245f, 0.027914f, 0.110013f, 0.028702f, 
0.068607f, 0.151986f, 0.136864f, -0.005446f, -0.012197f, 0.104455f, 0.082149f, 0.093977f, 0.034303f, -0.010038f, 
0.084931f, 0.078297f, -0.030209f, 0.075705f, 0.134784f, -0.038528f, -0.017172f, 0.007249f, -0.001940f, -0.021012f, 
-0.039314f, 0.054119f, -0.007770f, -0.042206f, -0.043182f, 0.041401f, -0.075285f, -0.039934f, -0.022829f, 0.011897f, 
-0.020810f, -0.019336f, -0.175679f, 0.014202f, -0.105775f, -0.161600f, -0.214465f, -0.217062f, -0.178747f, -0.181675f, 
-0.209794f, -0.201957f, -0.184398f, -0.059507f, 0.090712f, 0.058560f, 0.094167f, -0.122454f, 0.110115f, 0.035016f, 
0.163482f, 0.109807f, 0.009711f, 0.065351f, 0.039001f, 0.022213f, 0.069174f, 0.003205f, 0.083600f, 0.094375f, 
-0.037849f, -0.162923f, 0.156296f, 0.048988f, 0.005060f, -0.060718f, 0.135942f, -0.028718f, -0.018698f, -0.041936f, 
0.004499f, 0.037848f, -0.058857f, 0.076474f, 0.073102f, -0.015579f, -0.023581f, 0.117640f, -0.001521f, -0.117831f, 
-0.099841f, 0.101750f, -0.014887f, -0.023421f, -0.054210f, -0.013406f, -0.018488f, -0.070981f, -0.124009f, -0.091614f, 
-0.106737f, -0.248114f, -0.157147f, -0.309822f, -0.358685f, -0.049649f, -0.012534f, 0.101718f, 0.077241f, -0.064593f, 
0.069419f, 0.094535f, 0.060873f, 0.073832f, 0.003072f, -0.098056f, 0.126093f, -0.088112f, -0.005357f, -0.187342f, 
0.045222f, -0.203006f, -0.160489f, -0.163152f, -0.124563f, -0.154636f, -0.104574f, -0.103239f, -0.046578f, -0.142568f, 
0.044760f, -0.077863f, 0.048143f, 0.071669f, 0.025492f, 0.112594f, 0.083886f, 0.085475f, 0.037800f, 0.035180f, 
0.034706f, 0.026787f, 0.032599f, 0.000871f, 0.123311f, 0.070506f, -0.088980f, -0.043763f, -0.014590f, -0.051161f, 
-0.294282f, -0.072901f, -0.185614f, -0.257900f, -0.162850f, -0.188562f, -0.326384f, -0.061881f, 0.099103f, -0.063518f, 
0.092581f, -0.057533f, -0.015263f, -0.034637f, 0.039518f, -0.043037f, -0.111614f, -0.093610f, -0.086752f, -0.086318f, 
-0.221613f, -0.056142f, -0.087190f, -0.132092f, -0.175819f, -0.162804f, -0.146842f, 0.003555f, -0.095757f, -0.150355f, 
-0.041013f, 0.063118f, 0.093973f, 0.052041f, 0.142759f, 0.193021f, 0.060791f, 0.013175f, 0.060513f, 0.037164f, 
0.042012f, 0.117865f, 0.022274f, -0.033027f, -0.086349f, 0.000958f, 0.048179f, -0.084206f, -0.194009f, -0.062416f, 
0.010117f, -0.244208f, -0.287292f, -0.220847f, -0.216889f, -0.030212f, -0.017743f, -0.137158f, -0.167380f, -0.014853f, 
0.040152f, -0.051414f, -0.032915f, 0.002102f, -0.167543f, 0.075022f, -0.134383f, -0.105601f, -0.170603f, -0.168908f, 
-0.124383f, -0.058322f, -0.111561f, -0.125813f, -0.058492f, 0.067046f, 0.072097f, -0.102203f, -0.036018f, 0.172746f, 
0.018681f, -0.115485f, 0.085432f, 0.106225f, 0.112179f, 0.025987f, 0.080074f, 0.064325f, -0.033896f, -0.035409f, 
0.131583f, -0.105415f, -0.118504f, 0.042090f, -0.054581f, -0.028102f, -0.124718f, -0.015489f, -0.102004f, -0.024144f, 
-0.168122f, -0.051928f, -0.164655f, -0.040413f, -0.057893f, -0.103485f, -0.210923f, -0.134972f, -0.094986f, -0.051017f, 
-0.132166f, 0.010731f, 0.109598f, 0.081155f, 0.056113f, -0.036241f, 0.024261f, 0.078846f, -0.079211f, -0.028937f, 
-0.180652f, -0.070183f, -0.149133f, -0.038168f, -0.004328f, -0.158176f, -0.095387f, -0.177350f, 0.014916f, -0.133937f, 
-0.072154f, -0.035226f, 0.041264f, -0.115715f, -0.055903f, -0.073052f, 0.016664f, 0.013044f, 0.107504f, -0.127827f, 
-0.045738f, -0.042894f, -0.033198f, -0.115974f, -0.038427f, 0.116357f, 0.035891f, 0.014608f, -0.009847f, -0.021017f, 
0.053790f, -0.082835f, 0.012792f, 0.079125f, -0.090520f, -0.060633f, 0.070961f, -0.051939f, -0.085746f, 0.028515f, 
-0.142813f, -0.126926f, -0.071966f, -0.057234f, 0.078952f, 0.131215f, 0.109384f, 0.160538f, -0.018561f, 0.177203f, 
0.096321f, 0.158792f, -0.144863f, 0.084635f, 0.034107f, -0.111634f, -0.135736f, 0.068391f, -0.179001f, -0.066859f, 
-0.215852f, -0.127569f, -0.081169f, -0.264531f, -0.073933f, -0.126983f, -0.166513f, -0.291646f, -0.092493f, -0.095622f, 
-0.060767f, -0.167309f, 0.069485f, -0.040274f, -0.104736f, 0.005883f, 0.001403f, 0.082173f, 0.062457f, 0.013021f, 
0.129961f, 0.077158f, 0.063442f, -0.050624f, 0.113124f, 0.005151f, 0.099498f, -0.062919f, 0.056120f, -0.049618f, 
-0.008292f, -0.194670f, -0.116024f, -0.190398f, -0.166794f, -0.032053f, 0.156779f, 0.075536f, 0.236760f, 0.044447f, 
0.191511f, 0.166775f, 0.108169f, 0.123868f, 0.048907f, 0.112483f, -0.000646f, 0.006149f, -0.069134f, 0.145774f, 
-0.041274f, -0.001459f, -0.198699f, 0.007181f, -0.110500f, -0.057154f, -0.272017f, -0.084086f, -0.134102f, -0.021389f, 
-0.118841f, -0.032587f, 0.003666f, -0.012354f, 0.105950f, -0.023941f, 0.018091f, 0.030933f, 0.008628f, 0.085173f, 
0.119766f, 0.080763f, 0.059032f, -0.010652f, 0.140179f, 0.048304f, -0.019565f, 0.032904f, 0.044042f, -0.001691f, 
-0.098889f, -0.084193f, -0.078572f, -0.225632f, -0.183024f, -0.211816f, -0.180467f, -0.152569f, 0.160290f, 0.032561f, 
0.054505f, 0.047353f, 0.165472f, 0.185140f, 0.024191f, 0.052163f, 0.123422f, 0.098391f, 0.044722f, -0.041865f, 
-0.011518f, 0.116061f, -0.027226f, 0.006247f, -0.024926f, 0.071278f, -0.028604f, 0.034975f, -0.180026f, -0.049473f, 
-0.028449f, -0.101033f, -0.029694f, 0.010817f, 0.036621f, -0.032780f, 0.030000f, -0.039123f, 0.106162f, 0.000512f, 
0.073931f, 0.096796f, 0.003369f, -0.039603f, -0.034607f, -0.008460f, 0.050318f, -0.020813f, -0.072246f, -0.131948f, 
0.007655f, -0.204701f, -0.230603f, -0.105877f, -0.135797f, -0.133093f, -0.101866f, -0.150950f, -0.158868f, 0.024324f, 
0.142555f, -0.018011f, 0.113226f, -0.002108f, 0.114704f, 0.083985f, 0.025782f, 0.087880f, -0.045093f, 0.157505f, 
0.004016f, 0.066961f, 0.070186f, 0.137829f, 0.054835f, 0.079365f, 0.042935f, 0.044214f, -0.022444f, 0.078463f, 
-0.037512f, 0.011103f, -0.038045f, 0.027792f, -0.126182f, 0.037235f, 0.097671f, -0.053947f, -0.043573f, -0.093133f, 
0.085112f, 0.047002f, -0.064005f, -0.094445f, 0.011741f, 0.047931f, -0.090263f, -0.073210f, 0.045439f, -0.115738f, 
-0.112418f, -0.132302f, -0.109003f, -0.056852f, -0.219938f, -0.029614f, -0.093644f, -0.099501f, 0.046735f, -0.076930f, 
-0.201043f, -0.108892f, 0.047711f, -0.137955f, 0.111783f, 0.006573f, 0.107372f, -0.013535f, 0.116221f, -0.077062f, 
0.193838f, 0.130997f, 0.127463f, 0.032942f, 0.006190f, 0.195072f, 0.158996f, 0.133304f, 0.150116f, 0.001357f, 
0.036425f, 0.107272f, 0.084627f, 0.001596f, 0.214454f, 0.014595f, -0.067370f, -0.022732f, 0.172101f, -0.050912f, 
-0.016440f, 0.083302f, 0.115416f, -0.053754f, -0.093884f, -0.024800f, 0.071068f, -0.067070f, -0.112246f, -0.133955f, 
-0.054626f, 0.010097f, -0.125219f, -0.058665f, -0.157618f, -0.078113f, -0.159978f, -0.008866f, -0.171382f, 0.021517f, 
-0.068622f, -0.087092f, -0.159971f, -0.083982f, 0.011438f, 0.013840f, 0.059242f, 0.002065f, 0.059222f, 0.092240f, 
0.032564f, 0.018188f, -0.148943f, -0.027958f, -0.094151f, -0.053750f, -0.193514f, -0.183287f, -0.242450f, -0.051228f, 
-0.238726f, -0.205614f, -0.277673f, -0.048524f, -0.291334f, -0.358750f, -0.260503f, -0.139575f, -0.184059f, -0.276264f, 
-0.176998f, -0.135783f, -0.196323f, -0.272889f, -0.140630f, -0.083037f, -0.084368f, -0.178175f, -0.319547f, -0.101100f, 
-0.154455f, -0.032045f, -0.205737f, 0.032373f, -0.137307f, -0.018777f, -0.085955f, -0.100827f, -0.090181f, -0.071388f, 
-0.089881f, 0.040757f, -0.072634f, 0.034467f, -0.006999f, -0.016102f, -0.074318f, 0.041566f, 0.077051f, -0.050277f, 
0.066039f, 0.025467f, -0.045801f, -0.076053f, -0.003752f, -0.039239f, -0.136286f, -0.043005f, -0.098165f, -0.056718f, 
-0.122147f, -0.022496f, -0.205735f, -0.108882f, -0.303940f, -0.103145f, -0.212645f, 0.009721f, -0.207439f, -0.009794f, 
-0.048876f, 0.039031f, -0.261857f, -0.004202f, 0.041523f, -0.006649f, -0.094368f, -0.016437f, 0.020366f, -0.025995f, 
-0.172366f, 0.016352f, 0.090080f, 0.074526f, -0.039356f, 0.040683f, 0.024847f, 0.005349f, -0.011056f, 0.012629f, 
0.052407f, 0.089061f, 0.100425f, 0.055879f, -0.087703f, 0.001213f, 0.053092f, 0.074325f, -0.012003f, -0.008614f, 
-0.011600f, 0.012210f, 0.043647f, 0.088718f, -0.017794f, 0.059013f, 0.063395f, -0.013718f, 0.060480f, -0.043507f, 
0.129688f, -0.011333f, 0.070545f, 0.063928f, -0.037678f, -0.064744f, 0.015197f, -0.077373f, 0.127745f, -0.017862f, 
-0.109450f, -0.036290f, 0.094903f, -0.146360f, -0.085408f, -0.079825f, 0.254250f, -0.185814f, -0.113477f, -0.040269f, 
0.181294f, -0.021066f, -0.087396f, 0.082200f, 0.043166f, -0.037095f, -0.067680f, 0.028737f, 0.187318f, 0.045194f, 
-0.015460f, 0.173823f, 0.144309f, 0.035435f, 0.213249f, 0.143706f, -0.042615f, -0.001253f, -0.028793f, 0.016107f, 
-0.095712f, -0.063343f, 0.027382f, -0.115515f, 0.070282f, 0.009883f, 0.043701f, -0.028151f, -0.062475f, -0.117720f, 
0.028051f, -0.077767f, 0.097601f, -0.015279f, -0.106345f, -0.012857f, 0.074562f, -0.069411f, -0.106778f, -0.040263f, 
-0.060017f, -0.068962f, -0.176204f, -0.119242f, -0.086671f, -0.244530f, -0.225989f, -0.268199f, -0.078625f, -0.274370f, 
-0.278054f, -0.125852f, -0.028479f, -0.162436f, -0.143927f, 0.021828f, 0.039020f, -0.033388f, -0.027608f, 0.062965f, 
0.035745f, -0.026728f, -0.065080f, 0.067805f, 0.122151f, -0.077346f, 0.010479f, 0.035915f, -0.150330f, 0.063551f, 
0.057641f, 0.078099f, -0.214286f, -0.128811f, -0.064460f, -0.101391f, -0.072074f, -0.232227f, -0.157647f, -0.152441f, 
-0.094144f, -0.079348f, -0.098215f, -0.026304f, -0.088864f, 0.070564f, -0.021450f, 0.048257f, -0.043181f, 0.102911f, 
-0.036558f, 0.103019f, 0.004168f, 0.076259f, -0.055924f, -0.048707f, -0.241267f, -0.184102f, -0.141072f, -0.149443f, 
0.076807f, -0.073888f, -0.184955f, 0.155514f, 0.011975f, -0.031299f, -0.040107f, -0.016073f, -0.043322f, -0.049211f, 
-0.063404f, -0.153093f, -0.103473f, -0.118806f, -0.035172f, -0.116128f, -0.033410f, -0.204083f, -0.100037f, -0.172551f, 
-0.156758f, -0.066547f, -0.131074f, -0.099512f, -0.173153f, -0.027727f, -0.216201f, -0.059871f, -0.130334f, -0.070061f, 
-0.085608f, -0.009530f, -0.072318f, 0.143897f, -0.067593f, 0.090939f, 0.027226f, 0.058753f, -0.009094f, 0.019875f, 
0.124734f, 0.095109f, 0.130166f, 0.241298f, 0.031512f, 0.096363f, 0.029170f, -0.009432f, -0.122166f, -0.041391f, 
-0.196225f, -0.133212f, 0.191096f, -0.007872f, 0.016361f, 0.113609f, 0.022213f, 0.081829f, 0.069496f, -0.020190f, 
-0.019108f, 0.008244f, -0.023598f, -0.009647f, -0.155363f, 0.006663f, -0.071303f, -0.004535f, -0.135314f, -0.174362f, 
-0.165666f, -0.136248f, -0.161418f, -0.183607f, -0.225036f, 0.067551f, -0.066608f, -0.094406f, -0.169260f, 0.053290f, 
0.012019f, 0.069105f, -0.111317f, 0.009405f, 0.143197f, 0.064217f, 0.058216f, 0.200244f, 0.082683f, 0.099792f, 
0.108465f, 0.022617f, 0.093891f, 0.125599f, 0.245910f, 0.184889f, -0.010356f, 0.145714f, 0.157293f, -0.019384f, 
-0.057241f, 0.003067f, -0.048697f, -0.058423f, 0.219902f, 0.161500f, 0.113352f, 0.143440f, 0.070577f, 0.148636f, 
0.091857f, 0.030040f, -0.058472f, 0.046701f, 0.059598f, 0.112969f, 0.010440f, -0.034501f, 0.019876f, 0.026628f, 
-0.018665f, -0.023285f, -0.044536f, -0.019500f, -0.091893f, -0.195652f, -0.145232f, -0.085232f, -0.147410f, -0.004963f, 
-0.060398f, 0.051213f, 0.010523f, -0.048814f, -0.014035f, -0.077032f, 0.076805f, 0.044804f, 0.106986f, 0.122453f, 
0.083047f, 0.015610f, 0.139330f, 0.110164f, -0.005373f, 0.115684f, 0.103402f, 0.002560f, 0.009036f, 0.031907f, 
0.065924f, -0.056806f, -0.020318f, 0.141856f, 0.025681f, 0.161112f, 0.101345f, 0.053936f, 0.215456f, 0.165512f, 
0.006198f, 0.135270f, 0.161753f, 0.003677f, 0.018254f, 0.107399f, 0.048889f, 0.055987f, -0.083834f, 0.067313f, 
0.067011f, -0.007638f, -0.136350f, -0.090758f, -0.015948f, -0.130781f, -0.209144f, -0.182035f, -0.101674f, -0.034870f, 
-0.186291f, -0.045457f, -0.201168f, 0.003672f, -0.034517f, -0.115359f, -0.029054f, -0.035023f, -0.040070f, -0.189528f, 
0.129287f, -0.039403f, 0.040628f, -0.080309f, 0.084979f, -0.179687f, -0.116614f, -0.197264f, -0.042056f, -0.053789f, 
0.018550f, -0.152705f, 0.107215f, 0.033789f, 0.173170f, -0.000458f, 0.066951f, 0.183212f, 0.139189f, 0.146947f, 
0.089555f, 0.001551f, -0.137177f, 0.099679f, 0.001293f, -0.186699f, -0.084895f, -0.092233f, 0.074179f, -0.110994f, 
-0.174192f, -0.101867f, -0.087210f, 0.001231f, -0.185957f, -0.181809f, -0.103733f, -0.087003f, -0.128980f, -0.239091f, 
-0.159746f, -0.047968f, -0.082802f, -0.123439f, -0.109458f, 0.026005f, -0.158634f, -0.136281f, -0.061283f, -0.168205f, 
-0.167361f, -0.260401f, -0.044719f, -0.250272f, -0.049549f, -0.146002f, -0.112267f, -0.283978f, -0.044029f, -0.216995f, 
-0.063015f, -0.184161f, 0.084051f, -0.165081f, -0.062314f, -0.097714f, 0.115345f, -0.106329f, 0.010867f, 0.042285f, 
-0.063624f, 0.026299f, 0.039691f, -0.068976f, -0.104331f, 0.052423f, -0.187293f, -0.079625f, -0.131883f, -0.013198f, 
-0.109016f, -0.076342f, -0.148866f, -0.066882f, -0.064713f, -0.034478f, -0.136489f, -0.135008f, -0.110955f, 0.040061f, 
-0.032756f, -0.171085f, -0.177712f, 0.048174f, -0.026903f, -0.051032f, -0.133159f, -0.074169f, -0.137473f, -0.165061f, 
-0.104609f, -0.082846f, -0.114695f, -0.094186f, -0.136652f, -0.173701f, -0.200773f, -0.102272f, -0.201006f, -0.099945f, 
-0.086209f, -0.099960f, -0.078385f, 0.043524f, -0.060739f, -0.160295f, -0.047547f, -0.101757f, 0.042062f, -0.184023f, 
-0.002657f, -0.109667f, 0.094514f, -0.082693f, -0.149461f, 0.037652f, -0.045380f, 0.096385f, -0.183590f, -0.077027f, 
0.064869f, 0.059385f, 0.016448f, -0.009192f, -0.015654f, 0.011525f, -0.021878f, 0.094926f, -0.142638f, -0.068824f, 
-0.023838f, -0.084482f, -0.090415f, -0.118167f, -0.190888f, 0.051555f, -0.171674f, 0.102109f, -0.177934f, -0.001476f, 
-0.154864f, -0.057284f, -0.113586f, 0.060110f, -0.159923f, -0.103080f, -0.118454f, -0.025837f, 0.021531f, -0.119552f, 
0.019671f, -0.037702f, 0.008953f, -0.148323f, -0.117622f, 0.025123f, -0.044924f, -0.051842f, -0.083348f, 0.073623f, 
0.055588f, 0.036600f, -0.051070f, 0.032144f, 0.125184f, -0.037693f, -0.028128f, 0.065684f, 0.139309f, -0.062462f, 
0.089595f, 0.090889f, 0.042583f, 0.044640f, 0.109597f, -0.032406f, -0.005173f, 0.103044f, 0.013487f, -0.007841f, 
-0.084136f, 0.076318f, 0.074660f, 0.032479f, -0.078210f, -0.044069f, -0.075714f, -0.028395f, 0.041810f, -0.006960f, 
-0.058368f, -0.064893f, -0.021753f, -0.070599f, -0.142461f, 0.088185f, -0.125297f, -0.058046f, -0.045506f, -0.125933f, 
0.028698f, -0.069942f, 0.020567f, -0.091713f, -0.006156f, -0.200609f, -0.110271f, -0.215726f, -0.051826f, -0.045697f, 
-0.158317f, -0.279682f, 0.049591f, -0.189559f, -0.183556f, -0.132527f, 0.043108f, -0.143057f, -0.040859f, -0.310736f, 
-0.053360f, -0.206306f, -0.024731f, -0.180200f, -0.045853f, -0.174365f, -0.075553f, -0.065296f, -0.075300f, 0.029743f, 
-0.079715f, 0.062498f, -0.022788f, 0.082801f, -0.043424f, 0.026503f, -0.018539f, -0.038001f, -0.109307f, 0.084404f, 
0.035927f, 0.076016f, 0.079156f, 0.065354f, -0.054083f, 0.154659f, 0.068740f, 0.048792f, -0.063314f, -0.006434f, 
0.064906f, 0.152241f, -0.122150f, 0.042913f, 0.000635f, 0.051958f, -0.094440f, -0.114612f, -0.064767f, 0.051664f, 
-0.145392f, -0.039109f, -0.113533f, -0.003793f, -0.053633f, -0.095920f, -0.187892f, -0.049806f, -0.004293f, 0.007668f, 
-0.157588f, 0.026257f, 0.043698f, 0.016314f, -0.038137f, -0.020505f, -0.070540f, 0.059921f, -0.054507f, 0.150224f, 
0.000177f, -0.022318f, -0.174650f, 0.102366f, -0.120700f, -0.086320f, -0.004744f, 0.182595f, -0.015327f, -0.045003f, 
0.037135f, 0.060266f, -0.018626f, 0.002039f, 0.051613f, 0.090582f, -0.190901f, -0.031876f, -0.144728f, 0.044186f, 
-0.188675f, -0.041847f, -0.163117f, 0.040759f, -0.234661f, -0.084032f, -0.203863f, 0.006215f, -0.093228f, -0.005085f, 
-0.100827f, -0.043587f, -0.127863f, -0.003136f, -0.197380f, -0.115436f, -0.001698f, -0.055422f, -0.088524f, -0.120302f, 
-0.019501f, 0.001602f, -0.090998f, -0.053706f, 0.007211f, 0.081417f, -0.024968f, 0.094538f, 0.026695f, -0.051698f, 
-0.079142f, -0.051658f, 0.022155f, 0.104659f, -0.038647f, 0.098762f, 0.047953f, 0.096228f, -0.055102f, 0.109934f, 
-0.039356f, 0.133559f, 0.026754f, 0.165545f, -0.059709f, -0.009645f, -0.030886f, 0.038432f, -0.264757f, -0.165752f, 
-0.132177f, -0.075859f, -0.135446f, -0.117744f, -0.086762f, 0.064874f, 0.062843f, -0.041800f, -0.118995f, 0.079969f, 
0.009148f, 0.042078f, -0.012718f, 0.128853f, -0.105089f, -0.067026f, 0.000699f, -0.020540f, -0.081567f, 0.011680f, 
-0.010634f, 0.067786f, -0.069263f, 0.041133f, -0.077306f, -0.063769f, -0.019980f, 0.064617f, 0.131006f, 0.020000f, 
-0.056755f, -0.026013f, 0.113640f, 0.177403f, 0.025872f, -0.036810f, 0.008299f, 0.038183f, 0.147733f, -0.012293f, 
0.005252f, 0.225985f, 0.072008f, 0.164733f, 0.045527f, 0.196005f, -0.253154f, 0.053640f, -0.096399f, -0.027075f, 
-0.073749f, -0.112957f, -0.283235f, 0.041846f, 0.072574f, -0.138240f, -0.154674f, -0.003120f, -0.064861f, 0.023772f, 
-0.072389f, -0.031123f, 0.092033f, 0.053924f, -0.061809f, 0.082518f, 0.011147f, 0.062013f, -0.060149f, 0.061006f, 
-0.071506f, -0.027138f, -0.099474f, -0.131428f, -0.148187f, -0.141162f, -0.031305f, -0.082791f, -0.070445f, -0.107439f, 
0.016319f, 0.034926f, 0.031623f, 0.016979f, 0.174078f, 0.122227f, 0.029607f, 0.003266f, 0.041471f, 0.212128f, 
0.104865f, 0.118010f, 0.093823f, 0.367230f, 0.158790f, 0.221793f, 0.242595f, 0.159892f, -0.162803f, 0.032881f, 
-0.237481f, 0.124296f, -0.162331f, -0.124803f, -0.267103f, 0.027891f, 0.045184f, 0.051070f, -0.143458f, 0.092468f, 
0.042047f, -0.010099f, 0.029188f, 0.019784f, 0.122318f, 0.152510f, 0.029341f, 0.124486f, -0.016005f, 0.120656f, 
-0.069747f, 0.051554f, -0.109771f, 0.007856f, -0.036037f, -0.065365f, -0.206728f, -0.073407f, -0.132910f, -0.055952f, 
-0.183024f, -0.233277f, -0.107251f, -0.069148f, -0.194847f, -0.065072f, 0.028017f, -0.062133f, -0.002996f, -0.148635f, 
0.036654f, 0.093295f, 0.267334f, 0.064096f, 0.305883f, 0.433339f, 0.264146f, 0.393486f, 0.303356f, 0.292070f, 
-0.122443f, 0.085074f, -0.218541f, 0.066931f, -0.008364f, -0.115612f, -0.030714f, 0.007840f, 0.069784f, -0.018879f, 
-0.014235f, 0.032773f, -0.072363f, 0.084625f, 0.101774f, -0.091007f, 0.067750f, 0.063200f, -0.056072f, 0.132341f, 
0.176608f, 0.169921f, 0.153129f, -0.037016f, -0.173191f, 0.018420f, 0.092155f, -0.046547f, -0.196108f, -0.050543f, 
-0.138788f, -0.040428f, -0.262190f, -0.024552f, -0.166913f, -0.103951f, -0.199251f, -0.153640f, -0.184631f, -0.090303f, 
-0.279906f, -0.169808f, -0.202716f, -0.192481f, 0.080723f, -0.264186f, 0.027204f, -0.005455f, 0.142616f, 0.197696f, 
0.179610f, 0.066992f, -0.046510f, 0.070626f, -0.043624f, 0.170912f, -0.072431f, -0.002657f, 0.040922f, 0.028714f, 
-0.018538f, -0.155474f, -0.009007f, -0.033161f, 0.076780f, 0.011238f, -0.096323f, -0.074479f, 0.092362f, 0.101712f, 
0.097995f, 0.083766f, 0.051835f, 0.013567f, 0.182377f, 0.019129f, -0.109986f, 0.049725f, 0.000175f, -0.017966f, 
-0.181641f, -0.011570f, -0.136219f, -0.232794f, -0.131268f, -0.074632f, -0.131604f, -0.076543f, -0.019119f, 0.081276f, 
-0.217870f, -0.139735f, -0.280218f, -0.010253f, -0.177330f, -0.169845f, -0.282574f, -0.103962f, -0.284468f, 0.084727f, 
0.053761f, -0.206997f, -0.197091f, 0.012637f, -0.130572f, 0.094592f, 0.012380f, 0.003293f, -0.121575f, 0.071303f, 
-0.118998f, 0.025977f, -0.086627f, -0.040505f, -0.031604f, -0.110230f, 0.055246f, -0.122697f, -0.049259f, -0.052821f, 
0.034898f, -0.157373f, 0.009649f, -0.088990f, -0.072576f, 0.020658f, 0.001541f, -0.018455f, -0.059871f, -0.083419f, 
-0.098373f, -0.075034f, -0.031725f, -0.046985f, -0.089566f, -0.103427f, 0.064640f, -0.119598f, -0.135510f, 0.015111f, 
-0.027491f, 0.037699f, -0.115872f, -0.064009f, 0.000940f, 0.022709f, -0.105476f, -0.058918f, -0.113498f, 0.047185f, 
-0.137390f, 0.057863f, -0.150270f, -0.013445f, -0.071919f, 0.000916f, -0.114226f, 0.128204f, -0.019499f, 0.011958f, 
0.041194f, 0.159784f, -0.075516f, 0.051007f, -0.107218f, 0.185636f, 0.014463f, 0.034257f, -0.191542f, 0.019992f, 
-0.182538f, -0.084025f, -0.176178f, 0.007986f, -0.066673f, -0.137069f, -0.043553f, -0.129398f, -0.182673f, -0.113154f, 
-0.096429f, 0.021095f, -0.179796f, -0.061221f, -0.038208f, -0.063613f, -0.057556f, 0.032604f, 0.041495f, -0.047120f, 
0.010852f, 0.089333f, 0.058167f, -0.059670f, -0.069187f, 0.093909f, 0.024960f, 0.098642f, -0.092273f, 0.054098f, 
-0.028926f, 0.066520f, -0.027241f, -0.010524f, -0.028251f, -0.092040f, -0.037518f, 0.107525f, -0.050125f, 0.021565f, 
-0.029006f, 0.087078f, -0.006839f, -0.043137f, 0.071061f, 0.034725f, 0.130487f, 0.007818f, 0.114141f, 0.138665f, 
0.048366f, 0.110550f, -0.053060f, 0.028346f, -0.128542f, 0.140070f, -0.038510f, -0.002824f, -0.038922f, 0.015770f, 
-0.032766f, -0.013664f, -0.103105f, -0.019716f, -0.074844f, 0.120476f, -0.024617f, 0.011322f, 0.059873f, -0.029824f, 
0.020444f, 0.103593f, 0.021663f, 0.020073f, 0.031559f, 0.038803f, 0.032226f, 0.035500f, -0.025182f, 0.113178f, 
-0.051274f, -0.036577f, 0.095038f, -0.015069f, 0.098661f, 0.022937f, -0.090407f, -0.018961f, 0.083563f, 0.135824f, 
-0.103566f, 0.106852f, 0.045084f, 0.016844f, 0.015478f, -0.020333f, 0.008596f, 0.027291f, 0.064496f, 0.005134f, 
-0.055225f, -0.069320f, 0.006801f, -0.005425f, 0.047922f, 0.044528f, 0.011205f, -0.009080f, 0.122981f, 0.062709f, 
-0.103705f, 0.017536f, 0.020822f, 0.050197f, -0.063288f, -0.026074f, 0.000015f, 0.017830f, -0.058656f, 0.067279f, 
0.052477f, 0.083818f, -0.044206f, -0.047044f, -0.010349f, -0.013618f, 0.008506f, 0.099274f, 0.026488f, 0.024281f, 
0.052086f, -0.026093f, 0.059852f, 0.072064f, 0.060491f, 0.113727f, 0.159979f, 0.068842f, -0.148582f, 0.079894f, 
-0.038789f, 0.021614f, -0.096507f, 0.007389f, -0.112906f, 0.191091f, -0.000249f, 0.066067f, 0.096857f, 0.018092f, 
-0.140355f, -0.094712f, -0.074233f, -0.016989f, -0.081811f, -0.022245f, -0.065045f, 0.132742f, -0.057525f, -0.066979f, 
-0.045592f, 0.024310f, -0.016111f, -0.016559f, 0.016017f, 0.052645f, -0.086580f, 0.103225f, 0.049704f, 0.032633f, 
-0.068507f, -0.032455f, 0.067234f, 0.096459f, -0.129359f, 0.085557f, 0.029599f, -0.053942f, -0.010420f, 0.000691f, 
0.067015f, 0.070457f, 0.093763f, 0.027770f, -0.040882f, 0.073557f, -0.052501f, -0.000654f, 0.057927f, 0.132585f, 
-0.039378f, 0.141333f, -0.051069f, 0.150953f, -0.058193f, 0.025522f, 0.070680f, 0.030552f, 0.031432f, 0.017077f, 
-0.022102f, 0.084732f, 0.031811f, -0.074921f, -0.014667f, 0.102612f, -0.049172f, -0.084290f, -0.074711f, 0.114302f, 
0.118800f, -0.074506f, 0.030578f, 0.108893f, 0.061204f, -0.051298f, 0.069505f, -0.037689f, -0.022379f, 0.090358f, 
0.063208f, 0.095365f, -0.044336f, -0.018277f, 0.073497f, 0.100118f, -0.033969f, -0.038789f, -0.050690f, 0.161518f, 
0.012560f, -0.089255f, -0.076512f, 0.117894f, 0.062892f, -0.010483f, -0.044824f, 0.043040f, 0.065826f, 0.123053f, 
-0.017409f, 0.175427f, 0.043626f, 0.164041f, 0.091804f, 0.134812f, -0.029507f, 0.041556f, -0.078728f, -0.012696f, 
-0.020850f, 0.011947f, -0.081675f, -0.029282f, 0.077858f, 0.115224f, 0.019654f, -0.063603f, 0.155832f, 0.180095f, 
0.131600f, 0.040115f, 0.203724f, 0.131986f, 0.111788f, 0.102045f, 0.114524f, 0.096868f, 0.129524f, 0.094816f, 
0.057313f, 0.076305f, -0.002951f, 0.145596f, 0.058781f, -0.010853f, 0.119095f, 0.101222f, 0.159424f, 0.092254f, 
0.035886f, 0.153787f, 0.107976f, 0.058781f, 0.050171f, 0.161470f, 0.085959f, 0.155721f, 0.137488f, 0.060337f, 
0.129847f, 0.179879f, 0.061867f, -0.072508f, -0.016137f, 0.025109f, 0.014472f, 0.000459f, -0.089452f, -0.102592f, 
0.031426f, -0.059848f, 0.032873f, -0.110580f, -0.035225f, -0.072156f, 0.107586f, -0.122565f, 0.161121f, -0.007997f, 
0.037104f, -0.067392f, 0.021679f, -0.052872f, 0.007893f, -0.069792f, -0.013079f, -0.001777f, 0.114612f, -0.056370f, 
0.082092f, 0.000313f, 0.129904f, -0.114423f, 0.060640f, -0.097683f, 0.149728f, 0.032393f, -0.023184f, -0.059235f, 
0.138551f, 0.073585f, 0.034332f, 0.129455f, 0.136447f, 0.105492f, 0.107373f, 0.073187f, 0.130152f, 0.050831f, 
0.174785f, 0.092348f, 0.157292f, 0.074210f, 0.122052f, 0.016770f, 0.108120f, 0.064544f, -0.015707f, 0.070233f, 
-0.124513f, 0.035117f, 0.039187f, -0.115773f, -0.064564f, -0.151398f, -0.088879f, -0.068168f, 0.014170f, -0.095658f, 
-0.029636f, -0.021694f, -0.051038f, -0.058941f, 0.014387f, -0.121897f, -0.088364f, -0.054552f, -0.031241f, 0.010919f, 
-0.075708f, -0.152861f, -0.059231f, -0.102000f, -0.052763f, -0.065600f, -0.054443f, 0.035944f, 0.070120f, -0.188646f, 
-0.053080f, -0.008261f, 0.112102f, -0.184277f, 0.143726f, -0.026183f, 0.142354f, -0.105034f, 0.102782f, -0.043089f, 
-0.000590f, -0.029146f, 0.160469f, -0.000991f, 0.133865f, 0.041987f, 0.070774f, -0.107221f, -0.030265f, 0.026528f, 
-0.019840f, 0.026733f, -0.136079f, -0.048275f, -0.135635f, -0.165353f, -0.054844f, -0.255171f, -0.097990f, -0.108346f, 
0.037980f, -0.134001f, -0.090139f, -0.004326f, -0.002884f, -0.045239f, -0.015188f, -0.054727f, -0.140586f, -0.011698f, 
-0.027724f, 0.025440f, -0.080047f, -0.175234f, -0.016098f, -0.109712f, -0.009308f, -0.113321f, -0.134559f, 0.004748f, 
-0.083198f, -0.103465f, -0.120709f, -0.176416f, -0.077405f, -0.136963f, -0.126386f, -0.235352f, -0.097437f, -0.214966f, 
-0.079844f, -0.077722f, -0.081416f, -0.044952f, -0.140540f, -0.111738f, -0.138997f, -0.071656f, -0.047453f, -0.144620f, 
-0.094473f, -0.137211f, -0.167799f, -0.088311f, -0.176320f, -0.135399f, -0.255527f, -0.015630f, -0.092720f, -0.128810f, 
-0.155782f, -0.181395f, -0.090048f, 0.030554f, -0.096399f, -0.028051f, -0.078940f, 0.059402f, -0.059516f, 0.043593f, 
-0.028009f, -0.105018f, 0.018616f, -0.019491f, 0.052963f, -0.102419f, -0.055739f, 0.044503f, -0.100020f, -0.114380f, 
-0.049505f, -0.074347f, -0.214179f, -0.182167f, -0.201875f, -0.227652f, -0.180022f, -0.123270f, -0.233910f, -0.203709f, 
-0.098434f, -0.115651f, -0.183985f, -0.018523f, -0.053015f, -0.056417f, -0.152289f, -0.063414f, -0.118202f, -0.079841f, 
-0.180606f, -0.084786f, -0.209385f, -0.117542f, -0.250720f, -0.146973f, -0.242557f, -0.146511f, -0.169549f, -0.010340f, 
-0.003930f, -0.097754f, -0.137279f, 0.062303f, 0.078432f, -0.023486f, -0.092181f, 0.081351f, -0.065533f, -0.015540f, 
0.031103f, 0.071424f, 0.097862f, 0.075723f, -0.015461f, 0.112501f, -0.090786f, -0.098725f, 0.066944f, -0.028789f, 
-0.251474f, -0.023287f, 0.016151f, -0.205329f, -0.197451f, 0.022250f, -0.177857f, -0.124052f, -0.170210f, -0.036647f, 
-0.171496f, -0.008184f, -0.069787f, -0.035700f, -0.073243f, 0.086893f, 0.135763f, 0.047500f, 0.006728f, 0.138168f, 
0.113285f, 0.129582f, 0.066659f, 0.077604f, -0.096040f, -0.074547f, -0.111965f, -0.182591f, -0.201098f, -0.073241f, 
-0.130671f, -0.111493f, 0.063992f, -0.081385f, 0.050647f, -0.050309f, 0.098674f, -0.052936f, 0.085059f, 0.020831f, 
0.079777f, 0.097349f, 0.090051f, 0.042444f, 0.107003f, 0.003122f, -0.021347f, -0.004346f, -0.142971f, -0.027763f, 
0.060491f, -0.152720f, -0.076614f, 0.078183f, 0.008276f, 0.028102f, -0.009019f, 0.027052f, 0.018438f, 0.061853f, 
-0.150563f, -0.070277f, -0.054384f, 0.009024f, -0.033538f, -0.085725f, 0.065344f, -0.042813f, 0.193166f, 0.014909f, 
0.090149f, 0.127009f, 0.243035f, 0.084087f, 0.108970f, -0.020553f, -0.234344f, 0.075709f, 0.077013f, -0.160333f, 
-0.140278f, -0.135224f, -0.119772f, -0.113908f, -0.046642f, -0.221093f, -0.073803f, -0.067665f, 0.107525f, -0.068979f, 
0.095866f, 0.065842f, -0.001098f, 0.020647f, 0.110660f, 0.126111f, 0.139702f, 0.119665f, 0.032802f, 0.187797f, 
0.035819f, 0.121762f, 0.052334f, 0.065363f, 0.061499f, -0.037391f, 0.061973f, 0.026270f, 0.034218f, -0.131470f, 
0.066256f, -0.122027f, -0.029982f, -0.049015f, -0.024941f, 0.031703f, 0.136935f, -0.096013f, -0.013060f, -0.018767f, 
0.171582f, -0.043824f, -0.001249f, -0.078251f, -0.001041f, 0.096543f, -0.003336f, -0.084690f, -0.213331f, -0.080324f, 
0.003283f, -0.153389f, -0.152557f, -0.155438f, -0.278303f, -0.116786f, -0.044402f, -0.223785f, -0.087582f, -0.159099f, 
-0.007687f, -0.214043f, -0.021735f, 0.050215f, 0.029152f, 0.051726f, 0.092351f, 0.011359f, 0.250845f, 0.137741f, 
0.065456f, 0.132906f, 0.120441f, 0.206165f, 0.019561f, -0.094069f, 0.099102f, 0.013348f, 0.055733f, -0.006822f, 
-0.151572f, 0.088549f, -0.027968f, 0.008427f, -0.029996f, 0.103725f, 0.020674f, 0.040692f, 0.020835f, 0.014408f, 
0.061244f, 0.017691f, -0.031068f, -0.013101f, 0.077891f, -0.008450f, -0.093322f, -0.039869f, -0.027523f, -0.113338f, 
-0.122467f, -0.030668f, -0.131699f, -0.114504f, -0.155704f, -0.118325f, -0.271373f, -0.160562f, -0.300020f, -0.336114f, 
-0.138002f, -0.168560f, 0.045149f, -0.231531f, -0.044912f, -0.183281f, 0.133163f, -0.186875f, -0.013632f, 0.010204f, 
0.184575f, 0.059764f, 0.041416f, 0.085287f, 0.157275f, 0.236050f, 0.072058f, 0.001090f, -0.028593f, 0.140643f, 
0.086846f, 0.033624f, 0.096596f, 0.038142f, 0.006969f, 0.127964f, 0.031897f, 0.032350f, 0.170624f, 0.058369f, 
0.049061f, 0.094660f, 0.026929f, 0.090898f, -0.031382f, 0.030466f, 0.007638f, -0.076090f, -0.049456f, -0.095012f, 
-0.070292f, -0.004292f, -0.126596f, -0.037595f, -0.146748f, -0.062519f, -0.174084f, -0.004220f, -0.037014f, -0.020706f, 
-0.309812f, -0.190430f, -0.189954f, -0.242641f, -0.035270f, -0.355421f, -0.102417f, -0.094063f, 0.016002f, -0.139327f, 
-0.055577f, -0.083472f, 0.205283f, 0.000249f, 0.096937f, -0.140815f, 0.286303f, -0.068978f, 0.133702f, -0.059769f, 
0.068106f, 0.071700f, 0.221101f, 0.096095f, 0.079280f, 0.080340f, 0.115992f, 0.053897f, -0.069196f, -0.030502f, 
0.061359f, 0.097167f, -0.113470f, 0.083303f, -0.015648f, 0.043931f, -0.044849f, -0.120439f, 0.004737f, -0.034755f, 
-0.172683f, -0.105024f, 0.012914f, -0.062298f, -0.101173f, -0.011629f, -0.132638f, -0.015352f, -0.093936f, -0.003297f, 
-0.010425f, -0.052150f, -0.292333f, -0.112901f, -0.093856f, -0.004037f, -0.153936f, -0.117292f, -0.228850f, -0.136709f, 
-0.018103f, -0.252516f, -0.185099f, -0.295211f, -0.055747f, -0.134227f, -0.172294f, -0.260641f, -0.052041f, -0.215109f, 
-0.046609f, -0.190313f, -0.044306f, -0.104281f, 0.002366f, -0.284586f, -0.039271f, -0.041016f, -0.164851f, -0.110212f, 
-0.207243f, -0.083422f, -0.134807f, -0.107250f, -0.052440f, -0.049125f, -0.132762f, -0.051723f, -0.154522f, -0.180872f, 
-0.095973f, -0.010021f, -0.104219f, -0.035846f, -0.205548f, -0.027022f, -0.104493f, -0.086860f, -0.196286f, -0.009882f, 
0.024713f, -0.088836f, -0.046642f, -0.062053f, -0.024383f, -0.003652f, -0.136364f, -0.097505f, -0.147646f, -0.124144f, 
-0.102085f, 0.018094f, -0.224644f, -0.056889f, -0.216693f, -0.029977f, -0.224560f, -0.234511f, -0.160439f, -0.143288f, 
-0.237685f, -0.185149f, -0.225552f, -0.208770f, -0.242113f, -0.156909f, -0.268553f, -0.172620f, -0.172202f, -0.250680f, 
-0.238958f, -0.186635f, -0.252460f, -0.247817f, -0.233328f, 0.017250f, -0.107337f, -0.135928f, -0.172785f, -0.114856f, 
-0.173328f, -0.163104f, -0.176608f, 0.037748f, -0.053362f, -0.135160f, -0.041984f, -0.085527f, -0.059859f, -0.025091f, 
-0.006925f, -0.100994f, 0.005502f, 0.068216f, 0.084539f, 0.054281f, 0.072205f, 0.073332f, 0.114810f, 0.095202f, 
0.015831f, 0.095799f, -0.040246f, -0.003280f, -0.018957f, -0.076518f, -0.020206f, -0.022250f, -0.107082f, -0.130266f, 
-0.040465f, -0.031289f, -0.132996f, -0.171926f, -0.030420f, 0.069498f, -0.154834f, -0.027143f, -0.078614f, -0.045317f, 
-0.099499f, 0.008425f, -0.013645f, -0.061803f, -0.042788f, -0.083057f, -0.014270f, 0.068794f, -0.013331f, -0.049746f, 
0.034047f, 0.015375f, 0.011046f, 0.037207f, 0.009965f, 0.016263f, -0.010479f, 0.139111f, -0.053740f, 0.065330f, 
0.060559f, 0.039237f, 0.003152f, 0.069876f, 0.078845f, 0.122496f, 0.025879f, 0.166489f, 0.046790f, 0.107983f, 
0.010778f, 0.073393f, -0.209343f, 0.034408f, -0.119651f, 0.038093f, -0.157203f, -0.125419f, -0.183578f, -0.035905f, 
-0.317173f, 0.019157f, -0.193045f, -0.081182f, -0.359539f, -0.097251f, -0.256293f, -0.176490f, -0.367308f, -0.216509f, 
-0.233387f, -0.147201f, -0.261955f, -0.164936f, -0.267345f, -0.106112f, -0.234719f, -0.261349f, -0.218885f, -0.111208f, 
-0.232609f, -0.224686f, -0.266506f, -0.112690f, -0.315929f, -0.261980f, -0.151234f, 0.005325f, -0.107451f, -0.119095f, 
-0.101740f, 0.039607f, -0.045887f, 0.004016f, -0.075077f, 0.143382f, 0.127378f, 0.087317f, 0.114146f, 0.158988f, 
0.090055f, 0.023000f, -0.004351f, 0.121977f, 0.083717f, -0.015147f, 0.044511f, 0.123571f, 0.073823f, 0.038848f, 
-0.077897f, 0.168150f, -0.010282f, 0.206142f, -0.076872f, 0.029895f, -0.098643f, 0.011722f, 0.012816f, -0.088894f, 
-0.155582f, -0.063613f, -0.054965f, -0.086453f, -0.238311f, 0.022520f, -0.140928f, -0.045157f, -0.185666f, -0.056667f, 
-0.099611f, -0.045530f, -0.126324f, 0.072858f, -0.152422f, 0.013279f, -0.182763f, -0.092464f, -0.119366f, -0.006718f, 
-0.226620f, -0.194068f, -0.261733f, -0.033062f, -0.180598f, -0.203567f, -0.149463f, 0.083704f, 0.088248f, 0.133432f, 
0.115529f, 0.198042f, -0.006634f, 0.056496f, 0.042152f, 0.149788f, 0.150090f, 0.032704f, 0.124404f, 0.091240f, 
0.129479f, -0.017947f, 0.012540f, 0.048124f, 0.117371f, 0.048822f, 0.067771f, 0.121737f, -0.029084f, 0.042933f, 
0.027327f, 0.103058f, -0.063541f, 0.033287f, 0.034027f, -0.018402f, -0.030050f, 0.032920f, -0.046195f, 0.211929f, 
-0.080747f, 0.025513f, 0.010961f, 0.183936f, -0.025970f, -0.016161f, -0.052047f, 0.144723f, -0.023247f, 0.061674f, 
-0.055070f, -0.045734f, -0.098717f, -0.168895f, -0.037829f, -0.095034f, -0.180404f, -0.144586f, -0.260506f, 0.047594f, 
0.168754f, 0.091162f, 0.064134f, 0.171117f, 0.112033f, 0.183950f, -0.025475f, 0.047876f, -0.056441f, -0.024279f, 
0.057242f, -0.043754f, 0.026100f, 0.132032f, 0.014367f, -0.031017f, 0.005270f, 0.067989f, -0.003734f, -0.059824f, 
0.080217f, 0.096204f, 0.066039f, 0.087322f, 0.078253f, 0.135411f, 0.125929f, 0.107701f, 0.208312f, 0.188655f, 
0.220561f, 0.253854f, 0.003337f, 0.097802f, 0.106613f, 0.153075f, -0.067483f, 0.162144f, 0.124957f, -0.049391f, 
-0.088935f, 0.062453f, 0.016057f, -0.024806f, -0.272745f, -0.066501f, -0.017698f, -0.137525f, -0.185984f, -0.103536f, 
-0.284188f, 0.088353f, 0.148406f, 0.145666f, 0.205199f, 0.175459f, -0.018643f, 0.051202f, 0.051682f, 0.077404f, 
-0.083597f, 0.014969f, 0.007412f, -0.021168f, -0.015503f, 0.044716f, -0.018649f, -0.049236f, 0.001235f, -0.178549f, 
0.005383f, -0.173366f, -0.124951f, -0.174926f, -0.031022f, -0.273456f, 0.153395f, -0.241359f, 0.058569f, 0.003323f, 
0.179377f, 0.002581f, 0.157820f, 0.126811f, 0.119969f, 0.081176f, 0.072576f, -0.024947f, -0.132837f, 0.018201f, 
0.047216f, -0.081932f, -0.149698f, 0.041674f, -0.027295f, -0.114705f, -0.221280f, -0.031768f, -0.210241f, -0.040167f, 
-0.021959f, -0.208211f, -0.207334f, 0.045210f, 0.103650f, 0.071330f, 0.083934f, 0.192002f, -0.019809f, 0.149662f, 
0.071786f, 0.015606f, -0.101339f, 0.018400f, 0.101546f, -0.014347f, 0.004499f, -0.012682f, 0.067420f, -0.000767f, 
-0.239666f, -0.096418f, -0.021777f, -0.132278f, -0.436460f, -0.283062f, -0.286149f, -0.384842f, -0.102010f, -0.236956f, 
-0.297343f, -0.103002f, 0.217300f, -0.005166f, 0.018834f, 0.032912f, 0.012671f, 0.007746f, 0.069865f, -0.009816f, 
0.021154f, 0.199266f, 0.015489f, 0.151529f, 0.034413f, 0.068813f, -0.085021f, 0.169705f, -0.098886f, 0.004006f, 
-0.056491f, 0.025943f, 0.065777f, -0.011661f, -0.102011f, 0.146518f, 0.087476f, 0.062311f, 0.085690f, -0.000888f, 
0.036675f, -0.070446f, -0.034392f, 0.063334f, 0.028313f, -0.051910f, 0.087741f, 0.036238f, -0.050892f, -0.011875f, 
-0.061554f, 0.055435f, -0.229825f, -0.135341f, -0.097793f, -0.095621f, -0.231880f, -0.120594f, -0.276284f, -0.005381f, 
0.020655f, -0.077721f, -0.251576f, 0.124160f, 0.122435f, -0.032255f, 0.072365f, 0.125313f, 0.073040f, 0.112453f, 
0.037269f, 0.045852f, 0.015905f, 0.117713f, 0.140437f, 0.073113f, -0.051248f, 0.050196f, 0.045330f, 0.130626f, 
-0.145380f, -0.068665f, -0.024748f, 0.034259f, 0.031239f, -0.139471f, -0.159441f, -0.021095f, 0.069106f, 0.052149f, 
0.049700f, 0.123811f, -0.010769f, -0.111510f, 0.012659f, -0.090031f, -0.098809f, -0.069316f, 0.008576f, -0.033837f, 
-0.146308f, -0.129582f, -0.124439f, 0.049548f, -0.060837f, -0.157048f, -0.148206f, 0.003058f, 0.022842f, -0.132627f, 
-0.225928f, 0.007525f, 0.023371f, -0.120036f, -0.066278f, 0.036315f, -0.065161f, 0.009811f, -0.011884f, -0.086279f, 
-0.079979f, -0.042167f, 0.109908f, -0.035328f, 0.008183f, -0.012715f, 0.017539f, 0.031286f, -0.139903f, -0.126286f, 
0.000887f, 0.006697f, -0.042904f, -0.154587f, -0.046337f, 0.040298f, -0.056871f, 0.023710f, -0.075831f, 0.060292f, 
-0.037734f, -0.027363f, 0.062559f, 0.044703f, -0.052537f, -0.117057f, -0.112142f, -0.051778f, -0.221448f, -0.066723f, 
-0.220991f, -0.063864f, -0.182289f, -0.060649f, -0.161115f, -0.145803f, -0.094097f, -0.116856f, -0.135062f, 0.074677f, 
0.121821f, -0.043030f, -0.001129f, 0.013639f, 0.066070f, -0.037009f, -0.040228f, -0.070884f, -0.148169f, -0.042491f, 
-0.087581f, -0.034476f, -0.050947f, -0.124204f, -0.056453f, -0.196834f, -0.224340f, -0.225693f, -0.156462f, -0.143702f, 
-0.205739f, -0.156631f, -0.223716f, 0.018008f, -0.113675f, -0.183591f, -0.289817f, -0.030249f, 0.055781f, -0.000747f, 
-0.130518f, 0.030071f, -0.139986f, -0.056963f, -0.241534f, 0.035721f, -0.157124f, 0.102344f, -0.206480f, 0.071490f, 
-0.058929f, -0.025096f, -0.113024f, 0.044328f, -0.107953f, -0.052689f, -0.041465f, -0.010452f, -0.054728f, -0.031394f, 
-0.158051f, -0.070357f, -0.040017f, -0.045321f, 0.040226f, -0.029613f, 0.036376f, -0.025224f, -0.053472f, -0.087998f, 
-0.137898f, -0.063596f, -0.165597f, -0.079745f, -0.222360f, -0.163426f, -0.101121f, -0.032050f, -0.232839f, -0.103128f, 
-0.223643f, -0.169323f, -0.204428f, -0.184190f, -0.229111f, -0.047040f, -0.027478f, -0.151148f, -0.165999f, -0.013258f, 
0.029002f, -0.074799f, -0.007983f, 0.010080f, -0.037289f, -0.000825f, -0.139125f, 0.056582f, 0.049489f, 0.141117f, 
-0.042369f, 0.024358f, -0.020660f, 0.133454f, 0.017771f, 0.200810f, -0.114593f, 0.019885f, 0.017400f, 0.036592f, 
-0.034442f, 0.085650f, 0.007360f, -0.008019f, -0.088633f, -0.031840f, -0.023289f, 0.114527f, -0.021995f, 0.023272f, 
-0.116930f, 0.142409f, 0.058428f, 0.062811f, -0.051026f, -0.084745f, -0.175453f, 0.041714f, -0.071001f, -0.046873f, 
-0.220484f, -0.096096f, -0.098649f, -0.005995f, -0.201098f, -0.185603f, -0.275118f, -0.005143f, -0.200761f, -0.085384f, 
-0.250086f, -0.049603f, -0.053995f, -0.024881f, 0.003511f, 0.119242f, -0.023249f, 0.127633f, -0.065037f, 0.013635f, 
0.165028f, 0.041250f, 0.140735f, 0.142757f, 0.068111f, 0.149266f, 0.174842f, 0.078479f, 0.021460f, 0.108601f, 
0.157474f, 0.103757f, 0.057614f, 0.151943f, 0.008399f, 0.134559f, 0.125194f, 0.179289f, 0.022452f, 0.146480f, 
0.095064f, 0.131340f, 0.070514f, 0.219584f, 0.043045f, 0.118581f, 0.148945f, 0.187457f, -0.025169f, 0.134529f, 
0.036103f, 0.134506f, -0.091778f, -0.048961f, -0.019856f, -0.032060f, 0.003362f, 0.056369f, -0.079163f, 0.095857f, 
0.005470f, -0.024711f, -0.126944f, 0.028345f, 0.022740f, 0.049463f, 0.018328f, 0.000262f, -0.007860f, -0.180474f, 
-0.042764f, -0.102242f, -0.182712f, -0.183914f, -0.135702f, -0.116122f, -0.148776f, -0.189376f, -0.119862f, -0.160379f, 
-0.069506f, -0.174402f, -0.146682f, -0.151142f, -0.297967f, -0.134466f, -0.075423f, -0.176635f, -0.152173f, -0.214364f, 
-0.214172f, -0.224287f, -0.131052f, -0.227902f, -0.420039f, -0.297975f, -0.262322f, -0.109174f, -0.259257f, -0.148453f, 
-0.100952f, -0.176718f, -0.160809f, -0.163024f, -0.158753f, -0.191299f, -0.187459f, -0.217928f, -0.117395f, -0.034459f, 
-0.128487f, -0.133505f, -0.026203f, -0.119728f, -0.161965f, -0.207059f, -0.081972f, -0.146793f, -0.035654f, -0.220940f, 
-0.151982f, -0.203653f, -0.019713f, -0.125425f, -0.152171f, -0.088623f, -0.061686f, -0.186870f, -0.047127f, -0.065094f, 
-0.025247f, -0.251453f, 0.001724f, -0.062037f, 0.002067f, -0.106243f, 0.010172f, 0.064810f, -0.012900f, -0.025543f, 
-0.102493f, 0.124990f, 0.055834f, -0.078460f, -0.021058f, 0.080771f, -0.016564f, -0.002473f, -0.117275f, 0.009756f, 
-0.001994f, -0.058848f, 0.024223f, -0.006060f, -0.047683f, 0.033154f, -0.039852f, -0.019453f, -0.116845f, -0.071625f, 
-0.106072f, 0.037077f, 0.027530f, -0.186264f, -0.066920f, 0.001733f, -0.117350f, -0.075067f, -0.133953f, -0.110021f, 
-0.022316f, -0.087195f, -0.037115f, -0.150804f, -0.160962f, -0.221194f, -0.206051f, -0.129032f, -0.155746f, -0.162331f, 
-0.131941f, -0.084781f, -0.041456f, -0.069350f, 0.003449f, -0.005285f, -0.050721f, -0.017952f, 0.020262f, -0.025223f, 
-0.051409f, 0.018236f, 0.068489f, -0.002450f, 0.007900f, 0.034128f, 0.035269f, 0.003431f, 0.156177f, 0.109551f, 
0.032530f, 0.059636f, 0.055366f, -0.045802f, 0.072379f, 0.054330f, 0.125035f, 0.043193f, 0.049403f, 0.071175f, 
0.049470f, 0.081519f, 0.055687f, -0.031823f, 0.050292f, -0.096244f, 0.077779f, -0.006832f, 0.055659f, -0.039387f, 
-0.010014f, -0.019545f, 0.108630f, -0.059868f, -0.022402f, -0.222436f, -0.078233f, -0.263941f, -0.070411f, -0.108386f, 
-0.005345f, -0.024596f, -0.019590f, 0.053413f, 0.025134f, -0.114980f, 0.066532f, 0.077819f, 0.016568f, 0.073667f, 
0.098119f, 0.005498f, 0.000052f, -0.054813f, -0.014605f, -0.057348f, -0.038594f, -0.002173f, -0.048677f, -0.049746f, 
0.077356f, -0.079344f, 0.110993f, -0.176341f, -0.049043f, -0.075753f, -0.015311f, -0.065565f, 0.026620f, 0.007242f, 
0.036799f, 0.061545f, -0.044092f, -0.021260f, 0.070173f, 0.104591f, -0.022443f, -0.041614f, 0.043782f, 0.045096f, 
-0.007014f, 0.001709f, 0.111559f, 0.077204f, 0.120773f, -0.072088f, -0.063252f, -0.209802f, -0.116249f, -0.212284f, 
0.017667f, -0.013657f, 0.018746f, 0.008880f, -0.026693f, -0.003232f, 0.097984f, 0.013107f, 0.222274f, 0.142767f, 
0.026810f, -0.003450f, 0.122125f, 0.108726f, -0.002510f, 0.119930f, 0.137044f, 0.127751f, 0.046027f, -0.073226f, 
-0.003613f, 0.033135f, -0.040930f, -0.139040f, 0.004591f, -0.135201f, -0.084278f, -0.085898f, 0.090768f, -0.022407f, 
-0.005786f, 0.032694f, 0.021813f, 0.056659f, 0.032318f, -0.009394f, 0.163248f, -0.029598f, 0.101925f, 0.044054f, 
-0.034934f, 0.010750f, -0.007962f, -0.004574f, -0.017143f, -0.023212f, -0.066786f, -0.131143f, -0.067179f, -0.038024f, 
-0.141280f, -0.087831f, 0.041284f, 0.017364f, -0.018564f, -0.085317f, 0.156727f, -0.060608f, 0.107260f, 0.061051f, 
0.108168f, 0.096349f, 0.046357f, 0.000331f, 0.148754f, 0.031934f, -0.043616f, -0.049355f, 0.218680f, 0.198146f, 
-0.064194f, -0.044627f, 0.072990f, 0.106471f, -0.069404f, -0.045769f, -0.095805f, 0.053758f, -0.073946f, -0.020712f, 
0.012584f, -0.016183f, 0.036674f, 0.010300f, 0.057437f, -0.101355f, -0.009196f, 0.085246f, 0.174772f, 0.004919f, 
0.120062f, 0.076738f, 0.123078f, 0.003322f, 0.090399f, 0.013395f, -0.062301f, 0.018138f, 0.056940f, -0.153415f, 
-0.111869f, -0.193200f, -0.094023f, -0.170497f, 0.076599f, -0.234747f, -0.064233f, -0.142997f, -0.021426f, -0.141759f, 
0.015505f, -0.190420f, -0.023267f, -0.042874f, -0.028627f, -0.254121f, 0.039905f, -0.079192f, -0.065617f, -0.156943f, 
0.101969f, 0.027507f, 0.028591f, 0.013329f, 0.033460f, 0.133290f, 0.097811f, -0.068700f, -0.040663f, 0.103537f, 
0.090557f, -0.155097f, 0.040384f, -0.054267f, 0.012234f, -0.127334f, 0.070045f, -0.054830f, 0.056101f, -0.046046f, 
-0.035338f, -0.104771f, 0.111217f, -0.074592f, 0.048589f, -0.079153f, 0.092667f, -0.110410f, -0.055693f, -0.024702f, 
0.070469f, -0.163326f, -0.088071f, -0.191351f, -0.101835f, -0.103012f, -0.225691f, -0.141859f, -0.103708f, -0.247047f, 
-0.086298f, -0.000309f, -0.145868f, -0.215035f, -0.054804f, -0.037439f, -0.077891f, -0.023470f, -0.014279f, -0.059984f, 
-0.041248f, 0.020882f, 0.199758f, -0.010130f, 0.109042f, 0.062714f, 0.115359f, 0.002973f, 0.149893f, -0.098421f, 
0.027996f, 0.099151f, 0.036702f, -0.146228f, -0.085437f, 0.097642f, -0.096920f, -0.079151f, -0.179776f, -0.117593f, 
-0.198543f, -0.143316f, -0.173648f, -0.128173f, -0.133451f, -0.026795f, -0.091859f, -0.156671f, -0.089555f, -0.223755f, 
-0.046279f, -0.008748f, -0.020515f, -0.157992f, -0.228888f, -0.205289f, -0.158140f, -0.221960f, -0.078652f, -0.113855f, 
-0.141344f, -0.217498f, -0.044601f, -0.079217f, -0.097946f, -0.057232f, -0.032669f, 0.070391f, 0.010553f, 0.188724f, 
0.047713f, 0.063163f, 0.116908f, 0.206158f, 0.185953f, 0.008665f, 0.148915f, 0.008931f, -0.075121f, 0.042312f, 
-0.008586f, -0.226123f, 0.176687f, -0.035961f, -0.094840f, -0.134537f, -0.069587f, -0.025048f, -0.143384f, -0.184060f, 
0.070916f, 0.023860f, -0.166406f, -0.033009f, -0.061651f, -0.054309f, -0.130797f, -0.080587f, 0.045633f, -0.059262f, 
-0.062036f, -0.052178f, -0.170899f, -0.095061f, -0.108328f, -0.104802f, -0.233368f, -0.272587f, -0.120989f, -0.148392f, 
0.039362f, -0.163200f, -0.142773f, -0.077748f, -0.018450f, 0.016002f, -0.050286f, 0.022157f, 0.044734f, -0.102622f, 
0.120099f, 0.014041f, 0.061171f, -0.023854f, 0.050001f, -0.069382f, 0.082577f, -0.063315f, -0.085271f, -0.205853f, 
0.037695f, 0.018238f, -0.076944f, -0.215017f, 0.043177f, -0.027628f, -0.126631f, 0.044742f, 0.129103f, -0.067420f, 
-0.119386f, -0.110715f, 0.065819f, -0.020557f, -0.039918f, -0.127577f, 0.069722f, 0.055979f, 0.024105f, -0.139279f, 
0.025847f, 0.026049f, 0.107034f, -0.246038f, -0.155616f, -0.027281f, -0.165332f, -0.260190f, -0.246295f, -0.154444f, 
-0.149305f, -0.238508f, -0.007384f, -0.128817f, -0.035458f, -0.144053f, 0.150671f, 0.007226f, -0.072886f, -0.071082f, 
0.081512f, 0.096054f, -0.039189f, -0.057654f, 0.023157f, 0.000492f, -0.018966f, 0.012557f, 0.072436f, 0.128855f, 
-0.128401f, 0.006950f, -0.002275f, 0.134326f, -0.056633f, 0.030422f, -0.027125f, 0.003642f, 0.040787f, 0.017740f, 
0.102667f, -0.092490f, -0.073835f, 0.004600f, 0.092758f, 0.049598f, 0.029185f, -0.056707f, -0.011894f, -0.063399f, 
0.058380f, -0.070260f, -0.056419f, 0.058178f, 0.006704f, -0.152089f, -0.089559f, -0.123866f, -0.200617f, -0.252137f, 
-0.050229f, -0.242207f, -0.071635f, -0.147777f, -0.166340f, -0.240133f, -0.071946f, -0.211842f, -0.024259f, -0.235967f, 
-0.136453f, -0.124676f, -0.053281f, -0.007385f, 0.063535f, -0.204416f, 0.006126f, -0.036571f, -0.072479f, -0.080114f, 
0.088175f, 0.037406f, 0.149456f, -0.057940f, 0.182070f, 0.011684f, 0.108420f, 0.096292f, 0.049173f, 0.039522f, 
0.084344f, 0.027797f, 0.026440f, 0.054511f, 0.064980f, 0.009254f, -0.053303f, 0.111074f, -0.054094f, 0.025431f, 
-0.002385f, 0.056394f, 0.070696f, -0.236656f, -0.051346f, -0.112451f, -0.092970f, -0.079697f, -0.023858f, -0.182043f, 
-0.115523f, -0.186194f, -0.062621f, -0.118164f, -0.086456f, -0.254441f, -0.269114f, -0.093167f, -0.277730f, -0.197251f, 
-0.147304f, -0.307793f, -0.087281f, -0.260168f, -0.096911f, -0.331282f, -0.120490f, -0.209222f, 0.001243f, -0.161057f, 
-0.072147f, -0.276253f, -0.047858f, -0.139402f, 0.008973f, -0.348864f, -0.120998f, -0.106397f, 0.075941f, -0.270853f, 
-0.028516f, -0.026483f, 0.072831f, -0.154605f, 0.066111f, 0.012380f, -0.049237f, -0.112836f, -0.027529f, -0.021805f, 
0.088878f, -0.091524f, -0.065318f, -0.063959f, -0.015885f, -0.198386f, -0.065330f, -0.090653f, -0.098980f, -0.247862f, 
-0.056182f, -0.101860f, -0.165915f, -0.212681f, 0.095383f, 0.040078f, -0.029643f, -0.008574f, 0.029690f, -0.119663f, 
-0.027443f, -0.101645f, 0.059451f, 0.004321f, 0.040828f, 0.002466f, -0.039810f, -0.070290f, -0.053386f, -0.047031f, 
-0.030851f, -0.014042f, -0.026468f, -0.006017f, -0.195563f, -0.085426f, -0.209685f, -0.129476f, -0.330788f, -0.191450f, 
-0.197204f, 0.001856f, -0.237905f, -0.119963f, -0.164936f, -0.155661f, -0.063208f, -0.158426f, -0.130511f, -0.097898f, 
0.021355f, -0.041862f, -0.039813f, -0.077551f, -0.036969f, -0.069143f, -0.067846f, -0.025412f, -0.053760f, -0.014373f, 
0.048046f, -0.116755f, 0.040672f, -0.011836f, 0.068482f, 0.001738f, -0.026996f, -0.038279f, -0.086701f, -0.009650f, 
-0.138611f, 0.007878f, -0.104654f, -0.039615f, -0.124984f, -0.053392f, -0.062558f, -0.012963f, -0.232127f, -0.167301f, 
-0.087084f, -0.140736f, -0.112707f, 0.026513f, -0.272703f, -0.073532f, -0.253738f, -0.000145f, -0.223810f, -0.118187f, 
-0.250249f, -0.153021f, -0.108064f, -0.206408f, -0.440408f, -0.111893f, -0.217312f, -0.238405f, -0.303435f, -0.236834f, 
-0.251401f, -0.201679f, -0.242865f, -0.181438f, -0.247039f, -0.207462f, -0.281065f, -0.111405f, -0.158791f, -0.075815f, 
-0.213782f, -0.221257f, -0.141841f, -0.074852f, -0.144069f, -0.159557f, 0.031050f, 0.041191f, -0.125690f, 0.032622f, 
-0.132690f, 0.011557f, -0.202802f, -0.130253f, -0.187039f, -0.176588f, -0.314609f, -0.182482f, -0.247221f, -0.116709f, 
-0.114062f, -0.089587f, -0.074244f, -0.077426f, -0.058687f, -0.113385f, 0.011215f, -0.015060f, -0.006076f, 0.078548f, 
0.030045f, 0.002352f, -0.068108f, 0.209162f, -0.110310f, 0.167970f, -0.061561f, 0.155833f, 0.016700f, 0.112167f, 
-0.087560f, 0.009292f, -0.114617f, 0.012218f, -0.097594f, -0.053202f, 0.030319f, -0.017376f, -0.245392f, -0.112061f, 
-0.129322f, -0.111372f, -0.208292f, -0.295631f, -0.327031f, -0.090060f, -0.230157f, -0.243024f, -0.302763f, -0.091013f, 
-0.116097f, -0.053718f, -0.172458f, -0.012660f, -0.199762f, -0.133742f, -0.174647f, -0.169490f, -0.135388f, -0.121753f, 
-0.055511f, -0.149310f, -0.057217f, -0.124946f, -0.056022f, -0.093467f, -0.040771f, 0.051014f, -0.013260f, 0.046809f, 
0.129416f, 0.014945f, 0.090986f, -0.043802f, 0.115866f, 0.029014f, 0.146288f, 0.097059f, 0.076103f, 0.095840f, 
0.176144f, 0.147901f, 0.063826f, 0.040008f, 0.041713f, -0.029905f, 0.010019f, 0.035313f, -0.041903f, -0.121342f, 
-0.114773f, -0.010558f, -0.062514f, -0.186933f, -0.308904f, -0.223028f, -0.190425f, -0.196863f, -0.164231f, -0.248109f, 
-0.206502f, -0.029756f, -0.235156f, -0.184093f, -0.204351f, -0.096460f, -0.024602f, -0.024301f, -0.201573f, 0.039964f, 
-0.007952f, 0.102363f, -0.086709f, 0.103875f, 0.017630f, -0.000995f, 0.040086f, 0.055497f, 0.055120f, -0.001164f, 
0.036898f, 0.079313f, -0.069959f, -0.043894f, 0.050203f, 0.050933f, -0.023682f, -0.089314f, 0.124766f, -0.062159f, 
-0.052062f, -0.108336f, -0.028820f, -0.153743f, -0.068771f, 0.076373f, -0.071747f, -0.047057f, -0.020907f, 0.117364f, 
-0.163810f, -0.048849f, -0.115537f, -0.001618f, -0.042370f, -0.156595f, -0.229105f, -0.069949f, -0.245965f, -0.175662f, 
-0.191434f, -0.178859f, -0.225166f, -0.096772f, -0.127528f, -0.127309f, -0.158018f, -0.036339f, 0.169648f, 0.157109f, 
-0.068004f, 0.053468f, 0.166115f, 0.040056f, -0.000066f, 0.165568f, 0.095100f, 0.022913f, 0.147098f, 0.136370f, 
0.147950f, 0.020009f, 0.062101f, 0.018585f, -0.077629f, 0.064783f, 0.002725f, -0.134949f, -0.093727f, -0.065589f, 
-0.005139f, 0.091981f, 0.073883f, 0.053341f, 0.040062f, 0.164081f, 0.158090f, 0.085561f, 0.012929f, 0.120035f, 
0.034543f, 0.211540f, 0.107317f, 0.116644f, 0.104596f, 0.129672f, 0.066173f, -0.047464f, -0.163784f, 0.011452f, 
-0.050607f, -0.087013f, -0.213491f, -0.228984f, -0.257838f, -0.157902f, -0.083907f, -0.043335f, -0.011750f, -0.088675f, 
0.210826f, -0.016671f, 0.028313f, 0.090314f, 0.153787f, 0.093847f, -0.002663f, -0.039161f, 0.033039f, 0.073558f, 
0.052922f, 0.042980f, -0.015130f, 0.118075f, 0.000996f, -0.183385f, -0.085826f, -0.014529f, -0.033479f, -0.022178f, 
0.023280f, -0.007784f, 0.117473f, 0.011976f, 0.146034f, 0.102978f, 0.086511f, 0.179942f, 0.045952f, 0.099053f, 
0.135660f, 0.013811f, 0.040858f, 0.043685f, 0.088765f, -0.115194f, -0.027845f, -0.050647f, 0.056114f, -0.187066f, 
-0.313563f, -0.164233f, -0.085040f, -0.242837f, -0.297931f, -0.179294f, -0.283731f, -0.136610f, -0.015713f, -0.184342f, 
-0.030778f, 0.011314f, -0.016666f, -0.065655f, 0.029835f, -0.066876f, 0.125916f, -0.035892f, 0.057930f, -0.002693f, 
0.123084f, 0.002343f, -0.039451f, -0.020809f, -0.003174f, 0.049613f, -0.064255f, -0.059217f, -0.105539f, -0.057479f, 
-0.003871f, 0.070840f, -0.002799f, -0.053833f, 0.029906f, 0.087534f, 0.152066f, -0.048793f, -0.005053f, 0.091632f, 
-0.028434f, -0.013164f, 0.091928f, -0.162978f, 0.002630f, -0.070831f, 0.003731f, -0.090235f, -0.138863f, -0.051324f, 
-0.094616f, -0.203562f, -0.334139f, -0.180648f, -0.148010f, -0.258948f, -0.182047f, -0.291268f, -0.418561f, 0.018292f, 
-0.170662f, -0.166202f, -0.061262f, -0.103823f, -0.005806f, -0.150047f, -0.015651f, -0.103314f, 0.054554f, -0.038309f, 
-0.033497f, -0.179066f, 0.025281f, -0.018495f, 0.117463f, -0.161005f, 0.120761f, -0.033776f, 0.046016f, -0.111510f, 
-0.113227f, -0.069990f, -0.043964f, -0.098424f, -0.113428f, -0.044133f, 0.011154f, 0.102343f, 0.110649f, -0.029837f, 
0.013617f, 0.149742f, -0.097275f, -0.009618f, -0.006390f, -0.137760f, -0.136467f, 0.011517f, -0.135804f, -0.071194f, 
-0.166163f, -0.111662f, -0.141146f, -0.160672f, -0.368026f, -0.196272f, -0.136784f, -0.137609f, -0.070187f, -0.253262f, 
-0.268637f, -0.086810f, -0.143665f, -0.046080f, -0.098889f, -0.103557f, -0.151882f, -0.182557f, -0.220118f, -0.017012f, 
-0.004511f, -0.025720f, -0.054617f, -0.160017f, -0.060059f, -0.088459f, -0.048286f, -0.165921f, -0.080713f, -0.113252f, 
-0.084236f, -0.177867f, -0.120182f, -0.121174f, -0.152319f, -0.116387f, 0.095202f, -0.210595f, -0.070793f, 0.125395f, 
-0.023523f, -0.088377f, -0.063621f, -0.078717f, -0.104652f, -0.052409f, -0.159501f, 0.000576f, -0.049713f, -0.062402f, 
-0.013867f, -0.135529f, -0.077194f, 0.006449f, -0.128280f, -0.088811f, -0.120084f, -0.082974f, -0.128431f, -0.043113f, 
0.010539f, -0.089719f, -0.005923f, -0.114639f, -0.100247f, -0.132047f, -0.033421f, -0.017583f, -0.038311f, -0.096703f, 
-0.042228f, -0.003445f, -0.174791f, -0.040002f, -0.173630f, -0.111071f, -0.177081f, -0.086620f, -0.140972f, -0.106674f, 
-0.102519f, -0.117474f, -0.076460f, -0.107669f, -0.060343f, -0.191745f, 0.004885f, 0.076459f, -0.060584f, -0.113440f, 
-0.026495f, -0.063194f, -0.082989f, -0.132221f, -0.016866f, -0.111298f, 0.011692f, -0.056995f, -0.068663f, -0.066927f, 
-0.025198f, -0.109642f, -0.134179f, -0.020476f, -0.101799f, 0.039948f, -0.116778f, -0.013065f, 0.032448f, 0.045233f, 
0.003638f, 0.081362f, 0.051489f, -0.041424f, 0.020593f, -0.021921f, -0.164347f, 0.019358f, -0.010759f, -0.101702f, 
-0.030482f, 0.034631f, -0.006650f, -0.048666f, -0.019155f, 0.060266f, -0.057078f, -0.007833f, -0.074824f, -0.031276f, 
-0.030093f, -0.025395f, 0.004964f, 0.053519f, -0.054185f, -0.024662f, -0.040575f, -0.137568f, -0.086918f, 0.024085f, 
-0.063139f, -0.068942f, -0.050729f, -0.013870f, 0.007661f, -0.062135f, -0.142841f, -0.015130f, -0.046639f, 0.034531f, 
-0.147318f, -0.050152f, -0.017149f, 0.136789f, -0.012765f, 0.124658f, 0.105908f, 0.178846f, -0.012854f, 0.117174f, 
0.041845f, 0.022227f, 0.061292f, -0.026499f, 0.027408f, -0.093794f, 0.091791f, -0.064175f, -0.121852f, -0.047356f, 
-0.106007f, 0.004143f, 0.016161f, 0.042895f, 0.041962f, 0.048616f, 0.081307f, 0.081328f, 0.020705f, 0.100977f, 
0.048812f, 0.120901f, 0.094410f, 0.062675f, 0.003887f, -0.001043f, 0.038958f, 0.036517f, 0.087971f, 0.185646f, 
-0.056778f, 0.167454f, -0.037238f, 0.053863f, 0.042017f, 0.133901f, 0.077694f, -0.026280f, 0.082180f, 0.193221f, 
0.146055f, 0.085281f, 0.042451f, 0.193561f, 0.123861f, 0.148242f, 0.079257f, 0.109293f, 0.022911f, 0.068208f, 
0.107778f, -0.008542f, -0.070035f, 0.008765f, 0.118418f, 0.023154f, -0.029292f, -0.092076f, 0.015673f, -0.078375f, 
};

// Layer 3 Biases (10 elements)
static const float32_t layer_3_biases[] = {
-0.037732f, 0.088895f, 0.005570f, -0.044330f, 0.002385f, 0.081072f, -0.029772f, 0.067502f, -0.129998f, -0.022192f, 
};

static const eif_layer_t mnist_layers[] = {
    {
        .type = EIF_LAYER_CONV2D,
        .activation = EIF_ACT_NONE,
        .params.conv2d.filters = 4,
        .params.conv2d.kernel_h = 3,
        .params.conv2d.kernel_w = 3,
        .params.conv2d.stride_h = 1,
        .params.conv2d.stride_w = 1,
        .params.conv2d.pad_h = 0,
        .params.conv2d.pad_w = 0,
        .weights = layer_0_weights,
        .biases = layer_0_biases
    },
    {
        .type = EIF_LAYER_MAXPOOL2D,
        .activation = EIF_ACT_NONE,
        .params.maxpool2d.pool_h = 2,
        .params.maxpool2d.pool_w = 2,
        .params.maxpool2d.stride_h = 2,
        .params.maxpool2d.stride_w = 2,
        .weights = NULL,
        .biases = NULL
    },
    {
        .type = EIF_LAYER_FLATTEN,
        .activation = EIF_ACT_NONE,
        .weights = NULL,
        .biases = NULL
    },
    {
        .type = EIF_LAYER_DENSE,
        .activation = EIF_ACT_NONE,
        .params.dense.units = 10,
        .weights = layer_3_weights,
        .biases = layer_3_biases
    },
    {
        .type = EIF_LAYER_SOFTMAX,
        .activation = EIF_ACT_NONE,
        .weights = NULL,
        .biases = NULL
    },
};

static const eif_model_meta_t mnist_model = {
    .magic = 0xE1F00001,
    .version = 1,
    .num_layers = 5,
    .layers = mnist_layers,
    .arena_size = 1024 // Placeholder
};

#endif // MNIST_H
