#ifndef MODEL_Q15_H
#define MODEL_Q15_H

#include "eif_model.h"

// Layer 1 Weights (36 elements)
static const int16_t layer_1_weights[] = {
-32768, -25698, -26025, -16751, 6762, 4135, 16299, 9520, -17760, -2035, 6076, -11043, 
    -19103, 8093, 32767, -12891, 23607, -24466, 32767, 18641, -12065, 32767, 3085, 32767, 
    32767, -4670, 7954, 32767, -27022, -28844, -32768, -14533, 10947, -23484, -28822, 30610, 
    
};

// Layer 1 Biases (4 elements)
static const int16_t layer_1_biases[] = {
0, 0, 0, 0, 
};

// Layer 5 Weights (160 elements)
static const int16_t layer_5_weights[] = {
-19646, -22766, -16501, -14791, 32767, 4682, 17962, -32768, -9818, 17461, 17857, 6646, 
    11643, -32768, 32767, 30151, -27869, -14279, -32768, -32768, -12361, -32768, 8449, 32767, 
    32767, 9248, -17090, -1830, 16625, 30992, 13538, -5893, 17458, 10277, -32768, 3428, 
    -634, -27129, 15527, 11796, -32768, 32767, 32767, 31361, 32767, -8931, 24510, -13477, 
    -32768, 17653, -16970, -1812, -32768, 7445, -1669, -7072, 16978, 15746, -32768, -31859, 
    -32768, 12377, 21245, -32768, -32768, -373, -11405, -32768, -23027, -32768, 30513, 32767, 
    -21498, -32768, -32768, 4642, -32768, -30892, -8775, 21665, 18958, 32767, -9054, -32768, 
    9388, 5900, -11802, -4067, -32768, 3629, 23696, -11852, -32768, -17346, -28121, 25392, 
    -32768, -16980, -32768, -32768, -8935, 28107, 32767, -1725, 7151, 32767, 24742, -22246, 
    -10629, 1200, 32767, -5162, 8811, -7079, 2548, 213, 16858, 19264, 18755, 9055, 
    20758, 8542, -6633, -32768, -7205, -824, -19550, -32768, -18195, -13326, 7335, -300, 
    32767, -21596, 25037, -32768, 3408, -32768, -32768, 32767, -5921, 10827, 7488, -32768, 
    6236, -32768, -32768, 32767, 32767, -16895, 32767, 25964, -32768, 14825, 32767, 32767, 
    32767, -32768, -4944, -32768, 
};

// Layer 5 Biases (10 elements)
static const int16_t layer_5_biases[] = {
0, 0, 0, 0, 0, 0, 0, 0, 0, 0, 
};

// Layer 6 Weights (4608 elements)
static const int16_t layer_6_weights[] = {
32767, -7252, -3686, 8938, 2541, 31097, -24800, 16465, 5174, 26253, -32768, -16508, 
    28267, -32768, -32768, -7971, 9603, -32768, -25221, -15913, -32768, -23554, -9879, -4166, 
    -28155, 32767, -32768, 1321, 32767, -32097, 20032, -7996, 32767, 29832, 32767, -1399, 
    -6368, -32768, -32768, -16344, -32768, 11560, 32767, 19508, 1110, -13514, -32768, 7515, 
    -3035, -32768, -32768, 9767, -22536, 3982, -4650, -20103, 15946, 11932, -22944, -2572, 
    -6657, 2011, 32767, 24255, 17647, -32768, -9550, 23013, -21341, -1910, 18796, -32768, 
    -32768, 21594, -32768, 25566, -18924, -5083, -32768, -32768, -32768, 32767, 3525, 32767, 
    -32768, 32767, -28499, 8628, -32768, -18420, 32767, -32768, 17152, -32768, -18297, 30630, 
    -32768, -224, -32768, -12099, -7147, 32767, 32767, -25431, -32768, 26757, 32767, 27638, 
    26852, 32767, 2118, 18912, -32768, 17644, -17145, 32767, -29153, -32768, -32768, 32767, 
    -20850, -32768, -20235, 29481, -27318, -30295, -5650, 32767, 12056, -17304, 18512, 32767, 
    32767, -15007, -1612, -14329, -31373, -14211, -32768, 32767, 8485, 14845, -32768, -32768, 
    -6213, 14509, 24583, -27130, 10489, -32768, -13446, -32768, -152, 32287, 32767, 12923, 
    11832, -21985, -22301, 2676, -6272, -28212, 32767, -32768, 21856, 32767, -6218, 3908, 
    -32768, -32768, 32767, -393, -32768, -32768, 7460, -32768, -30458, -18161, 8296, 32767, 
    -21662, -15090, 8860, -25179, 4607, 29308, -10491, 20588, -28742, -32768, 10934, 22256, 
    8080, 18759, -11929, 14235, -25178, 32767, -12780, -32768, -27179, -8385, -7993, -32768, 
    -32768, 9096, 7089, -2951, 32767, 12973, -19003, -17723, -29031, 9760, 14725, -18457, 
    32767, 32767, -10802, -32768, 28394, -16065, 10123, 32767, -25872, 32767, -30843, -2863, 
    27644, 25923, 28872, -9717, 13587, 7362, 32767, -18768, -2415, 12461, -27614, 12917, 
    5040, 5083, 1135, 32767, -16494, 32767, 32767, -32768, 3923, 8175, 13124, -7004, 
    6482, -32768, 16504, -14341, -1992, -14358, -32768, 32767, -15067, -20925, 10652, -29311, 
    32767, -18258, 29590, 3093, 1955, -32768, -32768, 9021, 7005, -32768, 1990, -19121, 
    -15586, 17897, 31355, 32767, -32768, 32767, 153, 32767, 23535, -32768, 19704, 32767, 
    -32768, 32767, 10584, 32767, 19632, -6039, -32768, 7419, -32768, -12934, 7815, -32768, 
    32767, 32767, -26817, 18425, -24829, -12572, 19808, 32767, -8194, 17700, 32767, 2303, 
    -32768, -4950, -12544, 12709, -17161, -27849, -15799, 28277, 13688, -32768, 7712, 32767, 
    -13581, -5915, -1572, -2104, -32768, 32767, -6335, 22018, -31706, 23251, -32768, -14268, 
    21764, 32767, -32768, 32767, -32768, -32768, 18490, -10524, -32768, 32767, -32768, 32767, 
    32767, -14605, 32767, -784, -19489, -32768, -23117, 32767, 18135, 32767, 32058, -27221, 
    -32768, 17163, -27386, -2910, 5095, 5631, -21900, 9231, -32768, 32767, 24204, -14343, 
    32767, 16761, 7136, 9770, 32767, -13341, -13099, 25248, 32767, -27427, 32767, -12683, 
    -32768, 8965, -1637, -5435, -32768, -32768, -29701, 7497, 5084, 1131, 32767, 4220, 
    32767, 32767, -632, -7422, -25730, -32768, 32767, 11514, -5344, -982, -1364, -32768, 
    -32768, 6607, -25224, 32767, -32768, -23268, -6508, 32767, -32768, -14107, -30548, 2645, 
    -32768, -32768, 32767, -24730, -32768, 6908, -12647, 7939, 3262, -27577, 32191, -32768, 
    -10315, 24217, 32767, -32768, -8892, 27618, 17049, -8431, 13345, -30738, -29269, -2133, 
    -10792, -15115, -10138, 27522, 20966, -6143, 19264, 32767, -11607, -32768, 25414, -32768, 
    -1445, 20098, 32767, -18710, 32767, -6560, 32767, 11503, 32767, 27668, 2814, 12382, 
    29598, 18687, 32767, -32768, -32768, 32767, -32768, 32767, 20261, 24622, -14560, 6647, 
    9348, 32767, -32768, -19970, 25235, -31182, 9954, -3258, 11319, -11570, -31465, -32768, 
    2166, 2615, -6683, -18836, 9015, -9581, 23243, -11231, 5781, 32767, -19334, -18206, 
    8249, 13569, -3873, 30041, 4052, 17294, -32768, 32767, -31899, -473, -32567, -29007, 
    29099, 32767, -23321, 32767, 32767, 11231, -17350, -6482, -31140, 32767, 16570, -16665, 
    -32768, 16096, -20766, 12744, -32768, -17225, -11590, -2392, 10123, 961, 3802, -19936, 
    6311, -32768, 17318, -1802, 19776, -32768, 11582, 8366, 19970, -21751, 7003, -32768, 
    18272, -22320, 26691, 32767, -32768, 4900, -32768, 32767, 9097, -14600, -783, -26870, 
    32767, -2646, -26531, -18505, 375, 20996, -18977, -11231, -32768, -32768, -32768, -13748, 
    -19244, 1441, -32516, -26754, -32768, -3776, 19268, -1760, 32767, 9130, 4384, 14756, 
    22516, -1023, -13401, -377, 4101, -32768, -32768, -17498, 32767, 32767, 20858, 13538, 
    32767, 2779, 29622, 32767, 32767, 29102, 32767, 8982, -9050, 32767, -10676, 32767, 
    32767, -13455, 32767, 2660, 4630, 9933, 18660, -32768, 8814, 32767, 22522, -4582, 
    -32768, -32768, -23570, -13730, 27412, -19906, -29143, 24112, 30245, -11743, -19506, 32149, 
    5416, -4827, -3228, -32768, 224, -32768, 22963, 8414, -27090, -32768, -2351, 3944, 
    -4873, -21923, -28689, -16544, -32768, 7995, -7330, -11754, 14572, -1727, 24009, -8820, 
    -22121, 3475, 32767, -31172, 16248, -32768, 12746, -3277, 32767, 32767, 32767, -29410, 
    23064, -30233, 27300, -32768, -32768, -17998, 21996, 11414, -4187, -14424, -2182, -32768, 
    24372, 9141, -32161, 27293, 32767, -32768, 13485, 32767, -27743, 32767, -29668, -32768, 
    32767, 25956, -909, -32768, -15997, 18294, 16234, -32768, 10103, -16449, 23851, -32768, 
    -18806, -7411, 11317, 817, -32768, -19629, 3675, 23138, 16078, -32768, -32768, 4615, 
    -22894, 32767, 7839, 32767, 29483, 25648, 32767, 10170, -24311, 13251, -32768, -16982, 
    -32768, 32767, -32768, -3752, 24867, 29586, 18120, -7989, -5259, 15358, 14036, 18514, 
    -32768, -32768, 6157, 3819, -249, -32768, -18105, 32767, -26178, -16486, -9953, 32767, 
    6871, -32768, -23824, -32768, -12026, 15256, -32768, -32768, 32767, -717, -5428, -20482, 
    32767, -32768, 32767, 23839, -20448, -32768, -8528, 11450, -701, -2441, -23987, -23971, 
    32767, -5286, -32768, -32768, -19518, -179, 32767, 3307, -27623, -25388, 15584, -32768, 
    -23473, 26150, -8675, 18594, 11444, 17108, 32767, 32767, 11401, -32580, -32768, -13809, 
    -26959, -21747, 15469, -32768, -32768, -32768, 14943, 26454, -32768, 29887, 32767, 32767, 
    -12947, 28698, -14354, -12903, 14401, -18481, -14358, 1236, -16509, 21517, 339, -11361, 
    7394, -5824, 32767, -32768, 1659, -32768, 14061, 22211, 22060, 26419, -713, 10863, 
    -358, 12637, 32767, -15061, -32768, 17491, -5270, 10597, 32767, -5914, 9838, -32768, 
    -32768, 11274, -23343, 26873, 3660, -22768, 19805, 32767, -9566, 29089, -32768, 32767, 
    -31451, -32768, 17071, 27617, 23873, 32767, 14014, 32767, 32767, 32767, -7903, 8335, 
    -30986, 31059, -28684, 3076, 3497, -32768, -2611, -19416, -32768, -27701, -12797, 9664, 
    -32768, -32768, 32767, 12069, -25115, 1559, -32768, -17567, -32768, -32768, 17697, -32768, 
    -12554, 12355, -32768, -30, -12047, -32768, -1200, -28678, 17563, 8227, -23351, -4174, 
    32767, -32768, -32768, -11534, 32767, 32767, 11852, -32768, 27626, 29950, -32768, 23250, 
    32767, 32767, 32767, -3406, 16863, 24290, 30258, 32767, 32767, -32768, 32767, 32767, 
    16775, -32768, 32767, 3667, 7052, 32767, 5120, -3730, -24122, 18479, 23929, -4348, 
    18779, -16641, 32767, 4648, -9642, 20882, -12338, 26620, -6964, 31160, -28418, -1932, 
    -11213, 3566, -28392, 19160, -32768, 32767, -32768, 32767, 32185, 30639, 32767, 27467, 
    -7465, 820, -6084, -2993, -32768, 18719, -23800, 20251, -5104, -32768, 32767, -28694, 
    -32768, -32768, 32767, -32768, 1030, 18285, -32768, -14535, 32767, 24901, 19973, 12523, 
    32767, 16444, 8730, -1690, 16376, 7903, 12432, 32767, -25337, 4691, 7435, 32767, 
    2862, -32768, -32768, 120, 32767, -32768, 32767, 14716, -20920, 25835, 32767, 32767, 
    -32768, -5388, 9079, -6757, 25985, -19139, 32767, -32768, -9518, 32767, -32768, 7497, 
    22919, 6221, 30948, -13729, 1177, 6277, 32767, -32768, 7328, -22164, -19031, 17388, 
    32767, -25252, -9345, -162, -24513, -21877, 28638, -32768, 18084, -9768, -32768, 32767, 
    -17736, -5497, -32768, 1126, 32767, 8559, 10888, 32767, -23670, -25721, -32768, -22657, 
    16014, 32767, 32767, 32767, 9808, 32767, -5756, 32767, -32768, -3956, -20139, -17755, 
    729, -32768, 17842, 15933, -32768, -2493, -32768, -16279, -19052, -9604, 17326, 2184, 
    4284, 19180, -351, -30449, -25099, 25417, 32767, 17784, -32768, -13744, -4745, -19116, 
    32767, -2241, -32768, -9285, -10096, -32768, 24686, 12606, -10932, 1849, -1379, -32768, 
    -32768, 27105, -12930, 32767, 3702, 32767, 13144, 15050, 12596, -32768, 32767, -1875, 
    -32768, 18482, 2141, 32767, -13388, -7445, 32767, 3856, 21440, -25324, 21822, -32768, 
    10831, -22062, 5414, -19282, -32768, 32767, -32768, -1233, -6282, 27083, -16752, -32768, 
    -32768, 9876, -32768, -8532, -32768, -32768, -32768, 13225, -32306, -12989, 30718, 21880, 
    -4383, 21540, 8316, -32768, -4236, 32767, -11726, 11403, -23927, 32767, 22169, 4656, 
    -19031, 32767, 32767, -12167, -22481, 794, -26831, 32767, -7190, 5077, 32767, -32768, 
    -7550, -32768, -32768, 22592, 32767, 9338, -32306, -5072, -10354, -12363, 11936, 6695, 
    5159, 32767, 10397, 32767, 11253, 17976, 10749, -22878, -32768, -824, 31971, -16058, 
    -32768, -30204, 24326, 3657, -14785, -12076, -11204, 4124, 32767, -32768, 32767, -16294, 
    32767, 32767, -28563, -32768, -15720, -32768, -1868, -27976, 15130, -32768, -22511, -24557, 
    -7736, -32674, -30723, 5391, 32767, 11875, -4416, -993, -32768, 32767, 9886, 32767, 
    14416, -32768, 32767, -12406, 32767, 10044, -22626, 32767, 32767, -1853, -32768, 32435, 
    -26363, 32767, 45, -13458, -32768, 27295, -12964, 10412, 32767, 6995, 6436, 32767, 
    10602, 12904, -17478, -10930, -8743, -32768, 16766, -32768, -26818, -5594, -3932, 23044, 
    6062, -24652, 5302, -32768, 28947, 2125, 32767, -24503, 29466, -992, 9832, 32767, 
    32767, 25836, -6790, 8198, -32768, -21066, 32767, -10676, -32768, -3464, -1076, -26891, 
    7639, 19267, -11080, -6741, 32767, 20721, 9284, 21389, -12737, -6990, -6251, 32767, 
    6473, 12243, 6131, -20409, -32768, 6644, 25029, 18117, -21338, 27868, -32768, -17590, 
    -2962, -1739, 9836, 32767, 32767, -6394, 27443, 32593, -19845, -13031, 31364, 9878, 
    28697, -32768, 9452, -16912, -32768, 32767, 13561, 26729, -32768, -32768, 32767, -32768, 
    25297, 17297, -12208, -3760, -10580, 4295, 26863, -3498, 482, -20891, -15760, -23963, 
    -32768, -13715, 9050, 4167, -14467, 21037, -1221, -18634, 30937, -23057, 320, -32768, 
    -32159, -31158, -26580, 4402, 32767, -5505, 32767, 32767, -3906, 32767, -29707, -16419, 
    15155, 2282, -6742, 28652, -32768, -7056, -32768, -32768, 26506, -32768, 19272, 31265, 
    27213, 32767, 30057, -32768, 14060, 32767, 7276, -7600, -32768, 21648, -11601, -20092, 
    -32768, -10747, 9929, 21619, 545, -24978, -9348, 24100, -11240, 32767, -8869, -11276, 
    -21410, 32767, 24540, 32767, -29847, -2355, 6414, -14375, 18036, 1645, -7819, 30370, 
    19036, 19050, -16818, 4759, 32767, 5681, -7713, -4787, 21569, -14219, -14409, -32768, 
    10559, 3252, -8866, 32767, -22518, -21741, -32768, -32768, -32768, 29810, -10275, 7500, 
    8679, -32768, -17329, 32767, -5467, 27412, -556, 10521, 32767, 1318, 32767, 27067, 
    28037, -27956, -32768, 32767, 17569, -32768, 8764, 28530, 22499, -15594, 32767, 26732, 
    -20620, -6586, 32767, -32768, 7603, -32768, 26190, 13362, 25853, 26453, -231, 32767, 
    32767, 32767, 32767, -32768, 32767, -31130, -20218, 32767, 21629, -32768, -16951, -18204, 
    -5469, -32768, 18865, 32767, -6732, 4381, -32768, 13529, -32768, -16123, 12489, -1991, 
    22336, -22651, 23553, -18291, 24362, 316, 32767, 6447, -2603, 7615, -32768, 1027, 
    -12172, -11806, -19171, -26757, -12686, -32768, 9263, 12697, -23197, 6438, -24053, -12851, 
    -15763, -17684, -32768, -11035, -32768, -27469, -32768, -26938, 1834, 30182, 3912, -2392, 
    32767, 27677, 32767, 10225, -2195, -13572, -32768, 32767, 32767, 20190, 20475, -2960, 
    9717, 32767, 32767, -3128, -3132, -4770, -871, 3337, -32768, 5356, 32767, 32767, 
    31146, 19297, 32767, 9271, -15845, -22403, -18532, -32768, -28321, -30371, -32768, -6464, 
    32767, 24124, -17328, -32768, -3979, 32767, 32767, -18028, -28512, 32767, 24760, 22106, 
    -32768, -32768, 19006, 32767, 32767, -32768, 32767, 24131, 32767, 27622, 1012, 26637, 
    23627, -11389, -16031, 20394, 29680, 32767, -32768, 32767, 20948, -8751, -13878, -29046, 
    20386, -31075, 32767, -32768, -32768, 25708, 32767, -4967, -32768, -32768, -32768, -32768, 
    -32768, -32768, 701, 6337, -15362, 4473, 11158, 970, 32767, 23493, -14013, -32768, 
    -17332, -7101, -20460, -3310, -15412, -14124, -28947, 32767, -16271, 32767, -32768, 4279, 
    11095, -12707, -32768, 18738, 841, -2623, 25756, -5386, -6862, -27553, -29415, -24902, 
    -13458, -18257, -32768, -19173, -12373, -20899, -32768, 10329, 32767, 32767, -32768, -15699, 
    12706, -9262, -18409, -20, -3358, -3845, 1598, 32767, 1077, 13789, 9330, 19541, 
    -9798, 32767, 752, -8803, 32767, 17252, -25023, -11834, -32768, -32768, -1886, -32768, 
    8666, 27542, 5814, 32767, -5177, -16194, -32768, -32768, -32768, -1446, -2513, 32767, 
    -4359, 30079, 5271, 32767, 6307, -32768, -32768, 23108, -25359, 5898, -28731, 12887, 
    -32768, -20782, -3940, 260, 12799, 32767, -10261, -32768, -10894, 10176, -32768, 5587, 
    18190, 21519, 15123, -3245, 14249, -32768, 32767, 10012, -20781, -24717, -29278, -1632, 
    28197, 21978, -19189, 8979, 22256, -10010, 8117, -32768, -12453, 32767, 32767, 18113, 
    -19810, 10955, 10101, -3554, 6397, 32767, 32767, -23465, 4574, 32767, -32768, -32768, 
    4407, 8517, 20161, -17080, -32768, 21680, 32767, 32767, -18927, -32768, -309, -19303, 
    32767, 32767, 32767, -20273, -10881, 32767, 10894, -32768, -10789, 32767, 21596, 32705, 
    -32768, -18594, 20767, -9801, -393, 16963, -1699, -32768, -8401, 6236, 5611, -26778, 
    18332, -32768, -6041, 26524, 32767, -32768, 6208, -32768, -5768, -32372, 32767, 32767, 
    -32768, 32060, 32767, -4740, 14617, 12172, 18531, -23408, -20268, 32315, -27875, 32767, 
    7876, -17437, 1098, 12974, -16279, 2317, 25768, 24627, -11127, 22866, 11633, 864, 
    -10119, 5922, 32767, 20324, -15441, 16917, -12196, 3504, 32767, -32768, 32767, -8823, 
    11838, 32767, 20994, -23013, -26951, -32768, -28327, -15939, 27804, 701, 32767, -14459, 
    5716, 2045, 16671, -32768, 5737, 32767, -32768, -4655, 6237, -32768, 32767, 30185, 
    9989, -32768, -21162, -32768, -25175, -18992, -3728, -17921, 9306, 31225, -32768, -2121, 
    32767, -32768, -32768, 28433, -32768, 10233, -32768, 17997, 32767, -9470, 17311, 32767, 
    -18872, -8940, -22030, -2336, 19474, 32767, 32767, -16060, 16420, -32768, 32767, 5043, 
    32767, 32767, -9362, 22784, 32767, 13056, -32768, 32767, 14931, -1208, 31201, -32768, 
    -2758, 4577, 32767, -32768, -10185, 32767, 32767, -32768, 21995, -22921, -32768, 32767, 
    -25448, 32767, -20297, 32767, -8320, 2349, 32767, 32767, 31470, 11229, -12634, 7317, 
    -8676, -32768, -9151, 26767, 16817, 3598, 15023, -32768, -6346, 15954, -17699, -11687, 
    -25790, -32768, 32767, 28930, -32768, 32767, 32767, 2311, -20447, 6683, -26712, -9947, 
    32767, 8267, 32767, 9427, 32767, -32768, 6833, -3450, 24907, 16148, 18612, -25084, 
    8070, -6072, 32101, -19625, 32767, 11145, 8703, -24393, 32767, -32768, 23654, 32767, 
    17599, 2851, 9460, 3185, 15117, 16262, -32768, -32768, -13907, 19797, -17121, 6068, 
    -25142, 16211, -959, -30035, 30600, -4221, 3481, -27298, -21127, -32768, 24785, 2738, 
    30448, 6879, 32767, -32768, -32768, -2100, -6622, 7066, -26438, -32768, 496, -11091, 
    -27928, 10908, -25706, -14278, -24765, -3131, 24653, 13079, -24633, 16737, 7104, -8949, 
    9868, 28571, 32767, -32015, 29018, -28033, -32768, 32767, -3484, 27438, -12060, 32767, 
    -32768, -12934, -30306, 703, -13087, -21682, -32768, -32768, 32767, -19465, -32768, -26801, 
    20458, -18632, 14427, -32768, -32768, 30491, 32767, 32767, -15399, 23804, 32767, 32767, 
    -32768, 32767, 6988, -10223, -9423, -32768, -32768, 6718, -25626, 5380, -15630, 14805, 
    -10917, -21307, -9530, 32767, -1918, 32767, -32768, 32767, -5137, -720, 18715, -5119, 
    32767, -32768, 17301, -23092, 32767, -15922, -32768, 6641, 14954, -9848, 16140, 26521, 
    -2866, 16310, 28624, 10731, 10786, 15827, -12818, -32768, 19271, -2943, 30644, 32767, 
    -24388, 32767, -18238, 21878, 32767, 32767, 12335, 29644, -956, 6940, -32554, 32767, 
    13960, 32767, -32768, -32768, 4358, 32767, -12889, -10810, 4189, 32767, 22918, -24923, 
    32767, 32767, 32767, 24543, 32767, -30568, -9274, 30897, 14100, 20579, -12091, -4893, 
    32767, 13016, 32767, 26983, -14077, -7060, 32767, 9297, -9909, -24043, 29789, 2424, 
    13447, 32767, 19268, 32767, 32767, 20364, 32767, -1229, 6409, 19533, -26104, -15673, 
    8287, 9474, -27361, -32768, -16791, -31844, 24156, 32767, 32767, -32768, 13702, 32767, 
    32767, -6061, 4228, 8807, 32767, -10490, 26062, -32768, -4217, -32768, 1304, 19937, 
    -32768, -32768, -9292, 7827, 2786, -5799, -32768, -32768, 10189, 9944, 11994, -24441, 
    -9922, -4899, 5422, 13335, 24545, 25956, -32768, 32767, 32767, 1565, 32767, -31011, 
    14207, -9012, 16766, -16235, -32768, 939, -24486, -27038, 3114, -5417, -27212, -1306, 
    31656, 7822, 32767, 8104, -32768, 30936, -32768, 32767, 32767, 4500, -32768, 32767, 
    32767, -16642, 17950, -23988, 23468, -14864, -32768, -27700, 15477, 32767, 32767, -17666, 
    -32768, 21696, 32767, 32767, -16859, -32768, -32768, -462, 32767, -13657, -13554, 32767, 
    -5954, 12407, 32767, 534, 3001, 32767, -28738, -6641, -32768, -32768, -2014, -17938, 
    32767, 27608, 31127, 27062, 154, -9830, -19938, -25507, 32767, -32768, -14448, -499, 
    -27393, -7371, 9747, -8298, 32767, 32767, -5821, -25080, 2958, -3775, -32768, -13050, 
    -18114, 32767, -32768, 32767, 32767, 13316, 32767, -1549, 32767, 21068, -1084, -23407, 
    -32768, -24039, -16536, 32767, -8627, -11702, -32768, -26286, 11778, -32768, -32768, -26830, 
    32767, 32767, 32767, -28498, -32768, -28466, 21804, 17991, -32768, 32767, -7578, -32768, 
    2115, 23135, 19152, -22680, -32768, -9774, 32767, -32768, -32768, -32768, -6764, -8854, 
    -30236, -32768, 22627, -25222, -32768, -11670, -32768, -14209, -32768, 32767, -32768, -8872, 
    3266, -32768, -26177, -7936, -20984, 32767, -21201, -8393, 6552, -32768, -3129, -24066, 
    -15417, 19550, -15784, -22482, 32767, 32767, -32768, 32767, 32767, 32767, 18437, 32767, 
    6211, -6691, 32767, -32405, -17411, -2018, -14004, 32767, -2687, -32768, 25688, 32767, 
    -1498, -26398, 27880, -865, 12337, -10351, 32767, 32767, 1965, -32127, -27811, 7348, 
    -15556, -32768, -63, -32768, 32767, 30626, -28388, 10182, 4581, 25065, -32768, -32768, 
    -7352, -14873, 27074, 24726, 32767, 11280, -2583, 6293, -32768, -115, 32767, 32767, 
    -26329, -9026, -25633, -2958, 12435, -32768, -32768, 28300, -18801, -32768, 32767, -26745, 
    -24350, -32768, 32767, -32768, -7484, -29374, 26180, 27940, -8657, -32768, 4048, 12107, 
    -830, 32153, 24175, 30066, 16963, -32768, 18593, 32767, 32767, -30004, -24069, -12993, 
    21435, 15160, 32767, -32768, -26623, -4243, 32767, 32767, -32768, -20816, -8241, -5079, 
    -32768, 15917, -32768, 32767, -12384, -10659, -19084, 19709, -20801, 29896, -5029, -12819, 
    32767, 8532, -32768, 13281, 32767, -27393, -8402, -15601, 5485, 32767, -32768, 25221, 
    -12285, -32768, 32767, 32547, 32767, 19771, 15945, -4988, 32767, 2988, 16429, -2416, 
    13889, 5409, 4122, 1663, 11995, -15129, 32767, 22702, 12831, 19018, 13294, 11415, 
    -20883, 24902, 32767, -32768, 32767, -12418, -32768, -8041, -32768, -27877, 25258, -19658, 
    32767, -32768, -32768, -22204, 9973, 19067, -32768, -32768, 30994, -32768, -32768, -260, 
    -17732, 24195, 6556, -27182, -32768, 32767, -24392, -16822, 32767, -32768, -4514, 16096, 
    18013, 1041, 32767, -12589, 27125, -25542, 32767, -32768, 15764, -6421, 32767, 18250, 
    24631, -2896, -220, -32768, -25765, 4994, 6861, 16268, -12695, 9876, 14833, 4490, 
    -16757, 8929, 32767, -32768, -12080, -13845, 6644, -32768, -30112, 30554, 11717, -30042, 
    32767, 17696, 30347, 14286, 32767, -32768, -19619, 9545, -32768, -27618, -7435, -1587, 
    -32768, -20772, 22991, 25246, -32768, -12066, -32768, -32768, 6138, -32768, -30933, -14883, 
    -19927, 16981, 29577, 24904, 22504, 30199, -32768, -10504, -25844, 21182, -6349, -3934, 
    16131, -15853, 6545, 6336, 23491, 7608, -24097, -23238, 8966, 2551, 17330, -32768, 
    32767, -26481, -6006, 32767, 32767, -32768, -15586, -32768, -19725, 366, -20433, 31920, 
    -32768, 32767, -32768, -14814, 3278, -22916, 21890, 13522, -22198, 15207, 1171, -1366, 
    20940, 32767, -22394, 25716, 5583, 32767, -22267, -32768, -2418, 28769, -32768, -18056, 
    5432, -10286, 7042, -32768, -12323, -8364, 32767, -8861, -20014, 19600, -12349, 32767, 
    32767, 32767, -32768, 16681, 32767, -29854, -22541, -21910, 17208, 15768, -32768, -17552, 
    -11813, 16298, 12924, -32768, -19571, -7395, -9627, 32767, -30622, 32767, -32768, -8587, 
    15108, 11994, 19020, -10462, 32767, 30223, 14879, -4609, 11701, -13758, -8734, -32768, 
    -32768, 32767, -9168, -13484, -32768, 32767, -9964, -32768, -20516, -32768, 26086, -32768, 
    32767, -32768, 32767, 6120, 18473, 32767, 32767, 32767, -32768, 3757, 15711, -22175, 
    -4307, -32768, -32768, 17932, 32767, -4947, -32768, 32767, -20188, 9335, 32767, 29890, 
    -9737, 7366, 20748, 32767, 10566, -619, 32767, 21014, 532, 32767, -23317, 2201, 
    279, -32768, 21865, 32767, -32768, -750, 32767, -31982, -32449, 24240, -32768, 24347, 
    -7883, 32767, -32768, -32768, -32768, 32767, 18438, 23732, 32767, 26841, -32768, -5904, 
    32767, -28602, -25566, 13623, 11206, 12315, 32767, -22660, 13617, -12043, 20937, -8327, 
    32767, -9345, 8191, -10153, -30151, -20013, 10139, -20779, -32768, -27981, 13861, 21468, 
    -8014, -32768, 29303, -32768, 32767, -32595, -20531, -24713, 27201, 32767, 13085, -32768, 
    32767, 4938, 13503, -25540, 32767, -25436, -9895, 26052, -1129, -32768, -5200, -16452, 
    -10433, 10569, -9083, 15008, 8338, -32453, -3857, -4966, -32768, -6802, -24964, 23831, 
    7276, -25560, 5995, 23735, -25794, -20268, 32767, -10783, -32768, 9156, -32768, -32768, 
    -32768, -645, -8925, -5300, 7081, -25310, 24920, -32768, -24864, -4848, 32767, 31697, 
    18244, -13297, -28842, -1300, -11517, -32768, 30738, 32767, -32768, -32768, -32768, -17035, 
    -32768, -5519, -14867, 9789, 32767, 20142, -25743, -32768, -14604, 17999, 32767, -32768, 
    32767, 29990, 4895, 32767, -5342, -32768, 32767, 13156, 32767, -32768, -1468, -32768, 
    16433, 26668, 27527, -9878, 24908, 32767, -32768, -32768, -21160, 3629, 31076, 19713, 
    17131, 4321, -4483, -32768, -29509, -13131, -21693, -32768, -9151, -32768, 2235, -32768, 
    -32768, 19852, -14219, -10292, -26675, -13944, -6027, 21669, 32767, -16160, -32768, -32768, 
    -32768, 28338, -32768, 2068, 32767, -20441, -6764, -31933, 13369, 32767, -16204, 20998, 
    -32768, -32768, 18628, 32767, -23682, -32768, -19171, -24630, 13155, 11017, 32767, -29763, 
    32767, -32768, -12893, 12400, -32768, 2176, 24079, 30349, 23795, 32767, 32767, -5298, 
    17256, 22499, -5600, 19938, -11571, 32767, 15285, 32767, -32768, 32767, 7572, -32768, 
    28785, -32570, -13342, -18528, -19735, 23556, 15599, 32767, 17946, -12861, 24917, 31525, 
    3642, 32767, 9278, -19730, -32768, 14315, 18549, -26608, -14938, 16786, -32768, 9108, 
    16724, -32768, 27830, 2247, 21287, 10580, 28940, 21944, -31831, -18553, -20592, 9819, 
    32767, -18372, -31178, 22108, -13272, -5086, 21249, -32768, 20941, 27623, 32767, 6684, 
    -11167, -32768, 32767, -32768, -18098, -32768, -17890, -32768, 4350, -32768, 32767, -452, 
    17982, -32768, 22051, -13350, 1503, -11189, -32768, 32767, -24490, 32767, -2172, 32767, 
    4429, -32768, 1822, -4303, 50, 32767, -32768, 32767, -142, -23280, -5993, -7911, 
    -10904, -32768, -10102, 4831, -2849, 18075, 14817, 32767, -3922, -26928, 31956, 10798, 
    18360, -8026, -29291, 11561, 11674, 32767, -26787, 8823, -32768, -32768, 12808, -6991, 
    21477, -31786, -32768, -18423, -23895, 18127, 14694, 10066, 32767, 19356, 32767, 3530, 
    -12425, 59, -8708, 30140, -6727, -1355, 32767, 6418, -32768, 16570, -7287, 11407, 
    32767, -32505, 8165, -30312, -1942, 32767, -17973, -32768, -17965, -32768, -32768, -32768, 
    21587, 25362, -18031, -32768, 2848, -17761, -17761, -6210, -8078, -30600, -11705, 32767, 
    6489, 27150, 32767, -30966, 17358, -24772, 4865, -32768, -5299, -17819, 32767, -14747, 
    -20703, 32767, 32767, -32768, -17526, -32768, 13079, 20212, -11924, -21002, 26748, 32767, 
    32767, 23636, 32767, 740, 32767, 32767, -9076, -3033, 28942, -12072, -8125, 21982, 
    -5268, -32768, 2405, 6659, 29505, -24312, -20220, 16105, -15135, -29452, 7913, 26335, 
    -32768, -7790, 32767, 207, 30795, -32768, -32768, -848, 32767, 23238, -5975, 32767, 
    5093, -32768, 11084, -32768, -32768, 32767, -15444, 32767, 32200, 13485, -32768, 17763, 
    -15945, -3395, -32768, 29120, 12998, 892, 17884, -32768, -25387, -32755, -7420, -32768, 
    -32768, 29970, -8757, 12684, 9472, 32767, 12022, -20554, 8837, -32768, -28173, -4704, 
    32767, 21098, -25391, -32768, 32767, -32768, 32767, 32767, -1567, -25868, 32767, -10704, 
    -15800, 31547, -32768, -32768, 20123, 8653, 9713, -22887, -32768, -32768, -28347, -11038, 
    -8694, -5494, -335, -32768, 32767, -2567, 19580, -18156, -32768, -32768, 32767, -32768, 
    15426, -32768, 21719, -3576, -32768, 10909, -19591, -9091, -3826, -10604, 28188, -32768, 
    6823, 32767, 32767, -32768, 3567, -23518, -32768, 32767, -17111, -4719, -13775, 32767, 
    -29250, 32767, -5244, 32767, 7199, 20193, -26826, -7840, -13238, -32768, -32768, -5061, 
    3950, 32767, 4706, -32768, 31311, -32768, 23848, -20890, -32768, 10014, 32708, -32768, 
    32767, 26784, -31590, -32768, 10771, -32768, -12362, 23279, 32767, 17585, -10048, 7792, 
    32767, 9951, -32492, -17198, -31518, 30359, 13326, -32768, 14932, -23371, -29236, -9503, 
    32767, -13623, -7959, -25029, -32768, 20905, -32768, -30833, 1684, -11804, -5323, 26900, 
    -12730, -32768, 13579, -29056, -7876, -11755, 8740, -27775, 14372, -12953, -4696, -6321, 
    32767, -32768, 9211, 32767, -32768, -28893, -32768, 1408, -31617, -32768, 3129, -20248, 
    10138, -16308, 3407, -30163, 4165, -14015, -32768, -18325, -11010, -18908, 15439, 12265, 
    -32768, 2652, 32767, 22017, 8376, -20001, 8627, 19957, -32768, -32768, 16258, -21457, 
    32767, -2074, 24202, 16383, 2371, 9187, -19433, -32768, -32768, -13473, 32767, 494, 
    32767, 32767, 6492, 31898, -32768, -32768, 32767, 14826, 29424, 12552, 32767, -19880, 
    -10804, -2692, -13921, -32768, -5679, -32768, -32768, 32767, 5959, 24810, 32767, 1049, 
    26564, -2904, -12847, 6755, -1143, -18677, -18162, 7445, 32767, 4102, -7797, 32767, 
    6016, 32767, 25449, -32768, 32767, 27405, -7816, 32767, 21128, 12018, 9644, 2912, 
    10243, 32767, 20109, -15840, 5564, 32767, 32767, 11932, -32768, -18631, -13412, -19460, 
    9210, -32768, -32768, -27132, -32438, -20221, -32768, -25674, 28558, 10812, 25476, -32768, 
    30598, -18639, 23149, 6781, 17306, 32767, 32767, 27829, 1614, 5961, -3734, -7091, 
    8814, -32768, -6661, -32768, -10576, 2252, -32768, 31414, -15065, 2811, 12174, 14721, 
    32767, 10361, -18240, 9730, 16409, 6652, 15538, 32767, 7761, -8693, 6377, -32768, 
    5179, -5587, 32767, 28858, -16544, 12366, -32046, -6838, -32768, 32767, -6187, -31641, 
    -5462, 32767, 15572, -19554, 17782, -5116, 32767, 25084, 22944, -28408, -32768, -30619, 
    -22014, 32767, 6938, -32268, -32768, 29829, -32464, 22949, 32767, 32767, -26960, -32768, 
    -22191, 10792, -32768, 27802, 2820, 15077, -23573, 32767, 32767, -32768, 17976, 5649, 
    -21953, -27913, 32767, -32768, 9020, -1705, 2462, -32768, -8301, -7625, -15753, -9921, 
    -6869, 170, -15995, -12197, 10387, -25573, 2674, 9729, -11331, -32768, 3778, 3426, 
    -28002, -3060, 32767, 15793, 7459, 17482, -32768, -4235, 13281, 32767, 3103, -13931, 
    -32768, 6096, 22243, -32768, -26844, -32768, -1949, 25269, 32767, 244, -13670, 32767, 
    -5715, -7947, -27489, 32767, -20154, -23248, 32680, -19910, 16904, -32768, -9887, -5589, 
    6926, -136, 32767, -25632, -12712, 32767, 17319, 7172, 4929, -25447, -32768, 29268, 
    3171, -32768, 8547, 14631, 4191, -9626, -32768, 28028, 32767, -4725, -26369, -32768, 
    32767, 32767, -32768, 30838, -26463, -15151, 4637, -32768, -32768, -32768, 3817, 10451, 
    32767, -32768, 4772, 22355, -3000, 20476, -17020, -28539, -14342, 30110, 948, -17031, 
    14969, 13619, 23104, -32768, 5978, -15549, 20137, -6066, -15787, 412, -7112, 29605, 
    6739, -1371, -15658, 20375, -32768, 32767, 9009, 32767, 27719, 6807, -29145, 8797, 
    -30991, -16169, 32767, 15429, -3261, 16457, 32767, -32768, -19764, 8690, -219, 29851, 
    -32071, 23762, -12329, 3086, -32768, -2243, -6333, -5063, 10639, -31024, 32767, 5919, 
    32767, 32767, -8613, 21002, -30301, 32767, -32768, -15575, 13675, -13891, 19462, -20477, 
    12452, -6564, 18852, -32768, 32767, 14359, 12533, -21500, -12945, 107, -32768, 32767, 
    12322, -15280, -32768, -32768, -31583, 24252, 15444, -32768, -32768, -20379, 32767, -32768, 
    2680, -32768, -5024, -30096, 21949, 8483, -32768, 12420, -31441, -4905, 13094, 32767, 
    -11565, 19618, -25995, -5507, -32768, 29988, -25893, -32768, 30489, 32767, -25839, 13162, 
    -24141, -22596, 20869, -32768, -25939, 32767, -82, -21272, -1897, -14811, 30176, 4154, 
    32767, -16274, -23290, -32768, -32768, -32768, 19298, 32410, 22897, 32767, 32767, 17643, 
    31541, -8272, 32767, -32768, 27374, 32767, -23779, -29867, -22164, -29650, 25750, 592, 
    -11703, -8082, 22241, 6610, 21897, 32767, 1671, -17338, 9135, -32768, 2442, -32768, 
    -32768, -32768, -1792, -10959, 23460, 32767, 32767, 32767, -2253, 23375, -17431, -20134, 
    -3788, -31778, -26283, 29386, -31511, -32768, 3116, -5441, -18343, 31671, 1994, -32768, 
    32767, -30571, -5518, -3012, 13317, 15202, -32768, 2540, 32767, 1550, -7476, 32767, 
    -13911, -32768, -2260, 32767, 32767, 32767, 19902, -23679, -395, 23491, -31514, -32768, 
    14929, -6465, 4926, 2676, 32767, -13373, -32768, 8304, 15201, -7868, 1514, -12511, 
    32767, -32768, 5575, 10071, 2998, -32768, -32768, 3449, 23589, -32768, -4022, 32767, 
    -32768, 1920, 32767, -24470, -32768, 3049, -2595, -16387, 30781, -22391, 18174, 32767, 
    7165, -32768, -29507, 10132, -8584, -32768, -32768, -10601, -8023, 17755, -11451, 18389, 
    32767, -2466, 32767, -8040, -309, -3163, -10281, 24650, 19388, 32767, -26718, 32767, 
    15410, 28619, 27614, -32768, 16847, -1242, 32767, 2821, -22099, 11464, -208, 16202, 
    -1151, -26011, -19543, -14889, -14558, -8003, 32767, 368, -26751, 8397, -6345, 22246, 
    32767, -15509, -32768, -3311, 31268, -19000, -751, 5427, -31392, -6386, -11381, -6401, 
    32767, -5761, -32768, 9488, 32767, 32367, -32768, 32767, -17268, 32767, -5641, -32768, 
    -11323, 22482, -32768, -5815, -2446, -8592, 5130, -21482, -2186, 32767, -19259, -3485, 
    32767, 6951, 32767, 32767, 32767, -19133, -32768, -15122, -23964, -21401, 32767, -14249, 
    -14446, -26387, -32768, -10124, 7955, 32767, 4061, -9234, -32768, -32768, 15624, -5453, 
    32767, -32768, 58, 32767, 4539, 9746, -32768, 32767, 15557, 32767, 5193, 11551, 
    17431, 4782, 32767, -16829, -28772, -12196, -32768, 817, -11443, 18560, -32768, -22632, 
    -30337, 21708, -32604, -4511, 32767, -4492, -32768, 32767, 21926, 32767, 20346, 13894, 
    32767, -32768, 16979, 11509, 20, -24465, -610, -32768, 11946, -10937, -8405, 5377, 
    32767, -13900, -28887, -9571, 17356, -15412, -32768, 32767, 21294, -19086, -2534, 32767, 
    32767, -12994, -32768, -11962, -2696, 5851, 16268, -32768, 22434, -5852, -21261, -21792, 
    29394, 32767, 26328, -29829, -32768, 8065, -32768, 20523, -13027, -32768, -32768, 6898, 
    -18417, 32767, -26268, 1562, 18439, 6059, 32767, 18368, -11587, -14971, 16008, -32768, 
    32767, -19218, -11563, 32258, -4340, 26116, 32767, 21243, -8755, 12418, 32767, -32768, 
    32767, 32767, 1443, 13353, 32767, 25415, 2609, 9962, -10386, -24470, -24119, -27146, 
    -18759, -32708, -11679, 6541, 32767, 18212, -32768, 20175, 30097, 7071, -7532, -13869, 
    3905, -16616, 32767, 32767, 18143, -12521, -10626, 32767, 32767, -10892, -23355, -32768, 
    -12660, 32767, -15176, -26707, -32768, -25605, -21133, -8217, 20979, 3459, -30994, -1334, 
    -32768, 19322, 26767, -32768, -32768, 19704, -11035, 11525, 32767, 1438, 32767, 4059, 
    -19506, 17440, -7502, 32767, -18573, 16936, -1163, 21055, 32767, 22844, -16259, -8856, 
    -32768, 32767, 6454, 18110, 1795, -17076, 31921, 30163, -32768, -21711, -26517, -32768, 
    32767, -31250, -32524, -19735, -19784, 32767, -7035, 4228, -30542, -9910, 25644, -32768, 
    -4809, 23561, -3524, -1397, -32263, 32767, -32768, 8911, -32768, 26163, 5113, 20833, 
    3269, 32767, -24318, -23554, 22598, 27152, -28969, -23694, -27444, 32767, 32767, -29812, 
    32767, -15897, -54, 32767, -32768, 3161, -7377, 32767, -16802, -30538, 12445, -30926, 
    -32768, 12994, 32767, 32767, -6862, -10252, -21749, 32767, -5938, -11721, -31612, -16392, 
    -21338, 32767, -32768, 3325, -15600, 32767, -32768, -7426, -30209, -32768, 27856, -12810, 
    32767, -15215, -3502, 32767, 21004, 2724, 32767, 5595, 26015, -31289, -12563, 4102, 
    -32768, -32768, -32768, -32768, 5611, -11380, 31118, 16411, 835, -4461, -32768, 10017, 
    24420, 28328, -3891, -5348, -5952, 5712, 32767, 27020, -23120, -16133, 7366, -876, 
    -32768, 32767, -29575, -25121, 6641, 7384, 4957, -22694, -21791, -3583, -18763, 32767, 
    13328, 19037, -22198, -811, -32768, -32768, 5379, -32768, 3724, 3837, 18494, -8222, 
    32767, 28180, 32767, 32767, 32767, 32767, -1589, -20306, 219, 5964, -25593, 27383, 
    -32768, 28360, 32767, -1872, -31869, -1187, -14742, -19914, -11455, 7351, 31910, 25033, 
    12162, -32768, -17956, 32767, 8390, -23886, -32768, 31587, 32767, -11885, 22763, -32768, 
    -5218, -32768, 31995, -32768, 26970, 5333, -298, -32768, -32768, -32768, -32768, -32768, 
    -27183, 5079, 31140, -25140, -32768, -22683, 10420, -18274, -32768, -32768, 32767, 12535, 
    32767, 15941, 21388, -32768, 1687, -15783, 21014, 20291, -7198, 28213, 32767, 23796, 
    -32768, -29067, 32767, -24863, 32767, -14336, 15558, -11716, 5615, -32768, 5294, 1622, 
    28510, -6980, -32768, -32768, 1287, -31907, 32767, -3325, -32768, 15905, 32767, -25489, 
    11269, -11685, 32767, -28489, 28256, 14105, -3154, 32767, -13190, -7467, -12210, -32768, 
    -20596, -26736, -13317, 32369, 32767, 32767, -32156, -13756, -32768, -26466, 11973, -17704, 
    1484, 32767, -7433, 503, 32767, 22206, -32055, -28583, 32767, -17093, 5271, 32767, 
    32767, 32767, 32767, 12457, -6196, 32767, 22605, 32767, 10591, 1153, 13661, 32767, 
    -32768, 15575, -32768, 27142, -32768, -16857, -25034, -13217, 31208, 32767, -7271, -32768, 
    9766, 14941, 4752, -32768, -4219, 32767, -8650, -22622, -19849, -32768, -18872, 32684, 
    -1330, -32768, 32767, 2241, -10399, 766, 32767, -4284, -7621, -32768, 25550, 30511, 
    32767, 21778, -32768, -24285, 21781, -12117, 2080, 32767, -32768, -32768, 18131, -25121, 
    
};

// Layer 6 Biases (64 elements)
static const int16_t layer_6_biases[] = {
0, 0, 0, 0, 0, 0, 0, 0, 0, 0, 0, 0, 
    0, 0, 0, 0, 0, 0, 0, 0, 0, 0, 0, 0, 
    0, 0, 0, 0, 0, 0, 0, 0, 0, 0, 0, 0, 
    0, 0, 0, 0, 0, 0, 0, 0, 0, 0, 0, 0, 
    0, 0, 0, 0, 0, 0, 0, 0, 0, 0, 0, 0, 
    0, 0, 0, 0, 
};

static eif_layer_t model_q15_layers[] = {
    {
        .type = EIF_LAYER_INPUT,
        .weights = NULL,
        .bias = NULL,
        .params.input = { .width=28, .height=28, .channels=1 }
    },
    {
        .type = EIF_LAYER_CONV2D,
        .weights = layer_1_weights,
        .bias = layer_1_biases,
        .params.conv = { .filters=4, .kernel_h=3, .kernel_w=3, .stride_h=1, .stride_w=1, .padding=1 }
    },
    {
        .type = EIF_LAYER_RELU,
        .weights = NULL,
        .bias = NULL,
    },
    {
        .type = EIF_LAYER_MAXPOOL2D,
        .weights = NULL,
        .bias = NULL,
        .params.pool = { .pool_h=2, .pool_w=2, .stride_h=2, .stride_w=2 }
    },
    {
        .type = EIF_LAYER_FLATTEN, // Mapped Reshape
        .weights = NULL, .bias = NULL
    },
    {
        .type = EIF_LAYER_DENSE,
        .weights = layer_5_weights,
        .bias = layer_5_biases,
        .params.dense.units = 10
    },
    {
        .type = EIF_LAYER_LSTM,
        .weights = layer_6_weights,
        .bias = layer_6_biases,
        .params.rnn = { .hidden_size=16, .stateful=false, .return_sequences=1 }
    },
};

static eif_model_t model_q15;
static int16_t model_q15_pool[1050624];
static int16_t model_q15_state[32];
static inline void model_q15_init(void) {
    eif_model_create(&model_q15, (eif_layer_t*)model_q15_layers, 7);
    model_q15.workspace_a = model_q15_pool;
    model_q15.rnn_state = model_q15_state;
    model_q15.rnn_state_size = 32;
    model_q15.state_size_bytes = 64;
}

#endif // MODEL_Q15_H
