#ifndef MODEL_F32_H
#define MODEL_F32_H

#include "eif_model.h"

// Layer 1 Weights (36 elements)
static const float32_t layer_1_weights[] = {
-1.054092f, -0.784244f, -0.794243f, -0.511205f, 0.206372f, 0.126219f, 0.497419f, 0.290548f, -0.542001f, -0.062109f, 0.185431f, -0.337032f, 
    -0.582994f, 0.246993f, 1.608602f, -0.393423f, 0.720452f, -0.746671f, 2.183733f, 0.568885f, -0.368207f, 1.945852f, 0.094173f, 1.009636f, 
    1.580430f, -0.142532f, 0.242755f, 2.624419f, -0.824658f, -0.880268f, -1.239802f, -0.443522f, 0.334092f, -0.716686f, -0.879607f, 0.934158f, 
    
};

// Layer 1 Biases (4 elements)
static const float32_t layer_1_biases[] = {
0.000000f, 0.000000f, 0.000000f, 0.000000f, 
};

// Layer 5 Weights (160 elements)
static const float32_t layer_5_weights[] = {
-0.599556f, -0.694772f, -0.503576f, -0.451414f, 1.514342f, 0.142893f, 0.548184f, -1.976567f, -0.299631f, 0.532892f, 0.544968f, 0.202822f, 
    0.355319f, -1.371297f, 1.219435f, 0.920156f, -0.850518f, -0.435767f, -1.628779f, -1.684758f, -0.377231f, -1.005272f, 0.257857f, 1.729057f, 
    2.745048f, 0.282236f, -0.521548f, -0.055867f, 0.507362f, 0.945816f, 0.413148f, -0.179864f, 0.532788f, 0.313633f, -1.789695f, 0.104641f, 
    -0.019368f, -0.827939f, 0.473875f, 0.359998f, -1.093411f, 1.005957f, 2.581346f, 0.957087f, 1.887879f, -0.272573f, 0.748001f, -0.411289f, 
    -1.318947f, 0.538742f, -0.517907f, -0.055321f, -2.379996f, 0.227221f, -0.050938f, -0.215826f, 0.518146f, 0.480554f, -1.660160f, -0.972279f, 
    -1.171553f, 0.377740f, 0.648369f, -2.007899f, -2.082896f, -0.011385f, -0.348054f, -1.586654f, -0.702730f, -1.324325f, 0.931191f, 1.806275f, 
    -0.656079f, -1.103106f, -1.154489f, 0.141663f, -1.244576f, -0.942770f, -0.267815f, 0.661173f, 0.578576f, 1.335350f, -0.276325f, -1.830245f, 
    0.286514f, 0.180072f, -0.360195f, -0.124124f, -1.537583f, 0.110764f, 0.723158f, -0.361698f, -1.469842f, -0.529370f, -0.858191f, 0.774932f, 
    -1.082619f, -0.518217f, -1.227939f, -1.146497f, -0.272693f, 0.857774f, 1.348853f, -0.052650f, 0.218259f, 1.834045f, 0.755079f, -0.678919f, 
    -0.324383f, 0.036628f, 1.653505f, -0.157550f, 0.268916f, -0.216037f, 0.077785f, 0.006503f, 0.514474f, 0.587899f, 0.572362f, 0.276355f, 
    0.633488f, 0.260706f, -0.202447f, -1.782896f, -0.219894f, -0.025151f, -0.596620f, -1.371475f, -0.555280f, -0.406689f, 0.223848f, -0.009163f, 
    1.069295f, -0.659087f, 0.764072f, -1.220865f, 0.104021f, -1.150298f, -1.318142f, 1.656344f, -0.180714f, 0.330436f, 0.228517f, -1.992434f, 
    0.190311f, -1.462584f, -1.497428f, 1.210946f, 1.059101f, -0.515601f, 1.223551f, 0.792366f, -2.345405f, 0.452448f, 1.250662f, 1.463314f, 
    1.056946f, -1.719079f, -0.150880f, -2.772713f, 
};

// Layer 5 Biases (10 elements)
static const float32_t layer_5_biases[] = {
0.000000f, 0.000000f, 0.000000f, 0.000000f, 0.000000f, 0.000000f, 0.000000f, 0.000000f, 0.000000f, 0.000000f, 
};

// Layer 6 Weights (4608 elements)
static const float32_t layer_6_weights[] = {
1.400701f, -0.221342f, -0.112500f, 0.272774f, 0.077560f, 0.949030f, -0.756863f, 0.502485f, 0.157911f, 0.801196f, -1.218751f, -0.503791f, 
    0.862652f, -1.814548f, -1.030154f, -0.243286f, 0.293084f, -2.295219f, -0.769692f, -0.485644f, -2.141377f, -0.718826f, -0.301496f, -0.127160f, 
    -0.859246f, 1.744599f, -1.693009f, 0.040326f, 1.256893f, -0.979531f, 0.611339f, -0.244034f, 1.485259f, 0.910424f, 1.085659f, -0.042705f, 
    -0.194357f, -1.025720f, -2.251331f, -0.498803f, -1.369284f, 0.352803f, 1.828427f, 0.595350f, 0.033894f, -0.412433f, -1.286068f, 0.229356f, 
    -0.092628f, -1.225006f, -1.376944f, 0.298096f, -0.687762f, 0.121549f, -0.141914f, -0.613501f, 0.486640f, 0.364158f, -0.700214f, -0.078495f, 
    -0.203157f, 0.061382f, 1.404697f, 0.740228f, 0.538565f, -1.030456f, -0.291446f, 0.702318f, -0.651300f, -0.058312f, 0.573615f, -1.368875f, 
    -1.146535f, 0.659026f, -3.120695f, 0.780243f, -0.577524f, -0.155145f, -1.783088f, -1.540251f, -1.673529f, 1.309146f, 0.107590f, 2.725956f, 
    -1.436378f, 1.341237f, -0.869737f, 0.263312f, -1.219554f, -0.562163f, 1.848753f, -1.023270f, 0.523464f, -1.845460f, -0.558393f, 0.934762f, 
    -2.518352f, -0.006847f, -1.919493f, -0.369233f, -0.218116f, 1.661721f, 1.811812f, -0.776121f, -1.138145f, 0.816578f, 1.467142f, 0.843449f, 
    0.819461f, 1.231737f, 0.064644f, 0.577156f, -1.630875f, 0.538458f, -0.523237f, 1.730189f, -0.889689f, -1.257233f, -2.137608f, 1.278731f, 
    -0.636320f, -1.102323f, -0.617532f, 0.899703f, -0.833684f, -0.924548f, -0.172441f, 1.740836f, 0.367948f, -0.528102f, 0.564945f, 2.088950f, 
    1.579724f, -0.457995f, -0.049216f, -0.437313f, -0.957438f, -0.433691f, -1.813558f, 1.083582f, 0.258950f, 0.453057f, -1.008143f, -1.053581f, 
    -0.189612f, 0.442808f, 0.750224f, -0.827944f, 0.320104f, -1.056897f, -0.410340f, -1.261808f, -0.004644f, 0.985351f, 1.421800f, 0.394383f, 
    0.361109f, -0.670941f, -0.680580f, 0.081679f, -0.191417f, -0.860964f, 1.014932f, -2.005309f, 0.667002f, 2.304176f, -0.189775f, 0.119267f, 
    -1.204753f, -2.046165f, 1.773546f, -0.012019f, -1.363945f, -1.251469f, 0.227667f, -1.134361f, -0.929511f, -0.554260f, 0.253190f, 1.766809f, 
    -0.661085f, -0.460531f, 0.270406f, -0.768428f, 0.140617f, 0.894433f, -0.320175f, 0.628318f, -0.877156f, -2.411985f, 0.333689f, 0.679218f, 
    0.246587f, 0.572497f, -0.364070f, 0.434440f, -0.768375f, 1.102587f, -0.390035f, -2.088472f, -0.829465f, -0.255907f, -0.243945f, -1.041916f, 
    -1.591124f, 0.277589f, 0.216360f, -0.090086f, 1.292048f, 0.395933f, -0.579935f, -0.540883f, -0.885959f, 0.297867f, 0.449388f, -0.563268f, 
    1.555575f, 1.019624f, -0.329652f, -1.287629f, 0.866545f, -0.490267f, 0.308929f, 1.316652f, -0.789562f, 2.017908f, -0.941272f, -0.087402f, 
    0.843638f, 0.791113f, 0.881120f, -0.296551f, 0.414669f, 0.224687f, 1.009963f, -0.572756f, -0.073705f, 0.380286f, -0.842714f, 0.394223f, 
    0.153816f, 0.155150f, 0.034651f, 1.436500f, -0.503371f, 1.439428f, 1.886188f, -1.633360f, 0.119726f, 0.249503f, 0.400527f, -0.213760f, 
    0.197819f, -1.064981f, 0.503671f, -0.437675f, -0.060814f, -0.438179f, -1.977263f, 1.034709f, -0.459832f, -0.638583f, 0.325091f, -0.894529f, 
    1.824762f, -0.557202f, 0.903025f, 0.094402f, 0.059674f, -1.101845f, -1.456153f, 0.275324f, 0.213782f, -1.703590f, 0.060734f, -0.583529f, 
    -0.475662f, 0.546194f, 0.956879f, 1.055743f, -1.553391f, 1.564882f, 0.004676f, 1.494128f, 0.718251f, -1.048293f, 0.601320f, 1.194686f, 
    -1.653165f, 1.035002f, 0.323022f, 1.272370f, 0.599134f, -0.184299f, -1.052834f, 0.226427f, -1.538257f, -0.394736f, 0.238512f, -1.606687f, 
    1.226805f, 1.612727f, -0.818391f, 0.562298f, -0.757751f, -0.383675f, 0.604519f, 1.989402f, -0.250081f, 0.540176f, 1.340830f, 0.070305f, 
    -1.238222f, -0.151092f, -0.382836f, 0.387856f, -0.523736f, -0.849914f, -0.482154f, 0.862973f, 0.417742f, -1.187935f, 0.235375f, 1.244748f, 
    -0.414473f, -0.180527f, -0.047998f, -0.064232f, -1.008123f, 1.167861f, -0.193335f, 0.671962f, -0.967596f, 0.709578f, -1.447982f, -0.435439f, 
    0.664196f, 2.408803f, -2.006109f, 1.722514f, -1.002359f, -1.033887f, 0.564295f, -0.321182f, -1.240299f, 1.167479f, -1.917634f, 3.539225f, 
    1.145245f, -0.445733f, 1.470758f, -0.023947f, -0.594764f, -1.330917f, -0.705494f, 2.412652f, 0.553441f, 2.008540f, 0.978336f, -0.830735f, 
    -1.967055f, 0.523793f, -0.835782f, -0.088829f, 0.155511f, 0.171854f, -0.668351f, 0.281713f, -1.470143f, 2.355837f, 0.738666f, -0.437729f, 
    1.642004f, 0.511514f, 0.217800f, 0.298166f, 1.847593f, -0.407145f, -0.399770f, 0.770510f, 1.596087f, -0.837021f, 1.040170f, -0.387082f, 
    -1.050245f, 0.273618f, -0.049976f, -0.165877f, -1.273768f, -1.254997f, -0.906417f, 0.228794f, 0.155180f, 0.034517f, 2.447949f, 0.128789f, 
    1.559033f, 2.257227f, -0.019310f, -0.226505f, -0.785223f, -1.087014f, 1.462278f, 0.351405f, -0.163096f, -0.029991f, -0.041652f, -1.120947f, 
    -1.628461f, 0.201646f, -0.769799f, 2.342770f, -1.181700f, -0.710105f, -0.198630f, 1.051688f, -1.431574f, -0.430535f, -0.932274f, 0.080743f, 
    -1.524645f, -1.379694f, 1.483640f, -0.754711f, -2.276365f, 0.210827f, -0.385974f, 0.242294f, 0.099578f, -0.841590f, 0.982403f, -1.079298f, 
    -0.314803f, 0.739070f, 2.507683f, -1.411389f, -0.271383f, 0.842842f, 0.520298f, -0.257322f, 0.407258f, -0.938076f, -0.893223f, -0.065111f, 
    -0.329368f, -0.461281f, -0.309403f, 0.839911f, 0.639837f, -0.187493f, 0.587917f, 1.247156f, -0.354237f, -1.976388f, 0.775584f, -1.523703f, 
    -0.044113f, 0.613370f, 1.742774f, -0.570995f, 1.741194f, -0.200209f, 1.126824f, 0.351058f, 1.615362f, 0.844373f, 0.085879f, 0.377893f, 
    0.903263f, 0.570294f, 1.146785f, -1.089211f, -1.120228f, 2.218273f, -1.494971f, 1.087114f, 0.618332f, 0.751432f, -0.444363f, 0.202875f, 
    0.285306f, 2.998598f, -1.107958f, -0.609437f, 0.770118f, -0.951627f, 0.303774f, -0.099437f, 0.345454f, -0.353104f, -0.960242f, -2.404371f, 
    0.066111f, 0.079819f, -0.203971f, -0.574841f, 0.275138f, -0.292404f, 0.709322f, -0.342754f, 0.176432f, 1.493060f, -0.590037f, -0.555622f, 
    0.251744f, 0.414112f, -0.118198f, 0.916808f, 0.123680f, 0.527790f, -1.722712f, 1.140641f, -0.973508f, -0.014446f, -0.993877f, -0.885226f, 
    0.888042f, 1.147299f, -0.711706f, 1.053282f, 1.581270f, 0.342760f, -0.529496f, -0.197817f, -0.950347f, 1.236231f, 0.505680f, -0.508603f, 
    -1.333915f, 0.491212f, -0.633743f, 0.388926f, -2.029412f, -0.525674f, -0.353713f, -0.073010f, 0.308930f, 0.029347f, 0.116054f, -0.608414f, 
    0.192626f, -1.254377f, 0.528528f, -0.055015f, 0.603519f, -2.325564f, 0.353473f, 0.255315f, 0.609460f, -0.663818f, 0.213718f, -1.349164f, 
    0.557636f, -0.681154f, 0.814570f, 1.552246f, -1.040529f, 0.149559f, -1.033446f, 2.248877f, 0.277640f, -0.445585f, -0.023899f, -0.820012f, 
    1.419000f, -0.080756f, -0.809690f, -0.564730f, 0.011461f, 0.640748f, -0.579134f, -0.342750f, -1.845088f, -1.382634f, -1.245091f, -0.419563f, 
    -0.587296f, 0.043989f, -0.992320f, -0.816496f, -1.612751f, -0.115257f, 0.588037f, -0.053740f, 1.607689f, 0.278646f, 0.133802f, 0.450330f, 
    0.687147f, -0.031233f, -0.408997f, -0.011535f, 0.125177f, -1.447042f, -4.296557f, -0.534016f, 1.740564f, 1.874348f, 0.636537f, 0.413177f, 
    1.567893f, 0.084835f, 0.904006f, 1.117547f, 2.287444f, 0.888139f, 1.453621f, 0.274123f, -0.276198f, 1.266544f, -0.325808f, 1.143039f, 
    1.742783f, -0.410635f, 1.469185f, 0.081190f, 0.141305f, 0.303146f, 0.569464f, -2.729402f, 0.268998f, 1.512903f, 0.687336f, -0.139858f, 
    -1.064715f, -1.196635f, -0.719308f, -0.419020f, 0.836555f, -0.607497f, -0.889384f, 0.735864f, 0.923011f, -0.358372f, -0.595288f, 0.981140f, 
    0.165289f, -0.147326f, -0.098513f, -1.610653f, 0.006861f, -1.187698f, 0.700802f, 0.256780f, -0.826744f, -1.116406f, -0.071755f, 0.120377f, 
    -0.148720f, -0.669055f, -0.875542f, -0.504909f, -1.050329f, 0.243994f, -0.223696f, -0.358712f, 0.444703f, -0.052704f, 0.732723f, -0.269194f, 
    -0.675110f, 0.106063f, 1.197625f, -0.951295f, 0.495851f, -1.291134f, 0.388979f, -0.100011f, 1.228511f, 1.168818f, 1.619062f, -0.897540f, 
    0.703872f, -0.922664f, 0.833159f, -1.805713f, -1.051722f, -0.549272f, 0.671279f, 0.348356f, -0.127797f, -0.440186f, -0.066599f, -1.593120f, 
    0.743778f, 0.278965f, -0.981498f, 0.832933f, 1.802527f, -1.058445f, 0.411557f, 2.041619f, -0.846659f, 1.196775f, -0.905422f, -1.093150f, 
    1.233806f, 0.792120f, -0.027748f, -1.449834f, -0.488213f, 0.558299f, 0.495429f, -1.299072f, 0.308337f, -0.502003f, 0.727886f, -1.955387f, 
    -0.573928f, -0.226189f, 0.345377f, 0.024961f, -1.279883f, -0.599034f, 0.112171f, 0.706137f, 0.490671f, -1.371615f, -1.441899f, 0.140865f, 
    -0.698690f, 1.535296f, 0.239255f, 2.353574f, 0.899777f, 0.782720f, 1.388674f, 0.310379f, -0.741915f, 0.404396f, -1.247417f, -0.518264f, 
    -1.072811f, 1.241727f, -1.276309f, -0.114525f, 0.758890f, 0.902921f, 0.553004f, -0.243822f, -0.160521f, 0.468689f, 0.428350f, 0.565021f, 
    -1.716123f, -2.429457f, 0.187902f, 0.116549f, -0.007600f, -1.659620f, -0.552525f, 1.076740f, -0.798909f, -0.503141f, -0.303761f, 1.559312f, 
    0.209694f, -2.849320f, -0.727081f, -1.911107f, -0.367030f, 0.465583f, -1.108324f, -1.658840f, 1.156822f, -0.021888f, -0.165659f, -0.625062f, 
    1.390437f, -1.387859f, 1.182982f, 0.727533f, -0.624039f, -1.860809f, -0.260283f, 0.349436f, -0.021404f, -0.074510f, -0.732047f, -0.731551f, 
    2.283509f, -0.161327f, -1.898265f, -2.916373f, -0.595645f, -0.005478f, 2.038321f, 0.100928f, -0.843003f, -0.774783f, 0.475612f, -1.225566f, 
    -0.716369f, 0.798039f, -0.264761f, 0.567464f, 0.349269f, 0.522119f, 1.556020f, 1.444385f, 0.347952f, -0.994265f, -1.077762f, -0.421426f, 
    -0.822748f, -0.663670f, 0.472102f, -1.162043f, -1.810282f, -1.145686f, 0.456033f, 0.807321f, -1.565949f, 0.912091f, 1.481087f, 1.007216f, 
    -0.395116f, 0.875816f, -0.438055f, -0.393773f, 0.439497f, -0.564008f, -0.438178f, 0.037749f, -0.503816f, 0.656656f, 0.010372f, -0.346739f, 
    0.225675f, -0.177750f, 1.143615f, -1.214443f, 0.050636f, -1.457665f, 0.429124f, 0.677830f, 0.673236f, 0.806245f, -0.021783f, 0.331513f, 
    -0.010938f, 0.385659f, 1.380795f, -0.459641f, -2.056018f, 0.533811f, -0.160849f, 0.323396f, 1.317650f, -0.180508f, 0.300253f, -1.336328f, 
    -1.554102f, 0.344063f, -0.712396f, 0.820126f, 0.111704f, -0.694826f, 0.604408f, 1.168393f, -0.291952f, 0.887750f, -1.942934f, 1.906197f, 
    -0.959837f, -1.255394f, 0.520986f, 0.842812f, 0.728559f, 1.187788f, 0.427684f, 3.276695f, 1.835676f, 1.307300f, -0.241196f, 0.254376f, 
    -0.945625f, 0.947866f, -0.875373f, 0.093881f, 0.106731f, -2.121150f, -0.079704f, -0.592557f, -1.799843f, -0.845368f, -0.390551f, 0.294944f, 
    -1.954055f, -2.422935f, 1.505739f, 0.368333f, -0.766459f, 0.047586f, -1.039623f, -0.536112f, -1.229473f, -2.561002f, 0.540089f, -1.620117f, 
    -0.383119f, 0.377047f, -1.209863f, -0.000924f, -0.367652f, -1.421290f, -0.036651f, -0.875207f, 0.536009f, 0.251097f, -0.712621f, -0.127394f, 
    2.144688f, -1.229131f, -1.953669f, -0.352001f, 1.069283f, 1.403073f, 0.361721f, -1.350203f, 0.843101f, 0.914002f, -1.390970f, 0.709558f, 
    1.057794f, 2.043962f, 1.643508f, -0.103957f, 0.514619f, 0.741302f, 0.923425f, 1.427141f, 1.151990f, -2.901360f, 1.037816f, 2.144771f, 
    0.511951f, -1.181491f, 1.205672f, 0.111923f, 0.215217f, 2.336513f, 0.156261f, -0.113839f, -0.736168f, 0.563964f, 0.730271f, -0.132693f, 
    0.573091f, -0.507858f, 1.122934f, 0.141851f, -0.294269f, 0.637296f, -0.376545f, 0.812387f, -0.212537f, 0.950953f, -0.867258f, -0.058983f, 
    -0.342200f, 0.108851f, -0.866480f, 0.584724f, -1.745010f, 1.005751f, -1.074698f, 2.819918f, 0.982219f, 0.935052f, 1.939535f, 0.838238f, 
    -0.227817f, 0.025026f, -0.185682f, -0.091345f, -1.331439f, 0.571260f, -0.726319f, 0.618041f, -0.155763f, -1.687912f, 1.147033f, -0.875693f, 
    -1.256249f, -1.945275f, 1.386107f, -1.667610f, 0.031463f, 0.558029f, -1.011474f, -0.443594f, 1.293345f, 0.759928f, 0.609548f, 0.382193f, 
    1.565632f, 0.501841f, 0.266446f, -0.051603f, 0.499757f, 0.241209f, 0.379405f, 1.447589f, -0.773251f, 0.143183f, 0.226900f, 1.283167f, 
    0.087361f, -1.978902f, -1.561198f, 0.003686f, 1.250700f, -1.713623f, 1.970213f, 0.449122f, -0.638439f, 0.788425f, 2.895050f, 1.848838f, 
    -1.204284f, -0.164438f, 0.277090f, -0.206224f, 0.793024f, -0.584091f, 1.736352f, -1.039824f, -0.290471f, 1.495503f, -1.589927f, 0.228814f, 
    0.699437f, 0.189866f, 0.944481f, -0.418992f, 0.035933f, 0.191573f, 1.300320f, -1.393287f, 0.223645f, -0.676421f, -0.580793f, 0.530651f, 
    1.278269f, -0.770632f, -0.285216f, -0.004971f, -0.748095f, -0.667662f, 0.873981f, -1.517124f, 0.551888f, -0.298110f, -2.800606f, 1.203853f, 
    -0.541271f, -0.167766f, -1.728214f, 0.034375f, 2.372902f, 0.261212f, 0.332305f, 2.114190f, -0.722369f, -0.784963f, -1.173491f, -0.691450f, 
    0.488735f, 1.792616f, 1.089094f, 1.676757f, 0.299346f, 1.612050f, -0.175689f, 1.936906f, -1.200533f, -0.120751f, -0.614614f, -0.541860f, 
    0.022265f, -1.427370f, 0.544495f, 0.486246f, -1.323362f, -0.076083f, -1.268244f, -0.496816f, -0.581428f, -0.293106f, 0.528756f, 0.066671f, 
    0.130758f, 0.585341f, -0.010728f, -0.929232f, -0.765987f, 0.775689f, 1.840465f, 0.542739f, -1.068870f, -0.419453f, -0.144831f, -0.583377f, 
    1.675323f, -0.068416f, -1.306694f, -0.283359f, -0.308122f, -2.139477f, 0.753362f, 0.384706f, -0.333631f, 0.056449f, -0.042099f, -1.906478f, 
    -2.220650f, 0.827185f, -0.394605f, 1.362288f, 0.112990f, 2.411487f, 0.401151f, 0.459295f, 0.384428f, -1.547864f, 1.377315f, -0.057240f, 
    -1.489732f, 0.564048f, 0.065350f, 3.437123f, -0.408597f, -0.227231f, 1.284794f, 0.117695f, 0.654309f, -0.772835f, 0.665979f, -1.471740f, 
    0.330544f, -0.673292f, 0.165240f, -0.588442f, -2.115887f, 1.629040f, -1.735288f, -0.037635f, -0.191728f, 0.826519f, -0.511256f, -1.894015f, 
    -1.561795f, 0.301421f, -2.128170f, -0.260386f, -1.277742f, -1.489890f, -1.351411f, 0.403617f, -0.985924f, -0.396411f, 0.937454f, 0.667753f, 
    -0.133785f, 0.657353f, 0.253805f, -1.276546f, -0.129284f, 1.935364f, -0.357874f, 0.348019f, -0.730200f, 1.558610f, 0.676566f, 0.142114f, 
    -0.580796f, 1.046974f, 1.900315f, -0.371309f, -0.686076f, 0.024232f, -0.818843f, 1.185968f, -0.219433f, 0.154967f, 1.159976f, -1.790612f, 
    -0.230430f, -1.745764f, -1.349826f, 0.689478f, 2.395724f, 0.284977f, -0.985910f, -0.154807f, -0.315996f, -0.377317f, 0.364286f, 0.204315f, 
    0.157464f, 1.443280f, 0.317317f, 1.174164f, 0.343439f, 0.548599f, 0.328047f, -0.698209f, -1.347170f, -0.025174f, 0.975691f, -0.490055f, 
    -1.108493f, -0.921763f, 0.742396f, 0.111619f, -0.451232f, -0.368556f, -0.341935f, 0.125856f, 1.241457f, -1.075505f, 1.347115f, -0.497283f, 
    1.286025f, 2.854537f, -0.871687f, -1.395801f, -0.479745f, -1.503704f, -0.057029f, -0.853763f, 0.461755f, -1.309546f, -0.687000f, -0.749443f, 
    -0.236094f, -0.997148f, -0.937593f, 0.164533f, 1.668584f, 0.362403f, -0.134784f, -0.030320f, -1.403544f, 1.153010f, 0.301701f, 1.542018f, 
    0.439960f, -1.036811f, 1.483893f, -0.378622f, 1.045892f, 0.306536f, -0.690492f, 1.003713f, 1.215407f, -0.056549f, -2.620261f, 0.989863f, 
    -0.804536f, 1.945892f, 0.001390f, -0.410735f, -1.418582f, 0.832984f, -0.395647f, 0.317765f, 1.397144f, 0.213476f, 0.196432f, 1.604241f, 
    0.323555f, 0.393824f, -0.533408f, -0.333573f, -0.266829f, -1.467129f, 0.511675f, -1.405354f, -0.818437f, -0.170733f, -0.120011f, 0.703260f, 
    0.185022f, -0.752348f, 0.161814f, -1.434940f, 0.883410f, 0.064877f, 1.543347f, -0.747799f, 0.899253f, -0.030287f, 0.300078f, 2.263486f, 
    2.593134f, 0.788480f, -0.207230f, 0.250202f, -1.432889f, -0.642910f, 1.157954f, -0.325828f, -2.252285f, -0.105729f, -0.032859f, -0.820651f, 
    0.233145f, 0.587995f, -0.338146f, -0.205749f, 1.048834f, 0.632380f, 0.283343f, 0.652745f, -0.388731f, -0.213342f, -0.190786f, 1.302278f, 
    0.197562f, 0.373654f, 0.187126f, -0.622847f, -1.137384f, 0.202760f, 0.763855f, 0.552912f, -0.651198f, 0.850466f, -1.492030f, -0.536819f, 
    -0.090406f, -0.053089f, 0.300178f, 1.364768f, 2.431319f, -0.195130f, 0.837498f, 0.994676f, -0.605631f, -0.397696f, 0.957175f, 0.301458f, 
    0.875778f, -1.546280f, 0.288478f, -0.516130f, -1.305144f, 1.467237f, 0.413864f, 0.815712f, -1.467327f, -1.977643f, 1.495391f, -1.351655f, 
    0.772018f, 0.527878f, -0.372578f, -0.114760f, -0.322882f, 0.131102f, 0.819796f, -0.106774f, 0.014738f, -0.637547f, -0.480958f, -0.731309f, 
    -1.133384f, -0.418575f, 0.276214f, 0.127178f, -0.441499f, 0.642015f, -0.037273f, -0.568691f, 0.944132f, -0.703652f, 0.009782f, -1.277122f, 
    -0.981417f, -0.950883f, -0.811173f, 0.134366f, 1.355725f, -0.168016f, 1.626603f, 1.203369f, -0.119225f, 1.011751f, -0.906614f, -0.501094f, 
    0.462501f, 0.069650f, -0.205759f, 0.874403f, -1.733996f, -0.215332f, -2.098829f, -1.093750f, 0.808902f, -1.558470f, 0.588163f, 0.954137f, 
    0.830479f, 1.553676f, 0.917287f, -1.976117f, 0.429088f, 1.121297f, 0.222064f, -0.231953f, -1.353353f, 0.660657f, -0.354049f, -0.613161f, 
    -1.954899f, -0.327993f, 0.303011f, 0.659774f, 0.016651f, -0.762280f, -0.285296f, 0.735482f, -0.343046f, 1.163554f, -0.270671f, -0.344118f, 
    -0.653398f, 2.576789f, 0.748926f, 1.873111f, -0.910873f, -0.071881f, 0.195769f, -0.438702f, 0.550443f, 0.050222f, -0.238645f, 0.926823f, 
    0.580960f, 0.581388f, -0.513246f, 0.145249f, 1.807258f, 0.173393f, -0.235397f, -0.146105f, 0.658236f, -0.433950f, -0.439755f, -1.075623f, 
    0.322239f, 0.099250f, -0.270573f, 1.094348f, -0.687222f, -0.663509f, -1.012606f, -1.191527f, -1.842367f, 0.909759f, -0.313575f, 0.228901f, 
    0.264889f, -1.279973f, -0.528854f, 1.617134f, -0.166855f, 0.836558f, -0.016983f, 0.321095f, 1.120700f, 0.040251f, 1.281910f, 0.826041f, 
    0.855624f, -0.853176f, -1.117728f, 1.471043f, 0.536177f, -1.273915f, 0.267459f, 0.870680f, 0.686619f, -0.475918f, 1.224378f, 0.815816f, 
    -0.629273f, -0.201009f, 1.086846f, -1.067231f, 0.232029f, -1.782349f, 0.799261f, 0.407777f, 0.788982f, 0.807294f, -0.007056f, 2.381453f, 
    1.376206f, 1.229392f, 2.500112f, -1.379613f, 1.564382f, -0.950014f, -0.617022f, 1.219013f, 0.660071f, -1.247092f, -0.517308f, -0.555560f, 
    -0.166913f, -2.484955f, 0.575727f, 1.443180f, -0.205454f, 0.133708f, -1.428891f, 0.412879f, -1.146081f, -0.492043f, 0.381153f, -0.060762f, 
    0.681661f, -0.691275f, 0.718790f, -0.558215f, 0.743491f, 0.009670f, 1.014771f, 0.196760f, -0.079457f, 0.232400f, -1.660594f, 0.031370f, 
    -0.371488f, -0.360314f, -0.585073f, -0.816573f, -0.387174f, -1.154321f, 0.282693f, 0.387484f, -0.707942f, 0.196487f, -0.734043f, -0.392193f, 
    -0.481075f, -0.539698f, -1.016474f, -0.336774f, -1.135364f, -0.838314f, -1.630880f, -0.822096f, 0.055982f, 0.921085f, 0.119409f, -0.073005f, 
    1.026508f, 0.844638f, 1.905958f, 0.312062f, -0.067003f, -0.414201f, -1.615560f, 1.324350f, 2.072105f, 0.616162f, 0.624853f, -0.090352f, 
    0.296557f, 1.788194f, 2.162047f, -0.095472f, -0.095589f, -0.145574f, -0.026606f, 0.101842f, -1.706499f, 0.163459f, 1.632953f, 1.722097f, 
    0.950518f, 0.588899f, 1.236299f, 0.282951f, -0.483577f, -0.683688f, -0.565559f, -1.294910f, -0.864298f, -0.926865f, -1.143836f, -0.197269f, 
    1.224652f, 0.736221f, -0.528809f, -1.550328f, -0.121435f, 1.124653f, 1.196722f, -0.550196f, -0.870136f, 1.183241f, 0.755616f, 0.674644f, 
    -2.333870f, -1.106312f, 0.580047f, 1.970081f, 1.449521f, -2.002009f, 1.474828f, 0.736434f, 2.731893f, 0.842968f, 0.030907f, 0.812923f, 
    0.721048f, -0.347594f, -0.489234f, 0.622381f, 0.905789f, 1.328064f, -1.346360f, 3.121405f, 0.639286f, -0.267085f, -0.423533f, -0.886420f, 
    0.622161f, -0.948342f, 1.726973f, -1.020672f, -1.395909f, 0.784561f, 1.198046f, -0.151608f, -1.006941f, -1.447859f, -1.687179f, -1.336182f, 
    -1.952571f, -1.601718f, 0.021401f, 0.193419f, -0.468819f, 0.136524f, 0.340521f, 0.029628f, 2.595396f, 0.716977f, -0.427646f, -2.078025f, 
    -0.528937f, -0.216726f, -0.624416f, -0.101042f, -0.470365f, -0.431036f, -0.883422f, 1.073772f, -0.496557f, 1.142218f, -1.109346f, 0.130597f, 
    0.338613f, -0.387788f, -1.014472f, 0.571858f, 0.025688f, -0.080053f, 0.786016f, -0.164372f, -0.209426f, -0.840861f, -0.897675f, -0.759959f, 
    -0.410715f, -0.557182f, -1.258170f, -0.585123f, -0.377595f, -0.637803f, -2.387791f, 0.315237f, 1.415594f, 2.140468f, -1.697385f, -0.479102f, 
    0.387783f, -0.282658f, -0.561807f, -0.000628f, -0.102499f, -0.117351f, 0.048779f, 1.141595f, 0.032884f, 0.420817f, 0.284753f, 0.596359f, 
    -0.299027f, 1.339677f, 0.022977f, -0.268646f, 1.425589f, 0.526491f, -0.763656f, -0.361152f, -1.379541f, -1.140240f, -0.057569f, -1.714338f, 
    0.264468f, 0.840516f, 0.177442f, 1.914742f, -0.158003f, -0.494220f, -1.246383f, -1.202053f, -1.235065f, -0.044157f, -0.076719f, 1.243635f, 
    -0.133030f, 0.917941f, 0.160869f, 1.755173f, 0.192479f, -1.031263f, -2.256415f, 0.705220f, -0.773914f, 0.180018f, -0.876824f, 0.393300f, 
    -1.368363f, -0.634225f, -0.120246f, 0.007947f, 0.390621f, 2.058218f, -0.313152f, -1.361285f, -0.332468f, 0.310560f, -2.095857f, 0.170520f, 
    0.555132f, 0.656718f, 0.461546f, -0.099032f, 0.434872f, -1.208014f, 1.702161f, 0.305561f, -0.634205f, -0.754307f, -0.893522f, -0.049828f, 
    0.860509f, 0.670723f, -0.585614f, 0.274041f, 0.679227f, -0.305504f, 0.247721f, -1.512936f, -0.380060f, 2.124814f, 1.822617f, 0.552768f, 
    -0.604561f, 0.334348f, 0.308274f, -0.108468f, 0.195237f, 1.425253f, 2.571705f, -0.716105f, 0.139588f, 1.023360f, -1.425794f, -1.284839f, 
    0.134521f, 0.259933f, 0.615290f, -0.521249f, -1.564756f, 0.661651f, 1.460411f, 1.444132f, -0.577627f, -1.027177f, -0.009456f, -0.589093f, 
    1.043481f, 1.599206f, 2.132784f, -0.618699f, -0.332083f, 2.823583f, 0.332461f, -1.447858f, -0.329273f, 1.246867f, 0.659073f, 0.998098f, 
    -1.658040f, -0.567457f, 0.633765f, -0.299116f, -0.012015f, 0.517681f, -0.051863f, -1.652701f, -0.256394f, 0.190313f, 0.171242f, -0.817213f, 
    0.559452f, -1.231125f, -0.184378f, 0.809459f, 1.098593f, -1.110384f, 0.189454f, -2.617894f, -0.176030f, -0.987918f, 1.176948f, 1.062655f, 
    -1.878539f, 0.978423f, 1.200282f, -0.144665f, 0.446097f, 0.371473f, 0.565537f, -0.714378f, -0.618532f, 0.986185f, -0.850708f, 1.707963f, 
    0.240357f, -0.532153f, 0.033519f, 0.395941f, -0.496814f, 0.070737f, 0.786379f, 0.751578f, -0.339585f, 0.697833f, 0.355027f, 0.026391f, 
    -0.308837f, 0.180728f, 1.274249f, 0.620253f, -0.471222f, 0.516270f, -0.372210f, 0.106961f, 1.217363f, -1.464708f, 1.425612f, -0.269283f, 
    0.361293f, 1.500436f, 0.640710f, -0.702327f, -0.822491f, -1.362450f, -0.864479f, -0.486445f, 0.848541f, 0.021399f, 1.335658f, -0.441275f, 
    0.174444f, 0.062432f, 0.508764f, -2.110713f, 0.175100f, 1.193920f, -1.927714f, -0.142063f, 0.190361f, -1.313891f, 1.055651f, 0.921192f, 
    0.304866f, -1.473161f, -0.645814f, -1.125184f, -0.768306f, -0.579592f, -0.113773f, -0.546915f, 0.283999f, 0.952919f, -1.520423f, -0.064748f, 
    1.816515f, -1.419857f, -1.775882f, 0.867721f, -1.056874f, 0.312313f, -1.740721f, 0.549226f, 1.042046f, -0.289027f, 0.528306f, 1.175267f, 
    -0.575938f, -0.272842f, -0.672321f, -0.071309f, 0.594304f, 1.433529f, 1.158526f, -0.490126f, 0.501106f, -1.060263f, 2.776985f, 0.153919f, 
    1.049430f, 1.631677f, -0.285723f, 0.695326f, 1.866253f, 0.398465f, -1.499477f, 1.050374f, 0.455673f, -0.036890f, 0.952208f, -2.065273f, 
    -0.084184f, 0.139695f, 1.505122f, -1.656594f, -0.310824f, 1.448978f, 2.393022f, -2.087081f, 0.671243f, -0.699501f, -1.404362f, 1.436246f, 
    -0.776614f, 1.319818f, -0.619424f, 2.525417f, -0.253927f, 0.071687f, 1.934002f, 1.819921f, 0.960399f, 0.342693f, -0.385580f, 0.223306f, 
    -0.264777f, -1.399783f, -0.279291f, 0.816864f, 0.513216f, 0.109822f, 0.458482f, -1.179171f, -0.193665f, 0.486881f, -0.540140f, -0.356665f, 
    -0.787068f, -1.369940f, 1.414435f, 0.882876f, -1.750090f, 1.548710f, 1.296728f, 0.070542f, -0.623998f, 0.203962f, -0.815189f, -0.303571f, 
    1.262206f, 0.252311f, 1.923365f, 0.287690f, 1.001001f, -1.689788f, 0.208557f, -0.105287f, 0.760129f, 0.492816f, 0.568003f, -0.765515f, 
    0.246302f, -0.185313f, 0.979653f, -0.598937f, 2.093774f, 0.340120f, 0.265604f, -0.744421f, 1.558172f, -1.769937f, 0.721883f, 1.117754f, 
    0.537099f, 0.087031f, 0.288703f, 0.097221f, 0.461360f, 0.496283f, -1.753632f, -1.142818f, -0.424429f, 0.604185f, -0.522493f, 0.185207f, 
    -0.767285f, 0.494732f, -0.029275f, -0.916621f, 0.933863f, -0.128824f, 0.106254f, -0.833075f, -0.644745f, -1.543662f, 0.756400f, 0.083586f, 
    0.929216f, 0.209953f, 1.487156f, -1.478278f, -1.142863f, -0.064106f, -0.202096f, 0.215659f, -0.806825f, -1.677822f, 0.015138f, -0.338475f, 
    -0.852318f, 0.332896f, -0.784488f, -0.435742f, -0.755777f, -0.095572f, 0.752359f, 0.399161f, -0.751750f, 0.510783f, 0.216802f, -0.273119f, 
    0.301169f, 0.871919f, 1.142069f, -0.977047f, 0.885563f, -0.855521f, -1.195206f, 1.072398f, -0.106335f, 0.837355f, -0.368059f, 1.145416f, 
    -1.659016f, -0.394724f, -0.924880f, 0.021480f, -0.399407f, -0.661684f, -1.387601f, -1.044165f, 1.431605f, -0.594049f, -1.550231f, -0.817906f, 
    0.624343f, -0.568618f, 0.440307f, -2.274150f, -1.172132f, 0.930515f, 1.126845f, 1.103127f, -0.469953f, 0.726461f, 1.379735f, 1.030799f, 
    -1.958865f, 1.098601f, 0.213287f, -0.312011f, -0.287568f, -1.726342f, -1.311549f, 0.205038f, -0.782049f, 0.164193f, -0.476996f, 0.451843f, 
    -0.333182f, -0.650249f, -0.290840f, 1.186758f, -0.058537f, 1.261947f, -1.160129f, 1.188124f, -0.156796f, -0.022000f, 0.571140f, -0.156247f, 
    1.104874f, -1.078889f, 0.528001f, -0.704724f, 1.890694f, -0.485911f, -2.327734f, 0.202670f, 0.456365f, -0.300557f, 0.492582f, 0.809378f, 
    -0.087491f, 0.497759f, 0.873538f, 0.327492f, 0.329179f, 0.483012f, -0.391198f, -1.401436f, 0.588113f, -0.089836f, 0.935189f, 1.690181f, 
    -0.744274f, 1.468012f, -0.556599f, 0.667671f, 1.052993f, 1.520221f, 0.376462f, 0.904672f, -0.029184f, 0.211801f, -0.993484f, 1.472820f, 
    0.426045f, 1.394544f, -1.227223f, -1.364527f, 0.133008f, 2.301705f, -0.393345f, -0.329921f, 0.127839f, 1.249581f, 0.699404f, -0.760614f, 
    1.182789f, 1.684242f, 1.295587f, 0.749017f, 1.135457f, -0.932878f, -0.283049f, 0.942906f, 0.430307f, 0.628027f, -0.369015f, -0.149327f, 
    1.060019f, 0.397244f, 1.769450f, 0.823459f, -0.429604f, -0.215468f, 1.149500f, 0.283740f, -0.302406f, -0.733748f, 0.909090f, 0.073976f, 
    0.410387f, 1.454009f, 0.588021f, 1.274926f, 1.430879f, 0.621466f, 1.326151f, -0.037522f, 0.195591f, 0.596129f, -0.796653f, -0.478331f, 
    0.252919f, 0.289129f, -0.834994f, -1.250928f, -0.512432f, -0.971819f, 0.737198f, 1.897626f, 1.004062f, -1.307269f, 0.418152f, 1.831261f, 
    1.637174f, -0.184993f, 0.129032f, 0.268799f, 1.325137f, -0.320149f, 0.795362f, -1.635888f, -0.128722f, -1.231475f, 0.039799f, 0.608452f, 
    -1.224531f, -1.859744f, -0.283598f, 0.238885f, 0.085046f, -0.176976f, -1.973286f, -1.888807f, 0.310969f, 0.303474f, 0.366052f, -0.745884f, 
    -0.302813f, -0.149536f, 0.165493f, 0.406977f, 0.749062f, 0.792132f, -1.072850f, 1.657030f, 1.190909f, 0.047771f, 1.474114f, -0.946395f, 
    0.433565f, -0.275027f, 0.511664f, -0.495473f, -1.984413f, 0.028666f, -0.747267f, -0.825161f, 0.095053f, -0.165334f, -0.830462f, -0.039868f, 
    0.966084f, 0.238716f, 1.170961f, 0.247340f, -1.584646f, 0.944095f, -1.381317f, 1.036517f, 1.280887f, 0.137359f, -1.143311f, 1.449696f, 
    1.866666f, -0.507875f, 0.547796f, -0.732059f, 0.716206f, -0.453620f, -1.665498f, -0.845352f, 0.472344f, 1.356223f, 2.084141f, -0.539134f, 
    -2.699507f, 0.662120f, 1.018649f, 1.398254f, -0.514498f, -2.408885f, -1.661371f, -0.014123f, 1.153027f, -0.416809f, -0.413642f, 1.494582f, 
    -0.181703f, 0.378651f, 1.517847f, 0.016325f, 0.091606f, 1.264545f, -0.877044f, -0.202679f, -1.232630f, -1.210449f, -0.061465f, -0.547449f, 
    2.033650f, 0.842556f, 0.949933f, 0.825875f, 0.004722f, -0.300010f, -0.608486f, -0.778417f, 1.823260f, -1.019305f, -0.440920f, -0.015240f, 
    -0.835997f, -0.224957f, 0.297460f, -0.253236f, 1.009047f, 1.254626f, -0.177666f, -0.765383f, 0.090275f, -0.115233f, -1.547395f, -0.398257f, 
    -0.552804f, 2.133350f, -1.540985f, 1.085478f, 1.530096f, 0.406388f, 1.335244f, -0.047281f, 1.529258f, 0.642954f, -0.033085f, -0.714354f, 
    -1.094907f, -0.733635f, -0.504659f, 1.549303f, -0.263304f, -0.357122f, -1.476652f, -0.802214f, 0.359461f, -1.006814f, -1.208213f, -0.818791f, 
    1.924098f, 1.775615f, 1.955093f, -0.869706f, -1.056650f, -0.868723f, 0.665412f, 0.549063f, -1.015791f, 1.221288f, -0.231291f, -1.196171f, 
    0.064553f, 0.706034f, 0.584493f, -0.692165f, -1.827978f, -0.298286f, 1.254672f, -2.310726f, -1.003481f, -1.196782f, -0.206441f, -0.270222f, 
    -0.922735f, -1.141212f, 0.690533f, -0.769731f, -1.887531f, -0.356156f, -1.275560f, -0.433631f, -1.027156f, 1.265116f, -2.437283f, -0.270766f, 
    0.099690f, -1.971674f, -0.798880f, -0.242188f, -0.640383f, 1.319599f, -0.647012f, -0.256140f, 0.199967f, -1.179852f, -0.095509f, -0.734463f, 
    -0.470515f, 0.596648f, -0.481700f, -0.686123f, 1.575354f, 1.763424f, -1.136198f, 1.222238f, 1.039927f, 1.427972f, 0.562662f, 1.469732f, 
    0.189562f, -0.204223f, 1.422635f, -0.988941f, -0.531361f, -0.061598f, -0.427372f, 1.500543f, -0.082023f, -1.286942f, 0.783944f, 1.376703f, 
    -0.045744f, -0.805610f, 0.850858f, -0.026398f, 0.376525f, -0.315895f, 1.125623f, 1.056992f, 0.059996f, -0.980460f, -0.848749f, 0.224256f, 
    -0.474741f, -1.151982f, -0.001927f, -1.746808f, 3.129375f, 0.934661f, -0.866339f, 0.310741f, 0.139831f, 0.764939f, -1.510595f, -1.173667f, 
    -0.224385f, -0.453898f, 0.826248f, 0.754584f, 1.168210f, 0.344268f, -0.078843f, 0.192057f, -1.018460f, -0.003516f, 1.032282f, 1.873608f, 
    -0.803518f, -0.275478f, -0.782269f, -0.090275f, 0.379487f, -1.141561f, -1.066885f, 0.863651f, -0.573784f, -1.000218f, 1.305270f, -0.816208f, 
    -0.743132f, -1.070312f, 2.546574f, -1.093006f, -0.228414f, -0.896435f, 0.798976f, 0.852692f, -0.264217f, -1.340699f, 0.123550f, 0.369499f, 
    -0.025348f, 0.981246f, 0.737782f, 0.917567f, 0.517699f, -1.386348f, 0.567419f, 1.002079f, 1.191296f, -0.915676f, -0.734537f, -0.396525f, 
    0.654148f, 0.462664f, 1.275903f, -1.259760f, -0.812474f, -0.129487f, 1.123325f, 1.341861f, -1.949517f, -0.635254f, -0.251496f, -0.155003f, 
    -2.060132f, 0.485775f, -1.612088f, 1.057229f, -0.377956f, -0.325306f, -0.582398f, 0.601483f, -0.634807f, 0.912360f, -0.153488f, -0.391212f, 
    1.305514f, 0.260399f, -1.669761f, 0.405320f, 1.792109f, -0.835987f, -0.256418f, -0.476106f, 0.167393f, 1.621078f, -1.105572f, 0.769699f, 
    -0.374911f, -1.073151f, 1.254213f, 0.993281f, 1.541782f, 0.603373f, 0.486606f, -0.152247f, 1.080889f, 0.091204f, 0.501387f, -0.073733f, 
    0.423860f, 0.165081f, 0.125821f, 0.050770f, 0.366064f, -0.461713f, 2.015038f, 0.692837f, 0.391596f, 0.580393f, 0.405711f, 0.348380f, 
    -0.637318f, 0.759975f, 1.053067f, -2.171839f, 1.421343f, -0.378992f, -1.498717f, -0.245404f, -1.034798f, -0.850764f, 0.770817f, -0.599921f, 
    1.040524f, -1.240952f, -1.007664f, -0.677629f, 0.304355f, 0.581893f, -1.248349f, -2.185306f, 0.945864f, -1.328305f, -1.513108f, -0.007939f, 
    -0.541153f, 0.738389f, 0.200076f, -0.829552f, -1.280183f, 1.335319f, -0.744396f, -0.513371f, 1.451413f, -2.224133f, -0.137767f, 0.491217f, 
    0.549733f, 0.031793f, 2.435021f, -0.384189f, 0.827790f, -0.779482f, 2.034013f, -1.510597f, 0.481092f, -0.195957f, 1.123886f, 0.556951f, 
    0.751694f, -0.088398f, -0.006739f, -2.036276f, -0.786294f, 0.152419f, 0.209396f, 0.496461f, -0.387425f, 0.301401f, 0.452669f, 0.137041f, 
    -0.511404f, 0.272508f, 1.241133f, -1.038446f, -0.368659f, -0.422542f, 0.202759f, -1.411608f, -0.918953f, 0.932443f, 0.357602f, -0.916837f, 
    1.536377f, 0.540060f, 0.926130f, 0.435998f, 2.324707f, -1.040352f, -0.598752f, 0.291319f, -2.536095f, -0.842861f, -0.226927f, -0.048445f, 
    -1.028059f, -0.633917f, 0.701657f, 0.770451f, -2.740978f, -0.368255f, -1.904130f, -1.642030f, 0.187321f, -1.680055f, -0.944030f, -0.454200f, 
    -0.608141f, 0.518232f, 0.902643f, 0.760023f, 0.686780f, 0.921630f, -1.413661f, -0.320579f, -0.788717f, 0.646427f, -0.193772f, -0.120086f, 
    0.492294f, -0.483803f, 0.199747f, 0.193373f, 0.716912f, 0.232184f, -0.735409f, -0.709184f, 0.273643f, 0.077870f, 0.528877f, -2.335690f, 
    1.614322f, -0.808160f, -0.183311f, 1.854869f, 1.496479f, -1.282485f, -0.475677f, -1.070719f, -0.601984f, 0.011194f, -0.623585f, 0.974147f, 
    -1.940797f, 1.385754f, -1.076355f, -0.452096f, 0.100049f, -0.699350f, 0.668045f, 0.412687f, -0.677457f, 0.464097f, 0.035750f, -0.041704f, 
    0.639058f, 1.529899f, -0.683433f, 0.784812f, 0.170403f, 1.875144f, -0.679538f, -2.123446f, -0.073805f, 0.877969f, -1.279279f, -0.551031f, 
    0.165793f, -0.313918f, 0.214913f, -1.622937f, -0.376083f, -0.255249f, 1.184233f, -0.270438f, -0.610788f, 0.598166f, -0.376865f, 1.387465f, 
    1.446011f, 1.427494f, -1.694518f, 0.509076f, 1.248622f, -0.911088f, -0.687912f, -0.668662f, 0.525155f, 0.481218f, -1.031830f, -0.535649f, 
    -0.360513f, 0.497386f, 0.394411f, -1.839338f, -0.597275f, -0.225687f, -0.293819f, 1.565663f, -0.934519f, 1.914431f, -1.088486f, -0.262083f, 
    0.461067f, 0.366050f, 0.580460f, -0.319290f, 1.059957f, 0.922357f, 0.454090f, -0.140677f, 0.357091f, -0.419882f, -0.266546f, -2.034256f, 
    -1.666381f, 2.010508f, -0.279805f, -0.411511f, -1.503350f, 1.095882f, -0.304084f, -1.435233f, -0.626115f, -1.208771f, 0.796091f, -1.205172f, 
    1.142336f, -1.828915f, 1.727874f, 0.186772f, 0.563755f, 1.836701f, 1.198251f, 1.838518f, -1.854524f, 0.114680f, 0.479487f, -0.676752f, 
    -0.131466f, -2.002094f, -1.273699f, 0.547261f, 1.325694f, -0.150980f, -1.143839f, 2.993656f, -0.616097f, 0.284899f, 1.786649f, 0.912175f, 
    -0.297177f, 0.224815f, 0.633184f, 1.217308f, 0.322459f, -0.018905f, 1.080187f, 0.641326f, 0.016236f, 1.334317f, -0.711602f, 0.067184f, 
    0.008531f, -2.598326f, 0.667297f, 2.850957f, -1.630035f, -0.022911f, 1.208480f, -0.976035f, -0.990288f, 0.739769f, -1.774313f, 0.743030f, 
    -0.240596f, 2.009124f, -1.544523f, -1.536853f, -1.702902f, 1.199542f, 0.562691f, 0.724261f, 1.331952f, 0.819126f, -1.377416f, -0.180197f, 
    1.499578f, -0.872882f, -0.780215f, 0.415769f, 0.342008f, 0.375852f, 1.557926f, -0.691545f, 0.415563f, -0.367531f, 0.638962f, -0.254124f, 
    1.131671f, -0.285211f, 0.249974f, -0.309853f, -0.920166f, -0.610761f, 0.309435f, -0.634141f, -1.521856f, -0.853939f, 0.423027f, 0.655161f, 
    -0.244585f, -1.126840f, 0.894269f, -1.582554f, 1.377436f, -0.994743f, -0.626565f, -0.754201f, 0.830123f, 1.116963f, 0.399348f, -1.019665f, 
    2.201884f, 0.150723f, 0.412080f, -0.779438f, 1.540262f, -0.776264f, -0.301989f, 0.795051f, -0.034483f, -1.830054f, -0.158709f, -0.502093f, 
    -0.318395f, 0.322544f, -0.277204f, 0.458011f, 0.254466f, -0.990405f, -0.117726f, -0.151567f, -1.301829f, -0.207606f, -0.761867f, 0.727283f, 
    0.222054f, -0.780051f, 0.182962f, 0.724348f, -0.787175f, -0.618546f, 1.300074f, -0.329085f, -1.585228f, 0.279441f, -1.220952f, -1.109195f, 
    -1.502257f, -0.019689f, -0.272373f, -0.161761f, 0.216119f, -0.772407f, 0.760498f, -2.139731f, -0.758809f, -0.147978f, 1.264910f, 0.967334f, 
    0.556775f, -0.405817f, -0.880217f, -0.039698f, -0.351474f, -1.261828f, 0.938051f, 2.264971f, -2.920155f, -1.993171f, -1.211579f, -0.519871f, 
    -1.542422f, -0.168449f, -0.453734f, 0.298749f, 1.089585f, 0.614708f, -0.785637f, -1.033589f, -0.445704f, 0.549300f, 1.498831f, -1.786072f, 
    1.405536f, 0.915231f, 0.149412f, 1.786545f, -0.163028f, -1.281079f, 1.030815f, 0.401507f, 1.126732f, -1.020853f, -0.044829f, -1.738235f, 
    0.501501f, 0.813873f, 0.840079f, -0.301468f, 0.760147f, 1.607818f, -2.524667f, -1.129710f, -0.645764f, 0.110765f, 0.948383f, 0.601608f, 
    0.522804f, 0.131881f, -0.136840f, -1.672437f, -0.900550f, -0.400741f, -0.662026f, -2.163865f, -0.279272f, -1.257604f, 0.068214f, -1.404363f, 
    -2.022780f, 0.605859f, -0.433944f, -0.314104f, -0.814087f, -0.425562f, -0.183952f, 0.661304f, 1.397069f, -0.493172f, -1.737391f, -1.344377f, 
    -1.664206f, 0.864812f, -1.585151f, 0.063123f, 1.124270f, -0.623827f, -0.206449f, -0.974542f, 0.408015f, 1.053086f, -0.494525f, 0.640828f, 
    -1.611191f, -1.603689f, 0.568489f, 1.147825f, -0.722730f, -1.429619f, -0.585073f, -0.751675f, 0.401467f, 0.336239f, 1.433360f, -0.908322f, 
    1.164922f, -1.405739f, -0.393465f, 0.378437f, -1.479611f, 0.066407f, 0.734861f, 0.926188f, 0.726178f, 1.203819f, 1.109254f, -0.161697f, 
    0.526639f, 0.686645f, -0.170903f, 0.608471f, -0.353121f, 1.685688f, 0.466466f, 1.054860f, -1.029671f, 1.079538f, 0.231090f, -1.402313f, 
    0.878470f, -0.993979f, -0.407181f, -0.565443f, -0.602274f, 0.718883f, 0.476054f, 1.104743f, 0.547674f, -0.392493f, 0.760409f, 0.962068f, 
    0.111159f, 1.045796f, 0.283164f, -0.602127f, -1.549249f, 0.436865f, 0.566076f, -0.812019f, -0.455883f, 0.512278f, -1.121656f, 0.277974f, 
    0.510399f, -1.881897f, 0.849323f, 0.068601f, 0.649654f, 0.322877f, 0.883179f, 0.669702f, -0.971435f, -0.566206f, -0.628432f, 0.299658f, 
    1.290107f, -0.560683f, -0.951500f, 0.674685f, -0.405055f, -0.155231f, 0.648477f, -2.402252f, 0.639076f, 0.843006f, 1.903126f, 0.203993f, 
    -0.340814f, -1.643424f, 1.264906f, -1.341827f, -0.552309f, -1.187899f, -0.545969f, -1.791439f, 0.132765f, -1.330613f, 1.139113f, -0.013822f, 
    0.548794f, -1.280611f, 0.672965f, -0.407432f, 0.045897f, -0.341464f, -1.618219f, 1.123128f, -0.747401f, 1.203527f, -0.066314f, 1.351135f, 
    0.135169f, -1.669392f, 0.055615f, -0.131322f, 0.001531f, 2.034029f, -1.325538f, 2.473493f, -0.004353f, -0.710460f, -0.182914f, -0.241439f, 
    -0.332786f, -1.226176f, -0.308291f, 0.147448f, -0.086951f, 0.551624f, 0.452206f, 1.420771f, -0.119719f, -0.821793f, 0.975249f, 0.329548f, 
    0.560317f, -0.244961f, -0.893896f, 0.352819f, 0.356266f, 1.233065f, -0.817477f, 0.269275f, -1.382035f, -2.339172f, 0.390882f, -0.213378f, 
    0.655433f, -0.970039f, -1.885178f, -0.562235f, -0.729228f, 0.553214f, 0.448440f, 0.307210f, 1.391453f, 0.590722f, 1.261947f, 0.107732f, 
    -0.379211f, 0.001821f, -0.265765f, 0.919816f, -0.205304f, -0.041378f, 1.105090f, 0.195865f, -2.181219f, 0.505703f, -0.222396f, 0.348117f, 
    1.151491f, -0.991977f, 0.249205f, -0.925067f, -0.059281f, 1.010944f, -0.548522f, -2.412043f, -0.548251f, -1.093750f, -1.393979f, -1.288705f, 
    0.658807f, 0.774004f, -0.550267f, -1.055003f, 0.086929f, -0.542026f, -0.542039f, -0.189524f, -0.246535f, -0.933857f, -0.357212f, 1.945732f, 
    0.198051f, 0.828562f, 2.147757f, -0.945024f, 0.529728f, -0.755992f, 0.148473f, -1.557646f, -0.161716f, -0.543819f, 2.854809f, -0.450054f, 
    -0.631822f, 1.651977f, 1.614340f, -1.152978f, -0.534853f, -2.483781f, 0.399168f, 0.616839f, -0.363912f, -0.640945f, 0.816284f, 1.282525f, 
    1.621342f, 0.721342f, 1.594361f, 0.022587f, 1.297997f, 1.585126f, -0.277005f, -0.092587f, 0.883240f, -0.368420f, -0.247967f, 0.670859f, 
    -0.160782f, -1.022673f, 0.073422f, 0.203247f, 0.900439f, -0.741953f, -0.617070f, 0.491510f, -0.461888f, -0.898807f, 0.241515f, 0.803710f, 
    -1.593697f, -0.237747f, 1.213490f, 0.006346f, 0.939789f, -1.424227f, -1.939640f, -0.025883f, 1.788417f, 0.709174f, -0.182365f, 1.463995f, 
    0.155430f, -1.990150f, 0.338272f, -1.263019f, -1.123472f, 1.887603f, -0.471316f, 1.242744f, 0.982682f, 0.411541f, -1.163678f, 0.542094f, 
    -0.486616f, -0.103609f, -1.404774f, 0.888701f, 0.396693f, 0.027233f, 0.545780f, -1.241168f, -0.774762f, -0.999611f, -0.226465f, -1.575953f, 
    -1.271137f, 0.914617f, -0.267254f, 0.387114f, 0.289070f, 1.009156f, 0.366896f, -0.627288f, 0.269693f, -1.144159f, -0.859783f, -0.143577f, 
    1.915003f, 0.643887f, -0.774890f, -1.072715f, 1.261939f, -1.566836f, 1.122310f, 1.245462f, -0.047829f, -0.789434f, 1.027207f, -0.326676f, 
    -0.482202f, 0.962754f, -2.649464f, -1.493128f, 0.614112f, 0.264097f, 0.296440f, -0.698474f, -1.366642f, -1.880017f, -0.865096f, -0.336857f, 
    -0.265340f, -0.167670f, -0.010245f, -1.680739f, 1.341088f, -0.078368f, 0.597549f, -0.554101f, -1.605353f, -1.302691f, 1.012541f, -1.490115f, 
    0.470790f, -1.715831f, 0.662820f, -0.109157f, -1.533239f, 0.332924f, -0.597872f, -0.277455f, -0.116763f, -0.323629f, 0.860260f, -1.654204f, 
    0.208238f, 2.301345f, 2.035671f, -1.397856f, 0.108885f, -0.717720f, -2.565165f, 1.832768f, -0.522197f, -0.144024f, -0.420381f, 1.171006f, 
    -0.892647f, 1.500959f, -0.160041f, 1.768709f, 0.219703f, 0.616264f, -0.818671f, -0.239272f, -0.404000f, -1.848955f, -1.129019f, -0.154467f, 
    0.120560f, 2.250912f, 0.143620f, -4.100973f, 0.955544f, -1.286345f, 0.727788f, -0.637517f, -1.322203f, 0.305627f, 0.998177f, -1.232831f, 
    1.404814f, 0.817410f, -0.964068f, -1.011798f, 0.328733f, -1.553326f, -0.377261f, 0.710443f, 1.025203f, 0.536680f, -0.306661f, 0.237822f, 
    1.996634f, 0.303692f, -0.991605f, -0.524858f, -0.961881f, 0.926502f, 0.406704f, -1.323433f, 0.455695f, -0.713226f, -0.892217f, -0.290028f, 
    1.079258f, -0.415761f, -0.242897f, -0.763835f, -1.091132f, 0.637980f, -2.078302f, -0.940969f, 0.051393f, -0.360244f, -0.162455f, 0.820925f, 
    -0.388499f, -1.687545f, 0.414427f, -0.886736f, -0.240383f, -0.358762f, 0.266724f, -0.847652f, 0.438629f, -0.395323f, -0.143312f, -0.192924f, 
    1.041496f, -1.945914f, 0.281098f, 1.942445f, -1.036228f, -0.881760f, -1.705425f, 0.042977f, -0.964899f, -1.513301f, 0.095504f, -0.617923f, 
    0.309410f, -0.497701f, 0.103999f, -0.920523f, 0.127116f, -0.427708f, -1.493203f, -0.559241f, -0.336025f, -0.577045f, 0.471172f, 0.374321f, 
    -1.873158f, 0.080958f, 2.281729f, 0.671935f, 0.255634f, -0.610394f, 0.263304f, 0.609068f, -1.138759f, -1.808739f, 0.496168f, -0.654824f, 
    1.185754f, -0.063295f, 0.738614f, 0.499981f, 0.072363f, 0.280382f, -0.593060f, -1.149504f, -1.144480f, -0.411171f, 1.772199f, 0.015102f, 
    2.266352f, 1.509653f, 0.198126f, 0.973468f, -2.748227f, -1.764045f, 1.255864f, 0.452474f, 0.897974f, 0.383063f, 1.383394f, -0.606710f, 
    -0.329716f, -0.082181f, -0.424853f, -1.065844f, -0.173315f, -1.577934f, -1.069395f, 1.069975f, 0.181870f, 0.757156f, 2.338526f, 0.032028f, 
    0.810697f, -0.088639f, -0.392066f, 0.206164f, -0.034886f, -0.569985f, -0.554277f, 0.227216f, 2.332714f, 0.125184f, -0.237952f, 2.048058f, 
    0.183596f, 1.888985f, 0.776648f, -1.674633f, 1.364353f, 0.836355f, -0.238551f, 1.393682f, 0.644789f, 0.366763f, 0.294313f, 0.088874f, 
    0.312608f, 2.369305f, 0.613695f, -0.483417f, 0.169814f, 1.779081f, 1.658888f, 0.364150f, -1.193534f, -0.568597f, -0.409327f, -0.593888f, 
    0.281092f, -1.226275f, -1.503393f, -0.828010f, -0.989929f, -0.617123f, -1.532602f, -0.783520f, 0.871522f, 0.329958f, 0.777473f, -1.898123f, 
    0.933805f, -0.568823f, 0.706456f, 0.206968f, 0.528151f, 1.771601f, 1.179573f, 0.849284f, 0.049280f, 0.181921f, -0.113954f, -0.216415f, 
    0.269010f, -1.044534f, -0.203278f, -3.605010f, -0.322769f, 0.068737f, -1.571213f, 0.958704f, -0.459760f, 0.085812f, 0.371544f, 0.449272f, 
    1.545318f, 0.316211f, -0.556668f, 0.296965f, 0.500768f, 0.203013f, 0.474208f, 1.306228f, 0.236854f, -0.265316f, 0.194632f, -1.673955f, 
    0.158055f, -0.170519f, 2.409583f, 0.880678f, -0.504901f, 0.377381f, -0.977981f, -0.208700f, -1.116470f, 1.498295f, -0.188840f, -0.965607f, 
    -0.166687f, 1.249094f, 0.475238f, -0.596770f, 0.542689f, -0.156129f, 1.066160f, 0.765509f, 0.700206f, -0.866947f, -1.111006f, -0.934445f, 
    -0.671818f, 2.129513f, 0.211753f, -0.984766f, -1.509037f, 0.910334f, -0.990737f, 0.700357f, 1.224788f, 1.239819f, -0.822783f, -1.496993f, 
    -0.677228f, 0.329368f, -1.002370f, 0.848473f, 0.086075f, 0.460131f, -0.719401f, 1.638561f, 1.681783f, -1.366645f, 0.548589f, 0.172416f, 
    -0.669979f, -0.851847f, 1.031042f, -1.115609f, 0.275280f, -0.052035f, 0.075146f, -1.571754f, -0.253329f, -0.232716f, -0.480766f, -0.302772f, 
    -0.209626f, 0.005210f, -0.488145f, -0.372226f, 0.317008f, -0.780450f, 0.081608f, 0.296928f, -0.345797f, -1.187862f, 0.115313f, 0.104558f, 
    -0.854563f, -0.093390f, 1.920504f, 0.481989f, 0.227638f, 0.533524f, -1.917105f, -0.129266f, 0.405323f, 1.328257f, 0.094709f, -0.425157f, 
    -1.237806f, 0.186057f, 0.678809f, -1.075214f, -0.819223f, -1.187107f, -0.059480f, 0.771173f, 1.639141f, 0.007472f, -0.417182f, 1.270863f, 
    -0.174416f, -0.242528f, -0.838926f, 1.239558f, -0.615055f, -0.709487f, 0.997341f, -0.607614f, 0.515883f, -1.598761f, -0.301734f, -0.170585f, 
    0.211373f, -0.004172f, 1.125585f, -0.782257f, -0.387953f, 1.111329f, 0.528547f, 0.218877f, 0.150436f, -0.776590f, -1.131041f, 0.893208f, 
    0.096799f, -1.322316f, 0.260849f, 0.446511f, 0.127918f, -0.293788f, -1.191321f, 0.855377f, 1.163697f, -0.144208f, -0.804744f, -1.040786f, 
    1.004672f, 1.533339f, -1.716634f, 0.941118f, -0.807600f, -0.462387f, 0.141534f, -1.058480f, -1.536133f, -1.691059f, 0.116505f, 0.318954f, 
    1.399366f, -1.085514f, 0.145653f, 0.682227f, -0.091557f, 0.624906f, -0.519420f, -0.870942f, -0.437686f, 0.918885f, 0.028934f, -0.519773f, 
    0.456829f, 0.415628f, 0.705106f, -1.010942f, 0.182460f, -0.474542f, 0.614540f, -0.185131f, -0.481793f, 0.012583f, -0.217046f, 0.903493f, 
    0.205660f, -0.041850f, -0.477870f, 0.621798f, -1.839547f, 1.846212f, 0.274960f, 2.499585f, 0.845939f, 0.207738f, -0.889460f, 0.268481f, 
    -0.945798f, -0.493441f, 1.610561f, 0.470869f, -0.099540f, 0.502231f, 1.320777f, -1.302817f, -0.603172f, 0.265214f, -0.006688f, 0.910993f, 
    -0.978732f, 0.725166f, -0.376259f, 0.094206f, -1.635582f, -0.068453f, -0.193269f, -0.154527f, 0.324695f, -0.946799f, 1.048812f, 0.180649f, 
    2.205373f, 1.042518f, -0.262859f, 0.640958f, -0.924740f, 1.482854f, -1.332064f, -0.475314f, 0.417348f, -0.423937f, 0.593955f, -0.624931f, 
    0.380030f, -0.200334f, 0.575340f, -1.871810f, 1.845612f, 0.438220f, 0.382493f, -0.656147f, -0.395071f, 0.003280f, -2.559426f, 2.353744f, 
    0.376061f, -0.466335f, -1.823117f, -1.542156f, -0.963862f, 0.740118f, 0.471320f, -1.919650f, -1.023737f, -0.621931f, 1.112439f, -1.779963f, 
    0.081804f, -1.449921f, -0.153341f, -0.918486f, 0.669846f, 0.258891f, -1.589350f, 0.379036f, -0.959522f, -0.149713f, 0.399626f, 1.214963f, 
    -0.352945f, 0.598716f, -0.793331f, -0.168087f, -2.049999f, 0.915170f, -0.790221f, -1.442865f, 0.930481f, 1.439557f, -0.788545f, 0.401682f, 
    -0.736735f, -0.689589f, 0.636876f, -1.488473f, -0.791600f, 1.374791f, -0.002522f, -0.649185f, -0.057911f, -0.452025f, 0.920929f, 0.126771f, 
    1.062286f, -0.496671f, -0.710779f, -2.706826f, -1.084351f, -1.819492f, 0.588936f, 0.989082f, 0.698762f, 1.111062f, 1.950416f, 0.538441f, 
    0.962557f, -0.252454f, 1.431546f, -1.116237f, 0.835414f, 1.612087f, -0.725680f, -0.911483f, -0.676404f, -0.904856f, 0.785846f, 0.018083f, 
    -0.357170f, -0.246668f, 0.678755f, 0.201729f, 0.668255f, 1.719902f, 0.051001f, -0.529139f, 0.278785f, -2.324290f, 0.074533f, -1.743821f, 
    -1.190165f, -2.278703f, -0.054695f, -0.334451f, 0.715956f, 1.357197f, 1.408595f, 1.361859f, -0.068759f, 0.713354f, -0.531966f, -0.614461f, 
    -0.115606f, -0.969793f, -0.802123f, 0.896812f, -0.961650f, -2.279048f, 0.095095f, -0.166072f, -0.559804f, 0.966530f, 0.060853f, -1.026515f, 
    1.081913f, -0.932970f, -0.168401f, -0.091937f, 0.406404f, 0.463958f, -1.869528f, 0.077520f, 1.371555f, 0.047322f, -0.228169f, 1.148061f, 
    -0.424554f, -2.157576f, -0.068998f, 1.265263f, 1.306810f, 1.179442f, 0.607368f, -0.722640f, -0.012081f, 0.716894f, -0.961754f, -1.281593f, 
    0.455605f, -0.197327f, 0.150334f, 0.081677f, 1.666418f, -0.408118f, -1.367682f, 0.253424f, 0.463917f, -0.240123f, 0.046213f, -0.381810f, 
    2.162927f, -1.839381f, 0.170147f, 0.307344f, 0.091506f, -1.441679f, -1.139647f, 0.105260f, 0.719906f, -1.562531f, -0.122763f, 2.012529f, 
    -1.201344f, 0.058599f, 1.903930f, -0.746786f, -1.182733f, 0.093072f, -0.079199f, -0.500094f, 0.939369f, -0.683323f, 0.554652f, 1.219063f, 
    0.218684f, -1.259575f, -0.900509f, 0.309211f, -0.261979f, -1.036712f, -1.483713f, -0.323535f, -0.244854f, 0.541856f, -0.349468f, 0.561214f, 
    1.150052f, -0.075264f, 1.560343f, -0.245386f, -0.009437f, -0.096529f, -0.313758f, 0.752271f, 0.591704f, 1.297243f, -0.815372f, 1.407101f, 
    0.470283f, 0.873410f, 0.842727f, -1.685141f, 0.514132f, -0.037925f, 1.031625f, 0.086116f, -0.674425f, 0.349869f, -0.006374f, 0.494470f, 
    -0.035132f, -0.793823f, -0.596428f, -0.454396f, -0.444287f, -0.244242f, 1.281162f, 0.011251f, -0.816402f, 0.256271f, -0.193642f, 0.678900f, 
    1.005196f, -0.473314f, -2.569219f, -0.101047f, 0.954253f, -0.579836f, -0.022929f, 0.165633f, -0.958014f, -0.194908f, -0.347332f, -0.195352f, 
    2.209285f, -0.175815f, -1.416181f, 0.289559f, 2.438943f, 0.987773f, -1.591132f, 1.000270f, -0.526997f, 1.542128f, -0.172162f, -1.773834f, 
    -0.345575f, 0.686099f, -1.000049f, -0.177485f, -0.074650f, -0.262223f, 0.156573f, -0.655585f, -0.066729f, 1.421099f, -0.587762f, -0.106369f, 
    1.190903f, 0.212144f, 1.303986f, 1.422672f, 1.519385f, -0.583907f, -2.016778f, -0.461516f, -0.731349f, -0.653115f, 1.008322f, -0.434853f, 
    -0.440860f, -0.805280f, -1.229925f, -0.308969f, 0.242782f, 1.375509f, 0.123937f, -0.281821f, -1.908510f, -1.119732f, 0.476835f, -0.166419f, 
    1.089042f, -1.752971f, 0.001778f, 1.268255f, 0.138526f, 0.297431f, -1.573831f, 1.107977f, 0.474776f, 1.107076f, 0.158496f, 0.352533f, 
    0.531952f, 0.145942f, 1.456830f, -0.513598f, -0.878065f, -0.372215f, -2.663837f, 0.024937f, -0.349218f, 0.566434f, -1.293166f, -0.690689f, 
    -0.925820f, 0.662499f, -0.995003f, -0.137694f, 1.171576f, -0.137093f, -1.007503f, 1.646618f, 0.669153f, 2.504912f, 0.620923f, 0.424012f, 
    1.499263f, -2.002125f, 0.518162f, 0.351245f, 0.000627f, -0.746625f, -0.018640f, -1.139800f, 0.364571f, -0.333780f, -0.256505f, 0.164111f, 
    2.670726f, -0.424212f, -0.881582f, -0.292098f, 0.529682f, -0.470363f, -1.545921f, 2.228404f, 0.649871f, -0.582464f, -0.077345f, 1.403686f, 
    1.042780f, -0.396570f, -1.698597f, -0.365069f, -0.082288f, 0.178575f, 0.496479f, -2.408983f, 0.684646f, -0.178604f, -0.648855f, -0.665069f, 
    0.897058f, 1.105602f, 0.803473f, -0.910330f, -2.059509f, 0.246136f, -1.270456f, 0.626314f, -0.397571f, -1.295915f, -1.899866f, 0.210513f, 
    -0.562051f, 1.113132f, -0.801643f, 0.047669f, 0.562719f, 0.184920f, 1.492515f, 0.560567f, -0.353623f, -0.456889f, 0.488555f, -1.064529f, 
    1.105418f, -0.586495f, -0.352904f, 0.984446f, -0.132475f, 0.797008f, 1.010248f, 0.648311f, -0.267195f, 0.378995f, 1.158836f, -1.587818f, 
    1.558503f, 1.072030f, 0.044053f, 0.407529f, 1.898258f, 0.775613f, 0.079646f, 0.304017f, -0.316963f, -0.746775f, -0.736056f, -0.828431f, 
    -0.572485f, -0.998187f, -0.356441f, 0.199630f, 2.373002f, 0.555788f, -1.311577f, 0.615693f, 0.918513f, 0.215810f, -0.229861f, -0.423251f, 
    0.119173f, -0.507092f, 1.133923f, 1.674547f, 0.553705f, -0.382111f, -0.324307f, 1.039206f, 1.195867f, -0.332413f, -0.712761f, -1.602832f, 
    -0.386375f, 1.040569f, -0.463142f, -0.815061f, -1.074637f, -0.781418f, -0.644938f, -0.250793f, 0.640253f, 0.105578f, -0.945867f, -0.040740f, 
    -2.619767f, 0.589683f, 0.816868f, -1.181346f, -1.606482f, 0.601328f, -0.336784f, 0.351734f, 1.870377f, 0.043900f, 1.096840f, 0.123897f, 
    -0.595301f, 0.532252f, -0.228956f, 1.488841f, -0.566808f, 0.516855f, -0.035497f, 0.642549f, 1.454995f, 0.697169f, -0.496194f, -0.270282f, 
    -1.790705f, 1.919029f, 0.196975f, 0.552676f, 0.054779f, -0.521118f, 0.974163f, 0.920515f, -1.344249f, -0.662581f, -0.809256f, -1.037769f, 
    1.722119f, -0.953682f, -0.992577f, -0.602291f, -0.603763f, 1.030551f, -0.214694f, 0.129029f, -0.932087f, -0.302437f, 0.782601f, -1.083083f, 
    -0.146789f, 0.719051f, -0.107565f, -0.042637f, -0.984590f, 1.342636f, -1.757127f, 0.271962f, -1.204623f, 0.798432f, 0.156052f, 0.635801f, 
    0.099792f, 2.779534f, -0.742148f, -0.718828f, 0.689653f, 0.828635f, -0.884090f, -0.723092f, -0.837527f, 1.109247f, 1.110953f, -0.909804f, 
    1.797453f, -0.485153f, -0.001667f, 1.138759f, -1.009144f, 0.096482f, -0.225138f, 1.681160f, -0.512781f, -0.931962f, 0.379805f, -0.943794f, 
    -2.807240f, 0.396556f, 1.783444f, 1.320869f, -0.209418f, -0.312876f, -0.663740f, 1.174510f, -0.181218f, -0.357719f, -0.964732f, -0.500245f, 
    -0.651202f, 1.698525f, -1.118027f, 0.101492f, -0.476080f, 1.050628f, -1.647631f, -0.226649f, -0.921909f, -1.686074f, 0.850117f, -0.390955f, 
    1.506006f, -0.464352f, -0.106895f, 1.026702f, 0.641014f, 0.083153f, 2.108329f, 0.170746f, 0.793933f, -0.954894f, -0.383398f, 0.125196f, 
    -1.579750f, -1.173873f, -2.273092f, -1.251134f, 0.171239f, -0.347314f, 0.949669f, 0.500854f, 0.025484f, -0.136152f, -1.494354f, 0.305702f, 
    0.745252f, 0.864519f, -0.118746f, -0.163224f, -0.181663f, 0.174330f, 1.420863f, 0.824590f, -0.705587f, -0.492348f, 0.224807f, -0.026736f, 
    -1.720249f, 2.574021f, -0.902582f, -0.766655f, 0.202679f, 0.225362f, 0.151287f, -0.692571f, -0.665016f, -0.109347f, -0.572625f, 1.647367f, 
    0.406739f, 0.580967f, -0.677430f, -0.024772f, -1.156744f, -1.879227f, 0.164178f, -3.161527f, 0.113658f, 0.117111f, 0.564405f, -0.250917f, 
    1.493581f, 0.859988f, 1.867404f, 1.383424f, 1.319779f, 1.434795f, -0.048522f, -0.619717f, 0.006687f, 0.182023f, -0.781060f, 0.835684f, 
    -1.100779f, 0.865502f, 1.897624f, -0.057146f, -0.972567f, -0.036245f, -0.449912f, -0.607736f, -0.349609f, 0.224358f, 0.973816f, 0.763949f, 
    0.371161f, -1.014987f, -0.547975f, 1.029776f, 0.256057f, -0.728967f, -1.023713f, 0.963960f, 1.490549f, -0.362727f, 0.694682f, -1.602670f, 
    -0.159248f, -1.875923f, 0.976415f, -1.108114f, 0.823071f, 0.162778f, -0.009114f, -1.493489f, -3.830437f, -1.517006f, -1.335253f, -1.481788f, 
    -0.829562f, 0.155015f, 0.950320f, -0.767223f, -1.434237f, -0.692247f, 0.318019f, -0.557705f, -2.464361f, -1.156992f, 1.853469f, 0.382547f, 
    1.329278f, 0.486494f, 0.652718f, -1.142172f, 0.051498f, -0.481679f, 0.641299f, 0.619258f, -0.219669f, 0.861012f, 2.131993f, 0.726221f, 
    -1.309301f, -0.887058f, 1.380840f, -0.758776f, 1.947886f, -0.437506f, 0.474818f, -0.357573f, 0.171378f, -1.931893f, 0.161583f, 0.049520f, 
    0.870078f, -0.213024f, -1.202005f, -1.772026f, 0.039293f, -0.973727f, 1.126728f, -0.101497f, -1.550563f, 0.485404f, 1.605373f, -0.777864f, 
    0.343931f, -0.356609f, 1.028933f, -0.869419f, 0.862314f, 0.430465f, -0.096261f, 1.685399f, -0.402531f, -0.227893f, -0.372636f, -1.080672f, 
    -0.628565f, -0.815948f, -0.406423f, 0.987842f, 1.170905f, 1.677110f, -0.981336f, -0.419829f, -1.007879f, -0.807693f, 0.365411f, -0.540288f, 
    0.045297f, 1.886104f, -0.226845f, 0.015378f, 1.006249f, 0.677693f, -0.978242f, -0.872289f, 1.108217f, -0.521666f, 0.160871f, 1.323006f, 
    3.452695f, 1.307124f, 1.862743f, 0.380175f, -0.189112f, 1.047912f, 0.689866f, 1.556951f, 0.323214f, 0.035202f, 0.416922f, 1.709771f, 
    -1.118365f, 0.475324f, -1.661143f, 0.828328f, -1.179455f, -0.514450f, -0.763985f, -0.403367f, 0.952421f, 1.919746f, -0.221914f, -1.439111f, 
    0.298035f, 0.455991f, 0.145034f, -1.573212f, -0.128783f, 1.197044f, -0.264005f, -0.690383f, -0.605754f, -1.571914f, -0.575929f, 0.997464f, 
    -0.040606f, -1.234311f, 1.673308f, 0.068408f, -0.317357f, 0.023386f, 1.886923f, -0.130759f, -0.232597f, -1.959962f, 0.779730f, 0.931127f, 
    1.142128f, 0.664632f, -1.433026f, -0.741142f, 0.664715f, -0.369790f, 0.063497f, 1.002022f, -1.339414f, -1.083478f, 0.553322f, -0.766658f, 
    
};

// Layer 6 Biases (64 elements)
static const float32_t layer_6_biases[] = {
0.000000f, 0.000000f, 0.000000f, 0.000000f, 0.000000f, 0.000000f, 0.000000f, 0.000000f, 0.000000f, 0.000000f, 0.000000f, 0.000000f, 
    0.000000f, 0.000000f, 0.000000f, 0.000000f, 0.000000f, 0.000000f, 0.000000f, 0.000000f, 0.000000f, 0.000000f, 0.000000f, 0.000000f, 
    0.000000f, 0.000000f, 0.000000f, 0.000000f, 0.000000f, 0.000000f, 0.000000f, 0.000000f, 0.000000f, 0.000000f, 0.000000f, 0.000000f, 
    0.000000f, 0.000000f, 0.000000f, 0.000000f, 0.000000f, 0.000000f, 0.000000f, 0.000000f, 0.000000f, 0.000000f, 0.000000f, 0.000000f, 
    0.000000f, 0.000000f, 0.000000f, 0.000000f, 0.000000f, 0.000000f, 0.000000f, 0.000000f, 0.000000f, 0.000000f, 0.000000f, 0.000000f, 
    0.000000f, 0.000000f, 0.000000f, 0.000000f, 
};

static eif_layer_t model_f32_layers[] = {
    {
        .type = EIF_LAYER_INPUT,
        .weights = NULL,
        .bias = NULL,
        .params.input = { .width=28, .height=28, .channels=1 }
    },
    {
        .type = EIF_LAYER_CONV2D,
        .weights = layer_1_weights,
        .bias = layer_1_biases,
        .params.conv = { .filters=4, .kernel_h=3, .kernel_w=3, .stride_h=1, .stride_w=1, .padding=1 }
    },
    {
        .type = EIF_LAYER_RELU,
        .weights = NULL,
        .bias = NULL,
    },
    {
        .type = EIF_LAYER_MAXPOOL2D,
        .weights = NULL,
        .bias = NULL,
        .params.pool = { .pool_h=2, .pool_w=2, .stride_h=2, .stride_w=2 }
    },
    {
        .type = EIF_LAYER_FLATTEN, // Mapped Reshape
        .weights = NULL, .bias = NULL
    },
    {
        .type = EIF_LAYER_DENSE,
        .weights = layer_5_weights,
        .bias = layer_5_biases,
        .params.dense.units = 10
    },
    {
        .type = EIF_LAYER_LSTM,
        .weights = layer_6_weights,
        .bias = layer_6_biases,
        .params.rnn = { .hidden_size=16, .stateful=false, .return_sequences=1 }
    },
};

static eif_model_t model_f32;
static int16_t model_f32_pool[2099200];
static int16_t model_f32_state[32];
static inline void model_f32_init(void) {
    eif_model_create(&model_f32, (eif_layer_t*)model_f32_layers, 7);
    model_f32.workspace_a = model_f32_pool;
    model_f32.rnn_state = model_f32_state;
    model_f32.rnn_state_size = 32;
    model_f32.state_size_bytes = 64;
}

#endif // MODEL_F32_H
